tree
version=v4
num_class=1
num_tree_per_iteration=1
label_index=0
max_feature_idx=104
objective=binary sigmoid:1
feature_names=Column_0 Column_1 Column_2 Column_3 Column_4 Column_5 Column_6 Column_7 Column_8 Column_9 Column_10 Column_11 Column_12 Column_13 Column_14 Column_15 Column_16 Column_17 Column_18 Column_19 Column_20 Column_21 Column_22 Column_23 Column_24 Column_25 Column_26 Column_27 Column_28 Column_29 Column_30 Column_31 Column_32 Column_33 Column_34 Column_35 Column_36 Column_37 Column_38 Column_39 Column_40 Column_41 Column_42 Column_43 Column_44 Column_45 Column_46 Column_47 Column_48 Column_49 Column_50 Column_51 Column_52 Column_53 Column_54 Column_55 Column_56 Column_57 Column_58 Column_59 Column_60 Column_61 Column_62 Column_63 Column_64 Column_65 Column_66 Column_67 Column_68 Column_69 Column_70 Column_71 Column_72 Column_73 Column_74 Column_75 Column_76 Column_77 Column_78 Column_79 Column_80 Column_81 Column_82 Column_83 Column_84 Column_85 Column_86 Column_87 Column_88 Column_89 Column_90 Column_91 Column_92 Column_93 Column_94 Column_95 Column_96 Column_97 Column_98 Column_99 Column_100 Column_101 Column_102 Column_103 Column_104
feature_infos=[1:997] [-14.57103443145752:27.646657943725586] [0:1] [-36.428501129150391:6597.96875] [-6.4955077171325684:15.49882984161377] [-2.0060350894927979:6.2067298889160156] [-674.71990966796875:393.41290283203125] [-22178.169921875:6106.13232421875] [-12.487496376037598:436.86068725585938] [-13.578149795532227:31.634950637817383] [-18.335336685180664:6993.478515625] [-6.4960131645202637:15.502795219421387] [-28.053266525268555:31.445840835571289] [-26.009456634521484:46.973464965820312] [-31.944694519042969:37.742507934570312] [-9.9968109130859375:60.703720092773438] [-12.52448558807373:13.92392635345459] [0.0026124445721507072:31.445840835571289] [0.011391501873731613:37.742507934570312] [0.001569130108691752:6598.408203125] [-16.353668212890625:5104.26806640625] [-6.8869991302490234:16.279172897338867] [-7.714958667755127:7.745966911315918] [-27.545326232910156:11765.9033203125] [-6.8869991302490234:16.598678588867188] [-17.299571990966797:17.314661026000977] [0.001569130108691752:6674.48681640625] [0.86772853136062622:56.318572998046875] [0.0026124445721507072:31.445840835571289] [0:31.448434829711914] [0:15.803752899169922] [0:19194.30078125] [0:64325756] [0:22.971040725708008] [0:5130.8330078125] [0:32.848526000976562] [0:22.943771362304688] [-17.678892135620117:21.811370849609375] [-6.2339425086975098:11.558638572692871] [-9.9829654693603516:6282.6826171875] [1:981] [-36.428501129150391:18603.431640625] [-6.9687938690185547:17.377525329589844] [-19.437721252441406:16639.17578125] [-6.8869991302490234:17.20233154296875] [-12.218608856201172:12.247448921203613] [-33.947338104248047:8319.978515625] [-6.8869991302490234:15.947443962097168] [-23.859645843505859:24.331686019897461] [0:15.803752899169922] [0:96275944] [0:24073946] [0:0.99323409795761108] [0.69314718246459961:6.8895912170410156] [6.9077553749084473:8.5171928405761719] [-0.98765641450881958:0.99827086925506592] [-1.5590457916259766:4783.77392578125] [-2.9957332611083984:3.3705275058746338] [-8.3467798233032227:22.86598014831543] [-11.23708438873291:12.481614112854004] [-8.229954719543457:6.4718108177185059] [-12.389684677124023:11.014225959777832] [-19.284086227416992:8.4452848434448242] [0:22.895317077636719] [0:12.529378890991211] [0:11.902660369873047] [0:12.747086524963379] [0:19.34086799621582] [0.057958733290433884:22.86598014831543] [0:22.895317077636719] [-10.46027946472168:18457090] [0:56446092] [-12.272308349609375:5198.18359375] [0:15884.369140625] [-5.7219772338867188:47.190704345703125] [0:51.904689788818359] [-8.9722404479980469:6.6643819808959961] [0:12.122587203979492] [-72.41131591796875:56620008] [0:178487936] [0:23.05424690246582] [0:20436600] [-0.98373931646347046:0.99558210372924805] [0.047465156763792038:0.97665053606033325] [-10.042920112609863:15.803752899169922] [-22.971040725708008:21.865585327148438] [-22.943771362304688:21.846563339233398] [-7.7659287452697754:32.843257904052734] [-8.6261816024780273:22.871129989624023] [-11.87841796875:12.529378890991211] [-11.738229751586914:7.1806778907775879] [-12.481563568115234:12.730724334716797] [-19.205997467041016:10.699649810791016] [-15.586149215698242:17128.462890625] [-12.249472618103027:56897512] [-1089.6273193359375:424.19375610351562] [-141.07112121582031:178487936] [-10.586273193359375:49927780] [-16.420217514038086:14174.3212890625] [-5.8487825393676758:51.871017456054688] [-9.0051202774047852:12.122587203979492] [-2.9154758453369141:6446297624084480] [-2.9154758453369141:21362499462889472] [0.69314718246459961:6.9037470817565918] [0.0030612244736403227:1]
tree_sizes=6935 7009 7035 7025 7035 7052 7064 7029 7025 7103 7058 7075 7063 7054 7079 7083 7090 7088 7077 7077 7056 7059 7121 7076 7047 7092 7043 7101 7086 7047 7064 7083 7072 7043 7056 7095 7061 7075 7071 7033 7050 7045 7048 7108 7059 7052 7067 7071 7025 7050 7010 7008 7081 7064 7028 7088 7106 7087 7026 7017 7093 7049 7034 7035 7027 7081 7076 7053 7031 7041 7038 7069 7047 7084 7061 7087 7073 7033 7062 7040 7054 7024 7031 6974 6997 7062 7017 7050 7046 7049 7052 7055 7052 7082 6982 7057 7013 7074 7019 7062 7085 7067 7091 7055 7090 7025 7067 7045 7048 6986 7050 7014 7083 7072 7074 7049 7049 7047 7009 7048 6990 7022 6994 7057 7044 7049 7012 6941 7039 7006 7003 7002 7064 7039 6977 7029 7057 7058 7014 7079 6998 7076 7077 7096 7018 7047 7071 7025 6996 7055 7049 6980 7087 7013 6988 7029 7081 7057 7079 7036 7063 6977 6958 7049 6986 6969 7062 6993 6962 6970 6975 6942 7057 7064 7055 6962 7051 7047 7067 7030 6989 7057 6995 6964 6961 7004 7043 7031 7019 7034 6947 7016 6959 7029 7040 7048 7046 6991 7019 7009 7004 7001 7013 7065 6986 7006 7080 7093 6967 7079 6977 7063 6974 7044 7066 7060 7084 7035 7045 7025 7031 6997 7032 7041 7067 6994 7073 6982 6993 7007 7055 6999 6994 7046 7001 7019 7031 7043 7075 7069 7021 7042 6967 7025 6974 6934 7015 6999 7051 7115 6988 6986 7006 6978 7041 6993 6988 6977 6994 6994 7040 7073 6992 7023 7012 7001 7048 7010 7071 7022 7008 7061 7087 7084 6985 7057 7007 7051 7001 7074 6994 7079 6945 7023 7039 7029 7055 7035 7055 7073 7022 6968 7036 6995 7008 7012 7027 7007 7002 7061 7048 6988 7033 6973 7078 6974 7032 7051 6973 7055 7025 7013 6996 7015 7026 7026 7069 6977 7017 7064 7025 7086 6996 7036 7011 7031 7088 7044 6986 7013 7023 7031 7001 6960 7023 7008 7049 7037 7042 6968 7030 7007 6983 6977 7013 7047 7016 7020 7099 6978 7038 7057 6985 7044 7069 7000 6958 7020 7091 7006 7013 6988 6975 7094 6976 6971 6979 7003 7009 7021 7019 7071 7005 7047 7003 7020 7002 6973 7069 7034 7062 7057 6994 7026 6998 7075 6956 7045 6994 6968 7055 7062 7023 7053 7011 7023 7031 7067 7069 7050 6988 7032 6995 7048 7014 7025 7035 7032 7020 7007 7068 7009 6991 7017 6973 7072 7043 6997 7025 6974 7085 6965 7006 7032 6971 7003 6978 6950 7091 7079 7023 7040 7035 6978 6993 7041 6998 6989 7059 7027 7027 7022 7020 7059 6959 7030 7004 7006 7007 7091 7078 7039 7030 7046 7024 6950 7070 7087 7006 7032 6965 6974 7037 6998 7066 6992 6990 7041 7027 6996 6967 6955 7044 7076 7058 7053 7069 7042 6978 7040 7039 7056 7026 6992 6982 6972 7054 6983 7045 7017 6973 7051 6983 7074 7005 7034 7063 7015 6967 7070

Tree=0
num_leaves=63
num_cat=0
split_feature=81 73 81 29 103 103 104 103 7 81 94 83 101 49 73 56 79 94 104 9 104 62 94 55 7 103 27 54 27 103 51 51 57 49 44 5 52 32 27 80 83 49 55 49 57 3 82 26 62 82 57 82 104 95 8 95 57 8 82 82 82 26
split_gain=107976 32665.9 30206 12379 9250.56 8755.41 9070.46 7764.83 4835.17 4649.09 3725.48 3236.66 3235.37 3222.56 3015.63 2903.62 2796.49 2465.26 2683.68 2387.85 2289.55 2190.01 2071.84 2070.45 2311.14 2059.65 2012.56 1998.61 1889.23 1853.12 1844.22 1830.57 1802.38 1773.95 1733.78 1681.55 1567.05 1545.94 1544.97 1785.25 1529.59 1647.81 1507.46 1503.48 1559.8 1664.54 1466.13 1508.08 1651.29 1442.72 1446.9 1776.55 1427.84 1411.92 1350.28 1300.64 1291.56 2034.82 1492.75 1281.22 1289.94 2491.2
threshold=3.5910847187042241 2.8310816287994389 1.8175008893013003 16.499266624450687 4.686739683151246 4.5271940231323251 0.85426118969917308 5.0657496452331552 -0.7429613173007964 6.8175776004791269 -2.6220289468765254 0.45121721923351293 5.3608586788177499 3.162164688110352 3.6444879770278935 0.037792392075061805 0.33075144886970526 -3.8862544298171993 0.95654872059822094 3.8594089746475224 0.5205645263195039 -2.6772918701171871 -2.8319538831710811 0.088964011520147337 1.6244076490402224 6.2567088603973398 2.9846974611282353 8.5144896507263201 5.7613618373870858 4.9015574455261239 2.8296861648559575 6.3395791053771982 -0.075321137905120836 3.3848361968994145 1.9436568617820742 0.21940911561250689 0.68193310499191295 2.2179559469223027 8.1583757400512713 5.4486901760101327 0.27723231911659246 5.3911418914794931 -0.12248488143086432 3.6357706785202031 0.057315602898597724 -0.24438949674367902 -0.050064763054251664 1.9796340465545657 0.22540366649627688 -0.08510392531752585 1.0565830469131472 0.21013963222503665 0.69236171245574962 -2.2904281616210933 -2.0275238752365108 -0.84418839216232289 0.77989596128463756 -0.18925983458757398 0.013092362321913244 0.66949591040611278 -0.32386043667793268 2.1939643621444707
decision_type=2 2 2 2 2 2 2 2 2 2 2 2 2 2 2 2 2 2 2 2 2 2 2 2 2 2 2 2 2 2 2 2 2 2 2 2 2 2 2 2 2 2 2 2 2 2 2 2 2 2 2 2 2 2 2 2 2 2 2 2 2 2
left_child=2 7 8 4 10 9 11 13 29 20 -4 31 54 27 -13 46 -10 18 -6 21 53 -17 -5 24 36 52 30 -2 -21 -1 -12 -7 37 35 -11 -28 38 42 39 -8 41 -18 -15 49 45 -45 47 -16 -49 -25 51 -51 -19 -3 -9 -27 57 58 -23 60 61 -24
right_child=1 5 3 22 17 6 23 12 16 34 26 14 -14 32 15 19 40 25 -20 28 -22 56 59 43 -26 55 33 -29 -30 -31 -32 -33 -34 -35 -36 -37 -38 -39 -40 -41 -42 -43 -44 44 -46 -47 -48 48 -50 50 -52 -53 -54 -55 -56 -57 -58 -59 -60 -61 -62 -63
leaf_value=-1.0985598842765378 -1.0780410474170614 -1.0614603510004013 -1.007821919856227 -0.97475651348217385 -0.94780847819821346 -1.0682547631507944 -1.0610886644652224 -1.0251890281853455 -1.1326886113508725 -1.0177453054709105 -1.1018363076744473 -1.0082502184078792 -1.0319928220173529 -1.0546530158600766 -0.92392838197835347 -1.0258639441640804 -1.0818591397505679 -1.0642360343889454 -1.0737874620529997 -1.0699333113171299 -1.0896156957857883 -0.98877022446409679 -1.0020737873624606 -1.1402917687916705 -1.0074054330704594 -1.0029313332519465 -1.0885889706503851 -0.92573412301595193 -0.92994997474538843 -1.0656745026415473 -1.0846244191338388 -0.96445315104827778 -1.0495955941869655 -1.0774261212571605 -0.95086968433599817 -1.1135022624457362 -0.98853301281018235 -1.0509028552522117 -1.0816188117070793 -0.9910030849398358 -1.1116549671636649 -0.90574035720788193 -1.0802128560413677 -0.94523855281974956 -0.91155542572887949 -1.0892825190026068 -0.91916076108965283 -1.1279580959576596 -0.8850810331527097 -1.0190018472771227 -1.0590172057415601 -0.91803556773580974 -1.0785937217180384 -1.0362054136183916 -1.0591088869165188 -1.0575157645816133 -0.93669339733209711 -0.95034230018421317 -1.0624030153116453 -1.0034133412389901 -1.0610801061277344 -1.0890097706105952
leaf_weight=50087.808650910854 54667.17362754792 9311.6992777213454 1363.4556611999869 786.37366682291031 828.29174504429102 1980.5592772960663 3299.1306409016252 3232.8163820207119 17129.174563333392 6191.9147942885756 56429.890298321843 10104.715917140245 23580.081990197301 7937.7257205247879 348.90091623365879 3836.2134085819125 2373.6781187653542 23050.092441290617 862.3663814663887 266.98647232353687 3545.3079810962081 1816.2868528366089 2538.448688223958 258.68352407217026 2916.3597180768847 1294.3937100544572 89948.121627546847 215.24335850775242 2485.8196377977729 4683.9802312329412 21491.755385130644 539.74209073185921 22708.142773598433 35643.479918465018 1149.4328815862536 7324.0655574500561 758.96830958127975 10581.300052799284 5226.8228579685092 1253.2691754102707 75659.065159551799 139.68015322089195 21101.577165402472 415.10129262506962 678.24370270967484 386.83997191488743 2990.4821333363652 283.66095130890608 91.797959797084332 1834.3350923135877 1392.439595207572 571.38082180172205 69599.614367000759 13647.120927982032 31678.938621535897 6936.5882794260979 1460.9967387840152 1915.8743680119514 1108.6043312251568 1098.4779779165983 35611.334779262543 1219.4825101420283
leaf_count=190033 301581 52326 5048 6173 6194 14181 22595 23055 40454 35070 226787 71721 176903 52433 2785 27872 6724 151478 6159 1905 11468 13366 19276 1869 21208 11282 395323 1065 19073 26123 104636 4464 152657 170165 5897 22419 5316 67142 37440 8444 206569 463 137870 2901 4871 2774 23073 2312 630 12514 10233 3981 407626 79734 233975 60097 11256 13654 8378 8396 264857 9951
internal_value=-1.07536 -1.04902 -1.08877 -1.08084 -1.08422 -1.02297 -1.00929 -1.06118 -1.10759 -1.04247 -1.09018 -0.991811 -1.0463 -1.06861 -0.9867 -0.973591 -1.11439 -1.07189 -1.01203 -0.98483 -1.05222 -0.996059 -1.05509 -1.0362 -1.04679 -1.07289 -1.09071 -1.07744 -0.94352 -1.09575 -1.09709 -1.04599 -1.06083 -1.08697 -1.00726 -1.09047 -1.0577 -1.06726 -1.06307 -1.04178 -1.11038 -1.07201 -1.07323 -1.01046 -0.967334 -1.01465 -0.934628 -0.998611 -1.06823 -1.02622 -1.01844 -0.994966 -1.07502 -1.04645 -1.05597 -1.04892 -0.977925 -0.990395 -1.01666 -1.05665 -1.05814 -1.03028
internal_weight=763870 257771 506100 356026 314772 82067.7 48222.2 175703 150073 33845.5 212201 29230.6 58491.8 117211 26710.3 16605.6 95301.6 102571 1690.66 12890.8 26504.1 10138 41254.1 18991.6 13454.6 100881 210837 54882.4 2752.81 54771.8 77921.6 2520.3 62328.7 132916 7341.35 97272.2 10538.2 39620.6 9779.22 4552.4 78172.4 2513.36 29039.3 5537.02 1480.18 801.941 3714.84 724.36 375.459 4056.84 3798.16 2405.72 92649.7 22958.8 34911.8 8230.98 6301.76 4840.77 2924.89 40467.7 39369.3 3757.93
internal_count=4026225 1679992 2346233 1875867 1567214 533311 348816 1146681 470366 184495 924378 214670 433933 712748 196025 124304 254210 642836 12353 95504 143528 74526 308653 134146 95003 630483 919330 302646 20978 216156 331423 18645 410102 587907 40967 417742 73795 257445 68479 31039 213756 7187 190303 39143 10546 5675 28800 5727 2942 28597 26728 16495 559104 132060 257030 71379 46654 35398 21744 302480 294084 29227
is_linear=0
shrinkage=1


Tree=1
num_leaves=63
num_cat=0
split_feature=0 71 0 0 104 71 73 11 0 11 71 76 57 51 56 7 36 0 11 17 57 28 83 57 103 34 8 83 9 78 9 104 8 78 83 38 52 16 6 96 57 8 86 9 11 68 9 4 57 6 103 7 0 0 95 70 28 102 70 6 8 56
split_gain=138734 39209.6 21569.2 10881.6 7435.44 6863.03 6174.88 4217.84 3642.41 3361.05 3086.21 2962.7 2768.92 3637.34 3043.5 2389.9 2217.61 2213.69 2087.78 2079.24 2057.97 1815.6 2009.65 1773.17 1661.5 1629.03 1611.76 1521.43 1500.42 1456.79 1440.21 1350.06 1328.28 1497.21 1303.67 1303.38 1239.43 1223.13 1220.96 1177.9 1170.07 1166.95 1144.51 1137.83 1121.68 1120.04 1093.8 1092.82 1159.99 1078.34 1075.3 1072.9 1069.74 1065.52 1047.61 1031.09 1006.26 1217.1 1069.53 1037.47 997.139 984.923
threshold=214.50000000000003 3.0191764831542973 49.500000000000007 476.50000000000006 0.97178906202316295 2.4773564338684086 3.6444879770278935 0.077414117753505721 7.5000000000000009 0.05945344269275666 16.926186561584476 -1.9859457612037656 0.72125855088233959 5.4289114475250253 0.057090912014245994 0.89247491955757152 5.6222517490386972 136.50000000000003 0.14486600458621982 2.6175248622894292 -1.2234308719635008 3.357805728912354 0.49038517475128179 -0.069875869899988161 3.8393944501876835 3.5413442850112919 -0.13135819882154462 0.27723231911659246 -2.2774454355239864 -1.3707910180091856 7.1100192070007333 0.85916748642921459 -0.89428624510765065 0.54707199335098278 0.49762818217277532 -1.174164831638336 0.018045889213681224 -0.83946126699447621 -0.48673908412456507 7.3324077129364023 0.57087349891662609 -2.3722834587097164 -3.7175004482269283 -2.8878504037857051 -0.71328869462013234 2.8661971092224126 -0.13964349031448361 0.44095715880393987 0.85108551383018505 -0.42675949633121485 4.0517470836639413 -43.546373367309563 133.50000000000003 331.50000000000006 2.712273478507996 0.8936239778995515 2.0707327127456669 160.261833190918 2.3440610170364384 1.3368300795555117 -0.74740776419639576 -0.062829423695802675
decision_type=2 2 2 2 2 2 2 2 2 2 2 2 2 2 2 2 2 2 2 2 2 2 2 2 2 2 2 2 2 2 2 2 2 2 2 2 2 2 2 2 2 2 2 2 2 2 2 2 2 2 2 2 2 2 2 2 2 2 2 2 2 2
left_child=2 3 8 7 6 17 24 21 -1 11 42 46 13 14 25 39 52 -4 -19 20 35 37 23 -23 -3 -8 -16 -11 -13 -24 56 -28 -30 -34 -9 -15 -17 40 54 44 -2 -39 -10 -26 -6 -38 -5 50 -49 -21 -14 -46 -7 -43 -25 61 57 59 -59 -22 -58 -31
right_child=1 4 5 9 15 16 12 34 10 27 -12 28 47 19 26 36 -18 18 -20 49 30 22 29 38 43 -27 31 -29 32 55 -32 -33 33 -35 -36 -37 45 41 -40 -41 -42 53 -44 -45 51 -47 -48 48 -50 -51 -52 -53 -54 -55 -56 -57 60 58 -60 -61 -62 -63
leaf_value=-0.052782872509177119 0.10539524510901399 0.02823789389678252 -0.018691133651494666 0.095377775643612828 -0.031057840185315808 -0.002265228744636891 0.10800848963651032 0.036029839128099116 0.11869890551995961 0.11914388688014253 0.14961903486595804 0.049782371372834547 0.070571891349472587 0.1419480324261842 0.017839188363833979 -0.0022840431411450131 0.092595873154181829 -0.011085334528494358 0.015004781799092702 0.10838087089891435 0.11037950325724187 0.18454615479859471 0.06201360664149283 -0.027837005994743109 0.13907550803844165 0.039067100439387457 0.079247186589859492 0.044678933781351626 0.034154805922581244 0.027821913029826978 0.15569924602163965 0.017073811822396839 0.011201660467912674 0.028276889500326113 0.015402251536467458 -0.045504148407944985 0.022846709840611858 0.029273173968065294 0.093644389671878214 0.18104534319359966 -0.026845911145287133 -0.0037917794993827872 -0.032347590835680971 0.052274139652088561 0.18756911642651056 0.11185050698096327 0.040969533254269677 0.15020914975616442 0.0091075404258377859 0.016067994553910551 0.12513861206507498 0.011774955657722222 0.014208205465955474 0.0054718023074711401 0.17834226213246249 0.066278002149571968 0.05914744065063568 0.039258010966364706 0.15564600686874239 0.034778583101335019 0.0988452481897968 0.0011776715716611723
leaf_weight=25160.195790469646 534.3248809799552 9621.0512572079897 140420.61048410088 1790.3426622077823 1715.0006017535925 19694.639970570803 2886.0723157897592 13139.732255771756 124.59080985188484 714.33036984503269 232.92115471512079 4422.8048356920481 1134.6793489307165 119.74392603337765 5329.3777784109116 523.6901623159647 752.06105019152164 77227.061814047396 8512.2272296398878 411.0526427552104 1514.9176999107003 283.40606626868248 1407.1797102615237 543.16702574491501 385.75230528414249 1220.7636100202799 2775.1154766455293 16941.867419362068 13166.025024935603 4487.0587115511298 1049.4072638452053 1274.7286997064948 40607.399223901331 18773.482832051814 18370.793325960636 398.71444492787123 501.54522835463285 3602.8233161196113 656.37179230153561 95.347246080636978 242.78497207909822 68362.311106897891 117586.45176066458 16568.435459174216 86.870518818497658 1201.2099437862635 1912.7874403074384 201.51582811027765 519.29457711428404 1364.1845018714666 4509.0242093577981 7129.0921839922667 19723.236171424389 56858.87062510848 68.476331502199173 767.09544283151627 2763.9933962374926 223.79575732350349 1724.1714558005333 649.43000258505344 3719.0597403421998 15267.712409637868
leaf_count=56113 3289 66030 558319 14705 12888 74158 20639 79838 173 6026 256 36821 7797 911 38259 3746 2748 387531 40135 2948 11294 1175 8559 2950 2637 8824 19906 139777 109351 27969 7641 9485 338223 156360 112236 3023 3396 22373 3982 562 1738 403526 328759 116604 753 9165 15629 1196 3631 10172 33208 53261 92411 390621 342 4680 21327 1698 11896 4686 24904 95925
internal_value=-2.81279e-05 0.0228691 -0.0198554 0.0145031 0.0559179 -0.0114431 0.0628738 0.00734629 -0.0355113 0.0279384 -0.0318264 0.0236132 0.0770566 0.0701559 0.0516369 0.0186015 0.00760155 -0.0148257 -0.00849495 0.0880689 0.095447 0.00391716 0.0167098 0.0716866 0.0448388 0.08753 0.0359129 0.0476982 0.0215109 0.0128172 0.0997863 0.0596865 0.0197867 0.0166004 0.0240047 -0.00201999 0.0649852 0.00159935 0.0463365 0.00715454 0.064099 0.00122183 -0.0321867 0.0542572 0.00527802 0.0856633 0.0672928 0.106776 0.0487085 0.0374918 0.114182 0.013917 0.00597762 0.000414522 -0.00450085 0.00944097 0.0942343 0.113604 0.142302 0.0877214 0.0819322 0.00723069
internal_weight=763972 354538 409434 282921 71617 266330 60364.3 184592 143104 98329 117944 80672.8 33789 27424.5 13486.1 11252.8 40169.9 226160 85739.3 13938.5 12163.2 153082 23480.5 1551.42 26575.2 4106.84 9379.22 17656.2 76969.7 21929 11644.8 4049.84 72546.9 59380.9 31510.5 518.458 2226.45 129601 1268.02 9026.31 777.11 128824 117711 16954.2 8930.96 1702.76 3703.13 6364.51 720.81 1775.24 5643.7 7215.96 39417.9 125221 611.643 20521.9 10595.4 4112.31 1947.97 2164.35 6483.05 19754.8
internal_count=4029185 2488582 1540603 1976095 512487 1155302 428716 1159203 385301 816892 329188 671089 243445 197613 97113 83771 169317 985985 427666 100500 87380 967129 145582 8449 185271 29463 67650 145803 640755 137133 83446 29391 603934 494583 192074 3934 16307 821547 7274 67464 5027 816520 328932 119241 66902 12561 30334 45832 4827 13120 41005 54014 166569 794147 3292 128574 75805 29574 13594 15980 46231 123894
is_linear=0
shrinkage=0.05


Tree=2
num_leaves=63
num_cat=0
split_feature=0 71 0 0 104 71 73 0 11 11 76 36 57 11 101 7 95 49 94 0 72 6 18 50 57 0 100 82 49 82 72 78 51 55 28 94 11 55 50 104 104 28 3 82 49 72 49 83 83 8 102 55 7 72 64 86 51 28 37 82 28 82
split_gain=125824 34974.3 18802.9 10608.7 6090.51 5704.49 4656.65 3784.12 3783.43 3384.97 2744.63 2285.59 2798.22 2418.49 2238.17 2051.24 2002.44 2000.74 1994.48 1837.21 1835.01 1814.63 1790.27 1620.99 1761.13 1597.85 1593.16 1638.76 1564.24 1411.07 1728.55 1476.5 1457.5 1380.55 1320.3 1292.18 1276.61 1252.41 1359.43 1185.51 1180.64 1132.48 1118.84 1106.73 1098.23 1085.61 1071.41 1069.8 1068.87 1065.7 1800.76 1448.06 1178.55 1340.33 1060.95 1060.36 1046.69 1128.58 1025.43 1011.99 997.425 983.782
threshold=205.50000000000003 3.0904548168182377 49.500000000000007 452.50000000000006 0.97178906202316295 2.5182150602340703 3.9079390764236455 7.5000000000000009 0.077414117753505721 0.05945344269275666 -1.8923988342285154 7.577179193496705 0.72125855088233959 -0.51624298095703114 229.63362884521487 0.89247491955757152 -2.2904281616210933 1.8433653712272646 -3.41349184513092 94.500000000000014 1.083402752876282 -1.675953686237335 1.3484630584716799 5.7767419815063485 0.14593826234340671 289.50000000000006 -1.4628095626831052 0.035179533064365394 3.1177324056625371 -0.0046115589793771497 0.19607397168874743 2.3964807987213139 2.4095358848571782 -0.76246282458305348 3.357805728912354 -3.6225249767303462 0.14486600458621982 -0.036453982815146439 5.8699378967285165 0.93754065036773693 0.88014647364616405 1.1909337043762209 -1.0056769847869871 -0.015367934945970772 4.4268634319305429 1.1373540163040163 3.4178320169448857 0.4943502545356751 0.47018642723560339 1.8265804648399355 34.405569076538093 -0.10501323640346526 2.7290117740631108 1.1100645661354067 3.0608398914337163 -3.5921283960342403 9.4417405128479022 3.9513951539993291 0.96002116799354564 0.0034867008216679101 5.147747516632081 -0.09196623787283896
decision_type=2 2 2 2 2 2 2 2 2 2 2 2 2 2 2 2 2 2 2 2 2 2 2 2 2 2 2 2 2 2 2 2 2 2 2 2 2 2 2 2 2 2 2 2 2 2 2 2 2 2 2 2 2 2 2 2 2 2 2 2 2 2
left_child=2 3 7 8 6 19 16 -1 17 10 -5 12 13 -8 55 44 -3 60 39 -4 35 -22 -12 24 -20 -19 27 -15 -17 31 -31 37 -32 -11 -27 -18 -21 38 -24 -7 -28 -39 -42 -43 54 -36 -25 -46 -48 52 -51 -52 -35 -54 59 -9 -14 -58 -50 -6 -2 -60
right_child=1 4 5 9 15 18 11 14 -10 33 22 -13 56 26 -16 28 20 25 23 36 21 -23 29 46 -26 34 40 -29 -30 30 32 -33 -34 49 45 -37 -38 41 -40 -41 42 43 -44 -45 47 -47 48 -49 58 50 51 -53 53 -55 -56 -57 57 -59 61 -61 -62 -63
leaf_value=-0.052400407944942176 0.092970707706579545 0.023794514382271106 -0.020692842432090117 0.057152623150976793 -0.011746446321653788 0.16080070177140013 -0.01170595991700233 0.09341786229982596 0.021355578079836537 0.13704618409251204 0.0099259658888771144 0.11312114821946118 0.1059998179972656 0.060133058808115904 0.13919133292157379 0.0073926340458623473 0.10146166566762482 -0.0038729095749311295 -0.014551283070432977 -0.012881461410727768 0.10770408938427622 0.05686087460732632 0.0030751544687385285 0.0079273767597315536 0.013987986687855912 0.0038881905645973738 0.078938473946497001 0.0049619266026603923 0.093663046019636861 0.013656607549539831 0.16321711691783486 0.11813835355670921 0.03857165523727224 0.031758725893157584 0.018135288440615401 0.033136889560760656 0.0025553039825514561 0.11945873332672929 0.06866355718003618 0.015946674276572297 0.099412948951697833 0.030406288060805961 0.017675842105103944 0.063833475165848266 -0.015583570700402338 0.096514993068627125 -0.019184059789899871 0.085556937449275658 0.0048415595700028501 0.12637859581035937 0.15015161066605759 0.015279898180549149 0.041855303121291758 0.11013664981207845 -0.019119273041209878 -0.031156632770752681 0.12385613955918612 -0.046750102611806565 -0.021784895940242729 0.04052772538780585 -0.030579046867737332 0.069811586668814873
leaf_weight=24264.490369558334 886.30906759947538 8312.8025559857488 80780.875573672354 5044.8407210111618 1599.7773748710752 329.24292816221714 1123.2783387005329 170.13363076746464 32875.193808726966 387.26182080805302 32473.668365307152 3105.5290035903454 5049.1663178578019 4188.3617967441678 192.59468253701925 849.57151187211275 742.94146651774645 63515.836172476411 13445.602125175297 121496.39018806815 2188.0046098306775 8893.5085708275437 4904.6359916701913 8449.2346048876643 9038.6567996367812 73909.071298234165 12080.435713633895 1983.3706194907427 1376.9548357576132 28796.409486658871 244.44436959922314 522.50620026886463 5336.2017172276974 14854.743358775973 13355.095949925482 9973.4360531195998 15052.24642264843 447.14896267652512 940.7439738214016 247.23478019237518 564.75957043468952 10073.641516752541 1612.6569474861026 3284.4429995268583 391.60776539891958 455.96632800996304 724.74458287656307 784.0094116255641 1107.0470678657293 955.30005833506584 237.83149141073227 1195.5528086945415 2102.4549675136805 1092.8203502073884 3701.8656572625041 115823.46715641022 161.33166068047285 239.72546580433846 325.50876370072365 2195.6231364682317 199.70256545394659 2910.1840077117085
leaf_count=55929 4946 56985 301931 39735 12457 850 8779 259 194246 2861 264878 22415 34051 28898 180 6025 5350 360416 56589 577331 14333 58001 39243 34799 38027 489093 83356 14304 9738 234334 1921 4519 44166 117961 85617 69036 66717 3655 7804 938 3679 81669 10873 26186 2942 2760 3021 5411 4792 7640 1907 9984 16873 8834 28163 328588 1246 1827 1690 15536 1339 11017
internal_value=-0.000122471 0.0208541 -0.0197614 0.0133374 0.0523597 -0.0116413 0.0585846 -0.0344409 0.00597278 0.0254184 0.0213003 0.0724899 0.0678131 0.0597137 -0.0306898 0.0179645 0.0446783 0.00265264 0.00662671 -0.0147159 0.0526411 0.0669085 0.0192213 0.00514785 -0.0030784 0.00216681 0.063641 0.0424067 0.0607631 0.0247545 0.0185933 0.0352523 0.0440597 0.0436223 0.00654001 0.0378827 -0.0111798 0.0330425 0.0136408 0.0988121 0.0728289 0.0412559 0.038912 0.0386294 0.00697143 0.0207298 0.018831 0.0518816 0.0370058 0.0418455 0.0732314 0.0377473 0.0376882 0.0652354 -7.67385e-05 -0.0309731 0.099825 0.0220164 0.0463854 0.0184967 0.0702444 0.0605932
internal_weight=763568 369211 394358 298092 71118.7 253907 60219.3 140451 185197 112895 92068.7 30108.6 27003.1 21552.9 116186 10899.4 30110.7 152322 36577.5 217330 21797.9 11081.5 87023.8 36001 22484.3 151236 20429.6 6171.73 2226.53 54550.2 34377.1 20173.1 5580.65 20826 87720.1 10716.4 136549 19650.6 5845.38 576.478 14257.9 13805.2 2177.42 13358.1 8672.88 13811.1 13516.7 1175.62 5067.48 20438.7 2388.68 1433.38 18050 3195.28 7497.27 115994 5450.22 401.057 4342.74 3795.4 1086.01 3235.69
internal_count=4028650 2545992 1482658 2052587 493405 1097702 413133 384956 1138417 914170 748110 209428 187013 149889 329027 80272 203705 944171 151723 945979 146720 72334 708375 149935 94616 937886 141110 43202 15763 443497 280421 163076 46087 166060 577470 74386 644048 158557 47047 1788 97908 111510 14552 107855 64509 88377 55319 8353 20520 163199 19531 11891 143668 25707 56156 328847 37124 3073 17499 27993 6285 12707
is_linear=0
shrinkage=0.05


Tree=3
num_leaves=63
num_cat=0
split_feature=0 71 0 0 71 104 73 11 0 9 32 101 57 103 94 5 80 57 17 0 35 49 0 8 28 11 18 102 11 54 83 49 102 24 95 80 102 89 28 78 37 11 15 9 0 49 80 79 70 54 54 57 83 16 104 94 11 8 94 83 26 28
split_gain=112861 29610.5 17987.5 8643.5 5612.46 5557.98 5231.79 3665.37 3612.77 2341.72 2345.81 2326.86 2066.35 2055.04 2053.52 1851.75 1795.86 2711.87 1806.78 1744.87 1602.9 1596.36 1653.21 1395.97 1519.69 1381.93 1363.45 1718.66 1340.93 1274.11 1223.48 1221.01 1207.16 1554.11 1317.88 1181.85 1143.79 1214.82 1118.76 1074.72 1068.87 1051.06 1156.67 1350.75 1177.77 1173.46 1063.12 1046.89 1114.3 1039.33 1415.77 1035.68 1033.1 1015.62 1013.63 996.817 985.237 967.704 965.135 964.551 986.963 939.826
threshold=211.50000000000003 2.9855976104736333 49.500000000000007 499.50000000000006 2.3531188964843754 0.91151180863380443 3.9079390764236455 0.072662610560655608 7.5000000000000009 -1.8374341130256651 2.7426767349243169 229.63362884521487 -1.2234308719635008 5.0139575004577646 -3.41349184513092 -0.31276492774486536 6.0573179721832284 0.77989596128463756 2.2379558086395268 124.50000000000001 9.1686663627624529 1.8866295218467715 307.50000000000006 -0.22373409569263455 2.2949204444885258 0.12917657196521762 1.3484630584716799 90.628265380859389 0.070577677339315428 7.16123390197754 0.49762818217277532 3.8279111385345463 218.82862854003909 0.65865063667297374 2.490937471389771 4.8591740131378183 41.314094543457038 -1.583915591239929 3.3030436038970952 -1.7612887620925901 2.6956802606582646 0.16309601068496707 4.5952563285827646 1.7054570913314822 127.50000000000001 1.8433653712272646 4.9800577163696298 3.5126574039459233 -1.6643891930580137 8.3775858879089373 8.3994226455688494 0.20969424396753314 0.51804023981094371 -0.92844542860984791 0.94447526335716259 3.8436517715454106 0.51639664173126232 -3.9694776535034175 -3.2561801671981807 0.73218268156051647 3.1681898832321171 4.1340277194976816
decision_type=2 2 2 2 2 2 2 2 2 2 2 2 2 2 2 2 2 2 2 2 2 2 2 2 2 2 2 2 2 2 2 2 2 2 2 2 2 2 2 2 2 2 2 2 2 2 2 2 2 2 2 2 2 2 2 2 2 2 2 2 2 2
left_child=2 3 8 7 19 6 13 21 -1 36 26 -10 -8 28 54 38 17 23 -18 61 41 -2 58 24 56 -21 -11 47 -3 -19 -9 -29 33 34 -17 -24 -5 -38 -7 -26 -41 -16 44 45 46 -44 -43 48 -28 -32 -51 53 -45 -37 -6 -20 -14 -50 -23 60 -52 -4
right_child=1 5 4 9 14 15 12 30 11 10 -12 -13 16 -15 20 32 18 29 55 25 -22 22 35 -25 39 -27 27 31 -30 -31 49 -33 -34 -35 -36 51 37 -39 -40 40 -42 42 43 52 -46 -47 -48 -49 57 50 59 -53 -54 -55 -56 -57 -58 -59 -60 -61 -62 -63
leaf_value=-0.05081052812588354 0.062786286055543913 0.017520034229444141 -0.017160144795933217 0.043783435399003895 0.14405906299218704 -0.022499974108533258 -0.0048970157870588671 0.032215775332139651 -0.029700832719058313 0.010505950668604087 0.04420326585990221 0.12912480917704083 0.050665359802119926 0.056466163154275287 -0.0055855916583807249 0.027876410637059409 0.10634440829291719 0.0032898876099151948 0.11959979176116904 -0.011179302684221208 0.1147104887137967 0.099439008587922276 0.011850890636980782 0.072614469316789901 0.10300122638645813 0.0078353348105632357 0.004378270933933801 0.042548104979314445 0.044149891936885649 0.10897680297431461 0.0082649418647521029 0.1316200521738797 0.072420884923422482 -0.014355617375107418 0.090494708352991504 0.16695209570206618 -0.016487945757764425 0.13105541025543829 0.088504598720624786 0.024019642478511127 -0.04160555232239363 -0.0040182746808030438 0.11816588449688314 0.052978126154723186 0.028844613733453012 -0.031900945484299323 0.03674737874213431 0.069116784457258204 0.12257319870879338 0.11615077799937301 0.042564348264097156 0.011421966196042938 -0.031456679693140283 -0.0072742230848469001 0.017309920301400016 0.039884817638169402 0.12192375135175899 0.02480187203841935 -0.0030346961297784397 0.11437309315083549 -0.016270520012533506 -0.039159838479717234
leaf_weight=23747.914663791656 1130.5398623421788 9484.555312089622 115273.47588565946 8012.7222065404058 391.77927420288324 2669.1768140047789 860.61796510219574 14932.428719118237 114269.30685972422 26557.99766215682 11062.934764258564 230.10579191893339 3448.6085022687912 13272.239050425589 19043.4127753824 10969.097279533744 6333.1388872936368 309.45634005963802 489.43405820429325 84027.343797974288 323.91056252270937 229.55011448264122 58614.152210861444 5511.3673012107611 321.86624339967966 10780.700254231691 7663.5739260539412 1072.1011901423335 9427.9406088814139 3642.339008115232 17089.189861431718 600.50313537567854 1536.0351434797049 2060.5595333874226 909.27699386328459 82.977157771587372 171.95266159623861 733.79474629461765 247.08911538869143 2446.6806002482772 830.19304412603378 8079.7372728139162 134.07017216086388 1174.9576307013631 9131.5619736537337 3688.4727749302983 1992.9743609279394 1189.3822288736701 254.14678705483675 495.16185219585896 1623.8509982302785 12744.724965527654 522.78349631279707 21267.558369629085 264.09751374274492 1968.6033540591598 564.42827942967415 32336.070473119617 68429.756949327886 276.38800936937332 1269.1537774428725 5067.779441319406
leaf_count=56028 6450 65084 457274 65418 991 19680 6137 89013 329282 219567 90384 183 23995 91284 84964 79253 44086 2011 3524 420428 1179 1182 395010 36019 2218 50200 62969 8703 58798 23530 103500 4938 10782 13784 5869 466 1466 5901 1767 16865 6150 30625 253 4745 39945 15083 6685 9797 2137 3126 9672 85716 2509 144663 997 13542 2924 264101 395724 1669 7646 21257
internal_value=-7.81767e-05 0.0199982 -0.0184905 0.0126194 -0.0107394 0.0474732 0.0549642 0.00679172 -0.0330621 0.0255014 0.0228152 -0.0293805 0.0713159 0.0413836 0.00537184 0.0234761 0.0738518 0.06439 0.0922199 -0.0140902 0.00406439 0.00360513 0.00319013 0.0534479 0.0395625 -0.00901707 0.0194185 0.0249081 0.0307967 0.100704 0.0213015 0.0745865 0.0303632 0.0257237 0.032677 0.00754533 0.0498141 0.103058 -0.0130677 0.0159639 0.00738594 0.00324294 0.0100428 -0.0101269 0.0158409 -0.026608 0.00405041 0.0229013 0.0215341 0.0134475 0.0376069 0.000143393 0.026975 -0.00658932 0.0931259 0.0557995 0.0607156 0.0255681 -0.00269065 0.025303 0.0167569 -0.0180869
internal_weight=763288 365143 398144 287841 259897 77302.7 58911.5 198185 138247 89655.2 80736.7 114499 26726.7 32184.7 44747.8 18391.2 25866.1 17074.9 8791.18 215149 44091.9 162499 161369 13123.1 7611.78 94808 69673.8 43115.8 18912.5 3951.8 35686.2 1672.6 15475 13938.9 11878.4 92709.4 8918.47 905.747 2916.27 3598.74 3276.87 43768 24724.6 5520.28 19204.3 3822.54 10072.7 41443.2 40253.8 20753.7 3664.55 34095.3 1697.74 21350.5 655.877 2458.04 4013.04 32590.2 68659.3 3169.39 2893 120341
internal_count=4029148 2506520 1522628 1979218 1137135 527302 396167 1243837 385493 735381 662596 329465 181001 215166 187976 131135 174864 113712 61152 949159 185988 1029211 1022761 88171 52152 470628 572212 352645 123882 25541 214626 13641 109688 98906 85122 625855 72785 7367 21447 25233 23015 184809 99845 22590 77255 15336 37310 339004 329207 125613 22113 230845 7254 145129 1988 17066 26919 266238 396906 18987 17318 478531
is_linear=0
shrinkage=0.05


Tree=4
num_leaves=63
num_cat=0
split_feature=0 71 0 0 81 81 0 11 94 104 73 0 76 11 94 101 24 11 8 95 27 28 26 28 80 82 26 94 17 27 55 28 49 51 26 49 86 72 6 19 16 80 7 83 82 104 27 102 95 104 83 81 7 82 70 28 102 56 11 28 49 9
split_gain=102059 24547.2 18550.3 6812.33 6190.41 4716.13 3595.87 3144.37 2594.68 2245.58 3255.72 2219.24 2186.59 2086.54 1964.87 1929.1 1752.59 1730.68 1647.93 1591.85 1598.36 1499.31 1552.23 1490.5 1371.46 1344.24 1704.58 1327 1320.74 1232.82 1200.4 1266.79 1321.91 1561.17 1182.27 1178.68 1151.27 1149.49 1348.86 1142.12 1139.08 1206.1 1146.09 1216.22 1132.74 1259.67 1131.9 1177.71 1172.73 1120.76 1072.88 1072.17 1068.34 1066.4 1062.06 1037.76 1262.3 1157.69 1037.47 1250.22 1272.39 1037.4
threshold=226.50000000000003 2.9855976104736333 54.500000000000007 519.50000000000011 4.9416494369506845 3.7066679000854497 7.5000000000000009 0.07504854723811151 -3.41349184513092 0.97863006591796886 3.5923416614532475 133.50000000000003 -1.6195281744003294 0.1491067856550217 1.0051956176757815 229.63362884521487 1.870213568210602 0.05945344269275666 -2.145654439926147 -0.6847759187221526 10.200594425201418 2.2562701702117924 1.8416920304298403 2.3837327957153325 4.1950118541717538 -0.30415788292884821 1.8505074977874758 -4.2908396720886222 2.4477199316024785 4.0471184253692636 -0.21873801201581952 2.240360021591187 4.0326733589172372 4.8566441535949716 4.5189290046691903 3.934367418289185 -3.5921283960342403 1.1901360154151919 -2.7539210319519039 0.33795963227748876 -0.99162602424621571 5.0047600269317636 0.4022830873727799 0.34642991423606878 -0.067248191684484468 0.68677827715873729 9.8316469192504901 218.82862854003909 3.4364414215087895 0.94447526335716259 0.49762818217277532 4.0507316589355478 2.4217008352279668 0.0027871812926605348 19.57808876037598 1.3231009244918825 13.361566066741945 -0.30730344355106348 -0.45202052593231196 1.3813762068748476 3.7699829339981084 0.19143243134021762
decision_type=2 2 2 2 2 2 2 2 2 2 2 2 2 2 2 2 2 2 2 2 2 2 2 2 2 2 2 2 2 2 2 2 2 2 2 2 2 2 2 2 2 2 2 2 2 2 2 2 2 2 2 2 2 2 2 2 2 2 2 2 2 2
left_child=2 3 6 7 8 23 -1 18 49 10 37 -10 -5 -13 21 36 19 25 61 30 -21 22 -12 -3 51 26 -14 -25 40 39 -16 32 33 -32 -33 -35 -8 -7 -39 -27 -20 42 43 -42 -15 -46 -11 48 -48 -4 -9 -19 -28 -31 -49 56 -44 -57 59 -45 -61 -2
right_child=1 5 4 12 -6 9 15 50 11 46 14 13 17 44 16 -17 -18 24 28 20 -22 -23 -24 27 -26 29 52 -29 -30 53 31 34 -34 35 -36 -37 -38 38 -40 -41 41 -43 55 58 45 -47 47 54 -50 -51 -52 -53 -54 -55 -56 57 -58 -59 -60 60 -62 -63
leaf_value=-0.04930790112067094 0.048807641241322738 0.0041576186446017132 0.12920527886890104 0.051455135076883422 0.018596191411534103 0.02721547676989125 0.087952337597112865 0.032068544006676171 -0.015783273663200835 0.042274080266318487 0.13655566215922746 -0.0088831733776277497 0.083860807590394146 -0.020834504575377135 -0.0018725135302794583 0.11527388189151742 0.10503479267920797 0.046894499439234821 0.090934202585343793 0.076977616650928768 0.023875969889136938 0.10932387279320058 0.018712719970886926 0.12778392937687064 0.033251036201650132 -0.032318901553993619 0.0077826143965841373 0.031225958600700633 0.015720438562721647 0.039735348990848497 0.0085318641495386715 0.022739438309848977 0.10092324144748693 0.083393382367154947 0.063790786081825618 -0.0357414637733331 -0.028316786927697686 0.096173608500106908 0.043622336652729202 0.01219544005226423 -0.024422894731570721 -0.0062710856734753094 -0.036673818623656193 0.045372899185590315 0.031437423870523416 -0.0012115237124526389 -0.023823708046472235 0.11550213939737485 0.088242787013943835 0.0081696213436625899 0.01388627460951355 0.13844979903055424 0.14437269178953946 0.018041349956624674 -0.044103806431721321 0.069173914540482939 0.064908170925108075 0.0084108174952922492 0.0054123787078677217 -0.023397758829276652 0.075578353649356389 0.0082552947840360737
leaf_weight=23171.849848404527 3340.1082062274218 7941.929382994771 463.01493949443102 7030.335943095386 18775.012756593525 10706.288054995239 212.33343812078238 14058.999524779618 134932.02396262437 3624.9746366217732 376.31996435672045 96412.593494869769 1744.5348647907376 2274.1105124726892 1268.6337713450193 234.0469079837203 1895.6331347748637 727.94859998673201 356.73554673790932 9846.1372334882617 1656.6322887688875 3655.125690124929 1078.8193271756172 380.78453276306391 12380.438308633864 1514.0121527388692 2017.1448382884264 5265.1620304360986 19658.588342666626 8163.7971473112702 1444.6037340909243 5454.5758675262332 1890.4131708517671 2416.8829055726528 2585.5711634680629 226.56712272018194 123157.49706574529 1390.0642185360193 10051.756089694798 29501.986203126609 4228.8406210765243 35627.850554481149 367.87086568772793 829.06962093710899 6979.7325879111886 5121.8764303401113 2328.4338932260871 366.97347258031368 258.46291710436344 325.61954115331173 19189.328020751476 571.54710787534714 153.1057527884841 18513.079869247973 144.79782336950302 818.71623982489109 1795.7870052829385 17950.677578255534 62813.476897679269 7545.6160636544228 338.35387537628412 2987.9503309577703
leaf_count=56246 21200 55691 1235 55894 80217 73705 319 84323 551591 26267 2773 493028 14296 11357 8837 237 11636 5835 2193 62339 11153 25471 7696 2665 98906 12896 17035 36356 123438 66660 9357 37225 13048 15603 17301 1642 366576 8537 64989 244060 27576 235866 2453 5024 31168 23415 17678 2654 1824 1298 117697 4382 1223 152941 978 4638 11438 113824 403568 49047 2075 18404
internal_value=-0.000100085 0.0197339 -0.0169701 0.012756 -0.00907896 0.044827 -0.0312325 0.00759457 -0.0111869 0.050617 0.0538984 -0.0114776 0.0247886 -0.00623354 0.0636636 -0.0278435 0.0585708 0.0222979 0.00466467 0.0552793 0.0693326 0.0922342 0.0492615 0.0181215 0.0383854 0.0187251 0.0470754 0.0377597 0.00362597 0.0168005 0.0447011 0.0489157 0.0663476 0.0503382 0.0359471 0.0731728 -0.028116 0.0389954 0.0500146 0.0100215 0.00183379 0.00159288 0.00449064 0.001629 0.0115359 0.0176201 0.0233107 0.00111995 -0.0125971 0.0793045 0.0215753 0.0872381 0.0174808 0.0246815 0.0703461 0.0148461 0.047628 0.0110648 0.00316958 -0.0129978 -0.019141 0.0296642
internal_weight=762541 350481 412060 274226 265284 76255.5 146776 191908 246509 62667.7 55944 245720 82317.9 110788 33795.9 123604 28685.7 75287.6 158660 26790 11502.8 5110.26 1455.14 13587.9 13679.9 61607.7 3914.79 5645.95 152332 57692.9 15287.2 14018.6 5978.47 4088.05 8040.15 2643.45 123370 22148.1 11441.8 31016 132673 132316 96688.4 75755.4 14375.7 12101.6 6723.64 3098.67 2586.9 788.634 33248.3 1299.5 2170.25 26676.9 511.771 20933.1 2163.66 18769.4 71526.5 8713.04 7883.97 6328.06
internal_count=4029004 2412317 1616687 1896892 1193309 515425 423378 1222764 1113092 420713 371312 1110559 674128 558968 224081 367132 188141 618234 1020744 176505 73492 35940 10469 94712 109123 509111 32554 39021 981140 476557 103013 94176 39650 26602 54526 17245 366895 147231 73526 256956 857702 855509 619643 487290 65940 54583 49401 23134 19502 2533 202020 10217 18258 219601 3632 132353 13891 118462 459714 56146 51122 39604
is_linear=0
shrinkage=0.05


Tree=5
num_leaves=63
num_cat=0
split_feature=0 71 0 0 81 81 0 0 11 9 11 104 101 80 102 49 102 56 0 50 85 57 80 28 82 85 6 52 0 82 87 70 49 87 11 82 61 56 56 44 78 72 52 82 55 7 72 56 81 56 56 60 15 57 26 76 102 104 49 8 70 81
split_gain=92667.6 24527.8 13962.4 7397.7 5198.11 4276.96 2996.36 2738.69 2284.8 2195.23 1954.7 2418.68 1890.88 2211.75 1851.33 1672.75 1650.74 1645.42 1546.03 1502.29 1382.88 1359.45 1335.79 1312.84 1306.78 1282.59 1274.79 1233.99 1212.56 1143.22 1113.63 1079.86 1079.32 1072.5 1102.22 1410.14 1055.36 1049.5 1341.41 1397.65 1214.11 1048.46 1041.91 1173.76 1040.67 1035.63 1027.08 1259.11 1010.58 1233.1 2299.13 1010.03 998.327 979.204 975.023 973.035 962.644 960.955 948.425 1043.19 916.472 1243.93
threshold=193.50000000000003 2.80321216583252 46.500000000000007 412.50000000000006 3.6925817728042607 4.9416494369506845 7.5000000000000009 506.50000000000006 0.095111995935440077 -2.2774454355239864 0.13266073167324069 0.84900644421577465 5.9835672378540048 4.5373623371124276 36.397369384765632 1.8433653712272646 56.141155242919929 14.802710533142092 91.500000000000014 4.0474064350128183 -0.3325809091329574 0.75474789738655101 6.1423690319061288 2.0066949129104619 -0.0046115589793771497 -3.5883821249008174 4.9674525260925302 0.0023121418198570613 280.50000000000006 -0.49042797088623041 -2.5895966291427608 19.57808876037598 2.851904153823853 -2.8596907854080196 0.05945344269275666 -0.067248191684484468 0.70791426301002514 6.3552384376525888 0.060138555243611343 1.3246502280235293 -1.3436067700386045 1.7533297538757326 0.76424309611320507 -0.015367934945970772 -0.3572221547365188 -2.1332563161849971 -1.6501671075820921 6.3552384376525888 5.0509750843048105 26.958472251892093 21.50834941864014 -0.72810155153274525 1.5614269375801089 1.0565830469131472 3.2662945985794072 -2.0434072017669673 26.145476341247562 0.98062774538993847 3.2192339897155766 -0.77966031432151783 0.11426405236124994 3.8591029644012456
decision_type=2 2 2 2 2 2 2 2 2 2 2 2 2 2 2 2 2 2 2 2 2 2 2 2 2 2 2 2 2 2 2 2 2 2 2 2 2 2 2 2 2 2 2 2 2 2 2 2 2 2 2 2 2 2 2 2 2 2 2 2 2 2
left_child=2 3 6 8 19 18 -1 10 15 14 20 37 13 36 51 53 -8 26 25 -3 57 22 -9 -21 42 -4 58 -24 -17 -29 -25 48 -19 -20 -35 -36 -11 38 -12 40 -40 -39 43 55 -22 -31 -26 -48 -7 50 -50 -5 -49 -2 -30 -14 -28 -6 -15 -60 -10 -62
right_child=1 4 5 9 7 31 16 21 60 12 11 -13 24 17 -16 28 -18 32 33 23 44 -23 27 30 46 -27 56 29 54 45 -32 -33 -34 34 35 -37 -38 41 39 -41 -42 -43 -44 -45 -46 -47 47 52 49 -51 -52 -53 -54 -55 -56 -57 -58 -59 59 -61 61 -63
leaf_value=-0.048015167822467404 0.15112460575079251 0.0060797841556267341 0.066411441591597606 0.069499799977091034 0.067333374200185495 0.058425755830712578 -0.028540536547571101 0.043118317569841219 0.051477625572455867 0.032297996849614617 0.070162905303166156 0.02093117446866016 0.083574931369537933 -0.0021213952423911036 0.11084275664562848 -0.0047408865364004411 0.033926675219582807 0.067771897189928598 0.060079426841128408 0.0038510311766520467 -0.036279507309246943 0.076216771426595928 -0.057935969393983378 0.085300092622117851 0.0039861639753465015 -0.018374444207026785 0.15778224686327222 -0.069360550525683282 0.0010861466026776539 0.042864538352558879 0.033171934549987653 0.10297846496952448 -0.026230218303006765 -0.012356562524802942 -0.025236190848936819 0.0019529935524277835 0.011156766602328774 0.048653848071705676 0.065963485359563451 0.078508706790391458 0.022749216051602992 0.10133114820481158 0.12265764156485391 0.061419711893251343 0.01822839817932383 0.084475521227128994 0.020421269073768834 0.034754202217414397 0.0098958721057836423 -0.033877846120122956 0.11958955541267352 0.025161232212648512 0.10374220844506719 0.0370802869551978 0.013952181108155399 0.024525277798593707 0.039646241732281082 -0.0033020639522424004 0.033697008274851475 0.0091236311136895388 0.0013068381796934208 0.02487947732301779
leaf_weight=22514.332813486457 230.08987393975258 12825.546927347779 447.41417136788368 1675.4967003390193 2274.777657315135 1127.0350897684693 103198.30158344656 17635.527282394469 1798.4049770832062 16178.987232118845 4833.8110054135323 8003.3171190097928 739.99495244026184 14831.922021709383 919.74169390648603 67972.033992528915 1067.7389907613397 325.10772304981947 551.66596586257219 2282.7873076871037 956.21069429069757 6633.7163377404213 189.92981553822756 1517.6147292479873 8158.4934673309326 86132.553045064211 213.82225348800421 142.06068918853998 56517.357293181121 2040.2709342166781 3157.0140919387341 340.21756279468536 4810.5721373334527 103073.71334662288 5638.9828710630536 30872.083433501422 9296.2882337272167 1757.4593907222152 2038.9280939176679 1878.6741260886192 8009.0698969960213 2049.9175241813064 344.3611198887229 3302.3534319028258 10285.369356527925 5633.3599648624659 16201.57472345233 1416.872758358717 11355.335779123008 1480.1025487557054 497.67766106128693 5503.0316146686673 833.11866314709187 1021.1955854445696 19912.900943376124 11989.598746784031 880.39230079203844 610.59961489588022 5194.1311799585819 25615.321956753731 10074.021457582712 12591.05621740222
leaf_count=56077 973 88304 1008 12560 13179 4397 303667 136812 9432 122554 25680 46218 5526 114128 6713 381290 2298 2527 2030 15682 5680 49379 1719 10188 63758 326728 1560 1159 363049 15816 20048 1003 37723 492404 27419 135028 70616 9622 10999 9464 44337 10136 2582 25095 60435 42043 124384 11208 46169 6518 1722 41998 5962 5807 123914 92547 6855 4359 40770 201483 56356 70574
internal_value=-1.27633e-05 0.0168646 -0.0180361 0.00983007 0.039028 -0.0109825 -0.0314729 0.0450436 0.00299135 0.0188884 0.0367335 0.0442562 0.0171923 0.0125194 0.0440857 0.000616553 -0.0279005 0.00659387 -0.0126826 0.016229 0.0215171 0.0560361 0.0508123 0.0349347 0.0255998 -0.0179355 0.00954599 0.0677538 0.000117567 0.0708152 0.0501099 0.0150584 -0.0202675 -0.00943704 -0.00971221 -0.00224684 0.024584 0.0533309 0.047942 0.0389308 0.0315239 0.0770348 0.0367126 0.034859 0.0135891 0.073419 0.0187596 0.0252912 0.0129829 0.00913753 0.0145113 0.0355183 0.0603336 0.058155 0.00443836 0.0279642 0.0628544 0.0523896 0.00826661 0.0132674 0.0171301 0.0144026
internal_weight=761601 393304 368297 298548 94756 241517 126780 74973 170117 128431 42698.1 28571.2 120333 77346.5 8098.27 145654 104266 51871.3 226716 19783 14127 32274.9 25641.1 6957.42 42986.4 86580 46735.6 8005.62 144402 7815.69 4674.63 14800.4 5135.68 140136 139585 36511.1 25475.3 20567.9 16760.5 11926.7 10048 3807.38 16376.3 16031.9 11241.6 7673.63 26610.1 18451.6 14460.2 13333.1 11853 7178.53 2249.99 1251.29 76430.3 12729.6 1094.21 2885.38 45641.4 30809.5 24463.5 22665.1
internal_count=4029671 2623203 1406468 2001944 621259 1044426 362042 487037 1011395 990549 240109 156456 929278 598216 61271 875033 305965 405046 984617 134222 83653 246928 197549 45918 331062 327736 364796 60737 868253 59018 30236 59809 40250 656881 654851 162447 193170 110238 90480 64800 55336 19758 125750 123168 66115 57859 205312 141554 58806 54409 47891 54558 17170 6780 486963 98073 8415 17538 356381 242253 136362 126930
is_linear=0
shrinkage=0.05


Tree=6
num_leaves=63
num_cat=0
split_feature=0 71 0 0 81 104 73 0 11 11 94 55 76 6 55 80 26 57 11 102 5 12 57 50 7 8 16 55 59 6 7 8 78 5 7 102 104 57 54 77 93 85 96 44 7 80 57 51 11 81 93 26 83 57 102 57 49 87 80 57 55 58
split_gain=82937.5 21028.3 14340.5 7062.74 4398.99 3923.21 3150.77 3093.39 2629.31 2540.36 2163.7 2013.37 1994.38 1831.03 1591.18 1595.29 1653.5 1520.03 1510.84 1500.47 1426.54 1420.91 1690.51 1373.21 1343.01 1326.79 1474.22 1280.67 1236.13 1210.77 1690.8 1210.12 1202.46 1565.56 1180.59 1145.59 1130.89 1121.31 1092.09 1091.06 1068.5 1067.3 1063.92 1186.01 1021.9 1010.88 1010.4 1008.35 1007.03 972.35 1075.06 1104.48 968.243 962.35 1216.55 1111.3 1232.48 1052.02 944.847 940.052 1346.02 934.37
threshold=202.50000000000003 3.1282011270523076 49.500000000000007 436.50000000000006 4.9416494369506845 0.91151180863380443 3.6444879770278935 7.5000000000000009 0.095111995935440077 0.068186882883310332 -2.8319538831710811 -0.21873801201581952 -1.7663588523864744 -0.56387248635292042 -0.026057478971779343 5.0047600269317636 1.8603054881095888 1.7611873149871828 0.044720483943820007 56.141155242919929 -0.32938760519027704 2.4307090044021611 -0.29984115064144129 1.8037734627723696 2.4217008352279668 -0.24697018414735791 0.094755917787551894 -0.04291535168886184 0.72275394201278698 9.4653587341308612 -7.4509742259979239 1.7056490778923037 1.8777979612350466 0.038870487362146385 -7.0373992919921866 85.031124114990249 0.21623583137989047 -0.81558421254158009 7.2885859012603769 2.6096345186233525 0.47364588081836706 -3.1165227890014644 7.3324077129364023 0.57216280698776256 11.946866989135744 2.7201124429702763 1.327137351036072 1.9559786915779116 -0.71328869462013234 3.8450500965118413 -0.30517570674419398 8.5522527694702166 0.47714819014072424 -1.3211693763732908 14.724766731262209 -0.24169687926769254 3.5547375679016118 -2.4327317476272579 4.487828493118287 -0.10833395645022391 0.031097965314984325 -0.85069185495376576
decision_type=2 2 2 2 2 2 2 2 2 2 2 2 2 2 2 2 2 2 2 2 2 2 2 2 2 2 2 2 2 2 2 2 2 2 2 2 2 2 2 2 2 2 2 2 2 2 2 2 2 2 2 2 2 2 2 2 2 2 2 2 2 2
left_child=2 3 7 8 10 6 36 -1 17 12 48 -8 -5 -13 35 16 28 21 53 -9 44 39 -23 -18 52 26 -19 31 58 45 -31 34 41 -34 -11 46 -3 -22 -30 -2 -15 -17 43 49 -7 -20 -14 -43 -4 -39 51 -51 -25 54 -12 -55 57 -57 -16 -60 -61 -6
right_child=1 5 4 9 61 20 11 19 -10 27 18 13 14 40 15 32 23 25 29 -21 37 22 -24 24 -26 -27 -28 -29 38 30 -32 -33 33 -35 -36 -37 -38 42 -40 -41 -42 47 -44 -45 -46 -47 -48 -49 -50 50 -52 -53 -54 55 -56 56 -58 -59 59 60 -62 -63
leaf_value=-0.047094503991032551 -0.0019309412027151028 0.02177349891030108 -0.0066542013987343678 0.041664407284058493 -0.014578686940127088 -0.024129522703887823 -0.00045544151001675149 -0.027178815641655269 0.018351959014558081 -0.053278366295160896 -0.010854335711491282 0.074483133278546207 0.003076084151448966 0.062085222299642175 0.042270765371208996 0.049693431525039605 0.06758699637132734 0.023591652493406362 0.031544033614801618 0.029255680491640425 0.086041387784113077 0.1430278793542534 0.019264253727329615 0.13693766951653796 0.051067601442386902 0.011424905616485908 0.11813251444557334 0.027690588679821288 0.14674884423811857 -0.0064404829414478051 0.13744684902063883 0.095579832711092994 0.076264322787943206 -0.0026055824997190924 0.049161530646893097 0.075348218315776525 0.04351407864574347 0.0063234008637716253 -0.022438416542199916 0.010517264501045689 0.039087735649630161 0.16589131572678165 0.10166591192707031 -0.0085759366444140873 0.11360553953268389 -0.0071800337820712955 0.10844711062243734 0.0048964657407183964 0.071225467342919249 0.068962207617079621 0.02116537918636973 -0.041958319335696888 0.015288924659002329 -0.023199498790731937 0.031558535054528006 0.030683683668657077 0.0087746962322846605 -0.014666193220099053 0.12729688538903591 -0.0021523099395134625 0.12575599168853688 0.020614674245741094
leaf_weight=22052.621859498322 123403.77615725994 12127.507711105049 647.50589442998171 7302.2287936732173 2183.2548930570483 2307.0338724628091 1496.8513125032187 108045.49471123517 28196.910015486181 299.93937584012747 5231.4014366194606 11858.435393296182 30112.229176446795 9423.7959922105074 1881.8736968114972 1435.7269053533673 1570.6137603446841 955.35059355944395 1729.9803531691432 1190.0282843187451 716.88996497541666 290.66141481697559 5123.9744841083884 163.60363344848156 3048.0192002207041 3959.8037726283073 725.34088062494993 15489.103675350547 108.71695516258478 482.88328417390585 352.61841793358326 1399.8080756440759 1504.1001439467072 1081.0672998353839 4339.4338429421186 570.15300861746073 11810.081571936607 3675.0517602935433 729.00206755101681 20530.083585031331 10903.541620373726 96.609842143952847 405.99603901058435 2933.3343455791473 142.02623791992664 63903.673701822758 228.23716600984335 27101.821172580123 1154.5834559351206 2844.8076162040234 4105.1569855436683 242.98665965348482 26550.603963345289 34027.031271159649 2496.8553934842348 1292.8112214133143 6187.9049984142184 111145.52784995735 944.04076345264912 465.72334783524275 367.3177347779274 13820.836490176618
leaf_count=56015 756973 78371 2636 53867 9633 17202 9934 326415 157880 2230 25086 74426 236407 60182 14180 11608 11971 5721 6628 2628 4915 1210 29076 1205 22747 24077 3883 115994 942 1866 1033 10162 11871 8605 31910 4369 72708 26121 5752 124405 68214 763 2498 19323 877 272150 1605 214981 4057 19081 27681 1887 204772 155204 11141 5957 27576 499980 7204 3573 2813 55400
internal_value=2.23872e-05 0.0163351 -0.0166819 0.0105872 -0.00952824 0.040093 0.0463727 -0.0300127 0.00430813 0.019659 -0.011302 0.0562297 0.016458 0.0588659 0.0145786 0.0189054 0.0261045 0.00175306 -0.0117356 -0.0265637 0.0192645 0.000790682 0.0259332 0.0220341 0.019628 0.02723 0.0644389 0.0353086 0.0544561 -0.00539713 0.054378 0.0548391 0.0106425 0.0432942 0.0425287 0.00519307 0.032501 0.0250683 -0.000332953 -0.000155324 0.0497519 0.00769322 0.0219859 0.0196347 -0.0160989 -0.00615887 0.00387229 0.0054744 0.0432545 0.027249 0.037938 0.0602228 0.016039 -0.0143625 0.00285078 -0.0152339 -0.0129489 -0.0141445 0.0669967 0.0931422 0.0543302 0.015813
internal_weight=760914 384969 375945 309976 244657 74993.5 57620.2 131288 183186 126790 228653 33682.6 105262 32185.8 97959.5 67048.8 35829.5 154989 226851 109236 17373.3 149348 5414.64 31332.8 29762.2 5640.5 1680.69 21528.3 4496.67 66469.2 835.502 6039.18 31219.3 2585.17 4639.37 30910.6 23937.6 14924.2 837.719 143934 20327.3 28634.2 14207.3 13801.3 2449.06 65633.7 30340.5 27198.4 1802.09 10868 7192.95 3087.79 26714.2 160382 7728.26 152653 118626 112438 3658.96 1777.08 833.041 16004.1
internal_count=4029581 2566176 1463405 2082756 1078347 483420 363835 385058 1103225 979531 1013314 212756 819235 202822 765368 522987 275159 945345 1006621 329043 119585 911664 30286 240695 228724 33681 9604 160296 34464 281677 2899 44302 247828 20476 34140 242381 151079 101506 6694 881378 128396 227352 96591 94093 18079 278778 238012 215744 6693 74770 48649 20968 205977 724944 36227 688717 533513 505937 27770 13590 6386 65033
is_linear=0
shrinkage=0.05


Tree=7
num_leaves=63
num_cat=0
split_feature=0 71 0 0 81 71 0 0 0 83 6 7 71 94 81 28 8 94 4 73 7 49 47 0 80 47 82 7 28 82 8 26 82 88 104 73 104 73 28 4 24 78 82 50 80 81 78 16 83 63 86 100 70 80 83 28 7 49 82 70 49 82
split_gain=75526.8 19839.8 11910.6 6339.9 4363.34 3363.98 2820.24 2150.16 2106.42 1979.78 1706.23 1672.52 1672.09 1624.06 1390.92 1385.61 1381.25 1310.48 1156.3 1146.73 1151.26 1146.03 1203.28 1122.52 1072.58 1061.79 1119.8 1052.26 1034.19 983.491 1321.47 1172.19 983.042 968.609 928.066 1104.23 1121 1070.61 909.704 907.149 898.022 868.131 866.382 879.859 865.555 1219 1153.35 896.623 838.94 1094.03 838.31 824.905 1083.88 923.86 822.113 907.748 877.974 1477.17 925.334 821.242 809.824 808.793
threshold=187.50000000000003 2.7751574516296391 46.500000000000007 352.50000000000006 3.8450500965118413 2.1559659242630009 7.5000000000000009 603.50000000000011 526.50000000000011 0.38430358469486242 -0.75942847132682789 -0.28545179963111872 16.926186561584476 -3.41349184513092 4.9416494369506845 2.0066949129104619 -3.244260191917419 -2.8319538831710811 0.22062938660383227 3.2009450197219853 -1.5018441081047056 1.8433653712272646 0.09221134334802629 94.500000000000014 5.0047600269317636 0.16215232759714129 0.48274464905261999 2.4217008352279668 1.1909337043762209 -0.30415788292884821 -0.98249492049217213 1.8603054881095888 -0.58330276608467091 -0.74706748127937306 0.97863006591796886 4.2674787044525155 0.99614146351814281 4.7980666160583505 5.147747516632081 0.16571668535470965 -0.33481231331825251 1.3296789526939394 0.25148260593414312 10.71289110183716 4.8796777725219735 1.6963743567466738 -1.4279387593269346 0.42942813038825994 0.29118065536022192 0.73249372839927684 -3.5921283960342403 -0.10634605213999747 1.2235011458396914 4.379195213317872 0.51401537656784069 2.7405521869659428 -0.82891425490379322 3.9995044469833378 -0.148395299911499 19.57808876037598 5.5030221939086923 0.16520297527313235
decision_type=2 2 2 2 2 2 2 2 2 2 2 2 2 2 2 2 2 2 2 2 2 2 2 2 2 2 2 2 2 2 2 2 2 2 2 2 2 2 2 2 2 2 2 2 2 2 2 2 2 2 2 2 2 2 2 2 2 2 2 2 2 2
left_child=2 3 6 21 11 23 -1 16 9 -6 39 -3 48 -7 -15 28 -5 -9 24 -10 -21 38 44 -4 27 26 29 -18 -13 30 -19 -32 -22 -17 37 36 -36 -12 -2 40 -11 -33 54 -44 46 47 -23 -46 49 -8 -50 52 -34 -54 55 56 57 -39 -59 -16 -37 -51
right_child=1 4 5 7 8 13 12 17 19 10 34 15 -14 14 59 33 18 25 -20 20 32 22 -24 -25 -26 -27 -28 -29 -30 -31 31 41 51 -35 35 60 -38 42 -40 -41 -42 -43 43 -45 45 -47 -48 -49 50 61 -52 -53 53 -55 -56 -57 -58 58 -60 -61 -62 -63
leaf_value=-0.046116598087956866 0.061369809175192608 0.0054249578088199722 -0.017874505838992048 0.06317573935240664 -0.015346793937195952 0.084838866260319959 0.063943651915062016 0.069284077320948198 0.033944007278006436 0.080138053753817065 0.025269029640758875 0.081593091436563972 0.10126068530911868 -0.0043913689685060814 0.013284262194882346 0.064475180007517993 0.011523493113801304 0.14938833085515446 0.039972930331477627 0.036133293249950911 -0.036207746961097124 0.021202026720235731 0.010292401256424007 -0.0099807285032087779 0.0031302630075762655 0.045345194739996535 0.047508794059125004 0.033288833964743296 7.2812592743581267e-06 0.015280356729361661 0.067887347301853154 -0.012837276880843615 0.02488646913388036 0.023244594613338374 -0.0057216649593145059 -0.031209478154193827 0.089652694346945838 -0.031511676448534892 -0.048111473482723294 0.060277563500080067 0.024928804257842115 0.088494387842333683 0.11203825333896862 0.0036517750964832514 0.12972117820729692 -0.010603572413180183 -0.0011748472263033781 -0.065905998886262904 0.08914807917740164 0.10828537190756582 -0.02732893605323429 0.078823551847528997 0.10872219876265628 0.057645846553439462 0.014280344499233081 0.016591019214152368 0.084372190700969948 -0.071177453023038031 0.11907877670585901 0.092093335316728836 0.15197556984822225 -0.024195550647695074
leaf_weight=21306.038286350667 1234.2383510023355 15198.131108038127 78629.846875451505 1260.3124259114265 2011.5716560855508 578.09848830103874 557.49715412408113 1516.8683039844036 7939.7305570170283 879.81083007901907 19181.040006324649 435.64965400844812 256.08615692704916 34935.668195806444 11240.464574679732 3423.7807291671634 64097.448033176363 272.43165345489979 3244.8654380515218 5424.3382616192102 246.87808982282877 6204.946031652391 23645.526132233441 105426.37113853544 39754.910700567067 4467.1591460183263 3364.1853067576885 6079.2351074665785 3517.3139322772622 38016.697420492768 1368.4494949951768 1265.0534095317125 2253.4517490416765 2441.6961760818958 676.62334903329611 1624.6311624795198 564.4872961640358 511.82974753528833 223.40661784261465 8351.382376678288 4510.3290026783943 252.72725030779839 860.46011105179787 239.33019022643566 257.5831306129694 28975.770752690732 79854.534691914916 75.043509483337402 153.77442929893732 122.18248368799686 98430.466435432434 6058.5610934272408 1015.9927558749914 6933.0135007947683 2050.8200301080942 1260.9108273237944 2197.7786676883698 74.841304287314415 414.36586140096188 339.62325675785542 61.676966309547424 1781.2148066312075
leaf_count=55955 6281 103238 305869 8413 12119 1326 1132 12295 60416 4713 104180 2669 221 148189 43728 22023 444885 2240 21181 41235 2000 34257 129088 504068 280356 36328 27434 41049 23095 317988 10874 10787 17194 15229 3749 10568 2940 2860 1340 44635 26601 1999 4453 1328 1154 170071 463786 399 220 220 299349 44113 7081 50950 11269 7254 11450 484 2035 961 202 5799
internal_value=-9.73365e-05 0.0146239 -0.0169839 0.0082864 0.0339107 -0.010302 -0.029581 0.0149339 0.0399181 0.0331405 0.0353851 0.0158169 -0.0261028 0.00162255 0.000586539 0.0319006 0.0111407 0.023525 0.0105607 0.0502337 0.0561289 0.000479986 1.7371e-05 -0.0133531 0.0096922 0.0221073 0.0197756 0.0134094 0.00901708 0.0175086 0.0443138 0.0343475 0.0626967 0.0473185 0.0286466 0.00191591 0.0376942 0.0315672 0.0445686 0.0499552 0.0339536 0.00408272 0.0474358 0.0884765 -0.00208865 -0.00950976 0.000438768 0.0855207 -0.0264265 0.00240853 -0.0271463 0.0642004 0.0555098 0.064187 0.0404905 0.0525374 0.0666972 0.0278462 0.0898866 0.0156033 -0.0244234 -0.015639
internal_weight=759549 405792 353757 305431 100360 231150 122607 164960 75343.9 45471.9 43460.3 25016.6 101301 47093.9 46515.8 9818.44 114437 50523.6 113176 29872 21932.2 140471 139013 184056 109932 49006.7 44539.5 70176.7 3952.96 41175.4 3158.66 2886.23 16507.9 5865.48 29718.8 2927.42 1241.11 26791.4 1457.64 13741.5 5390.14 1517.78 7610.34 1099.79 115368 29308.4 86059.5 332.627 101045 2460.89 98584.2 16261 10202.5 7949.01 6510.55 4459.73 3198.82 1001.04 489.207 11580.1 1686.31 1903.4
internal_count=4029325 2662288 1367037 2022205 640083 1004141 362896 1215829 473829 250840 238721 166254 306941 194204 192878 63016 795884 419945 787471 222989 162573 806376 798755 809937 766290 407650 371322 485934 25764 343888 25900 23660 121338 37252 162772 17459 6689 145313 7621 75949 31314 12786 41133 5781 669667 171624 498043 1553 306720 7151 299569 119338 75225 58031 35352 24083 16829 5379 2519 44689 10770 6019
is_linear=0
shrinkage=0.05


Tree=8
num_leaves=63
num_cat=0
split_feature=0 71 0 71 0 81 0 81 73 104 95 102 94 49 15 56 80 27 55 63 94 0 60 102 27 0 81 6 9 7 28 27 80 56 56 6 54 50 55 55 49 56 90 56 80 100 9 56 56 28 4 102 16 50 16 104 78 86 28 58 52 68
split_gain=67985.4 14933.6 14259.2 4538.49 4023.23 3598.55 3084.42 1644.91 1566.98 2077.07 2145.54 1559.07 1502.17 1501.12 1520.96 2529.78 1565.64 1541.4 1291.38 1386.44 1264 1261.08 1237.74 1226.65 1418.15 1219.03 1215.5 1203.28 1167.92 1123.19 1342.15 1094.49 1082.44 1068.42 1342.62 1154.38 1205.65 1052.27 1312.12 1133.1 1065 1652.54 1028 1250.04 1197.35 1027.72 1016.13 1004.78 1715.67 985.873 954.987 951.621 935.131 933.646 931.908 930.05 928.993 911.089 909.308 956.36 873.862 990.881
threshold=232.50000000000003 2.80321216583252 54.500000000000007 2.2244195938110356 571.50000000000011 3.5910847187042241 7.5000000000000009 4.9416494369506845 3.3981424570083623 0.91575959324836742 -1.2073715329170225 56.141155242919929 -3.41349184513092 1.8433653712272646 1.4143394231796267 21.50834941864014 4.8591740131378183 5.3616447448730478 -0.21873801201581952 4.1845915317535409 -2.8319538831710811 130.50000000000003 -0.5081026256084441 218.82862854003909 9.8316469192504901 322.50000000000006 4.0842745304107675 -0.22322340309619901 -2.3509799242019649 -0.53013959527015675 2.0066949129104619 11.268490314483644 6.0974769592285165 26.958472251892093 21.50834941864014 7.1630659103393564 7.216341733932496 4.5706636905670175 0.036014670506119735 0.020275448448956016 5.0505487918853769 -0.044059127569198601 1.0000000180025095e-35 0.87070637941360485 4.8491086959838876 -3.4545489549636836 -2.8878504037857051 0.17638896405696872 0.24364871531724933 5.7159504890441903 0.037539115175604827 67.121536254882827 -0.12651923298835752 7.4365155696868905 1.2092564105987551 0.94447526335716259 -3.8883568048477168 -3.5921283960342403 2.0066949129104619 2.3648250102996831 0.34105229377746588 3.8697270154953007
decision_type=2 2 2 2 2 2 2 2 2 2 2 2 2 2 2 2 2 2 2 2 2 2 2 2 2 2 2 2 2 2 2 2 2 2 2 2 2 2 2 2 2 2 2 2 2 2 2 2 2 2 2 2 2 2 2 2 2 2 2 2 2 2
left_child=2 4 6 21 13 29 -1 12 46 10 18 57 55 52 16 37 25 60 -10 49 -6 -4 -19 24 32 -15 31 -12 -22 -3 -31 -24 42 34 35 -9 -37 40 39 -39 -16 -42 43 -11 -45 -27 -7 -29 -49 -20 -17 -52 -2 -50 -26 -5 -38 -8 -14 -60 61 -18
right_child=1 5 3 7 20 8 11 33 9 23 27 -13 58 14 15 50 17 22 19 -21 28 -23 26 -25 54 45 -28 47 -30 30 -32 -33 -34 -35 -36 36 56 38 -40 -41 41 -43 -44 44 -46 -47 -48 48 53 -51 51 -53 -54 -55 -56 -57 -58 -59 59 -61 -62 -63
leaf_value=-0.044899692310859322 0.0060070817841306294 0.0010231411085853982 -0.014329872556971435 0.10659689311899978 0.061087349833095286 0.094459660206646201 0.076729098317166899 0.025143644816642441 -0.0092178391459492633 -0.023108058780479935 0.074817874961768172 0.028497860635779901 -0.009982221031930992 0.0019120979403698956 -0.0054557527593284798 0.0351735879076416 -0.0019883931886973912 0.045398547759816311 0.030393455497606719 0.070526781823200657 0.046225099664010436 -0.0065901103882270639 -0.02235256724502523 0.069404327184256737 -0.0086827033109667263 0.079412461826729508 0.04195471666284404 0.068576436429076029 0.01801234654372124 0.0002535479423217622 0.045775057896542404 0.099415717181114915 0.089476911171633297 -0.023982939808371417 0.094074383780390347 0.13565315515209084 0.13159797809781312 0.034444782704721802 0.0074784193391062405 0.12118646493125218 -0.042573461992985846 0.086397108651753374 0.047839629320499642 -0.014749558944866265 0.124425288826155 0.011824620580771836 0.027271711191917333 -0.045689706893269275 0.016235739451919595 0.10167096437295962 0.15453149591939924 0.058627263586875047 0.10405152386185618 0.059579252645279981 0.11195157999014249 0.0027777631202443483 -0.037585193787265769 -0.024775489899584044 0.0090168276964275439 -0.022672258140299786 -0.017988197587196279 0.15880382462063283
leaf_weight=20671.233308583498 392.96857170760632 9432.2207048982382 110946.2552408874 526.35056084394455 1918.7588089928031 573.98602595925331 220.55438701808453 12113.31379172951 1408.636999078095 1555.9472762346268 8671.0524244681001 1399.4882260337472 17571.040280081332 46926.270410567522 8280.6412667706609 899.2264786735177 44433.549494571984 2869.2279902771115 11954.275794096291 3127.9243746250868 3925.8016995936632 100130.8163728267 2844.3131543546915 1340.6107833832502 3952.4884661287069 566.2034770399332 1390.7026868090034 4144.5603097006679 55834.91903346777 2683.6582486331463 4081.4465281516314 196.35188286006451 782.10405284911394 1327.7939329892397 632.08081069588661 118.26634643226862 84.561020448803902 5217.9531527012587 6293.9962621554732 405.01555409282446 361.56164336949587 788.92626671493053 2496.0390803217888 284.65572332590818 336.58940583467484 67445.329980567098 26822.713551901281 572.00563113391399 1862.8336918503046 504.88272819668055 507.36246401816607 530.64218515902758 637.67751858383417 3735.3674429729581 165.85016241669655 365.1418214738369 1580.5378863885999 115031.78438920528 19768.055608272552 2705.9487599879503 10013.727935291827 95.021712243556976
leaf_count=55971 2305 66202 467892 1314 15055 3506 330 49041 9602 10524 53094 3248 77972 275780 50435 5923 292952 18434 75591 19477 30676 517299 18990 8637 28770 3683 8570 25463 454931 18047 26414 1259 4851 6044 2023 558 257 31638 39240 2453 2381 4724 17157 1640 2466 454416 171594 3777 11957 3114 2642 3144 3332 22607 999 1423 6062 363932 88369 12362 66642 616
internal_value=-2.07086e-05 0.0160114 -0.0139983 -0.00728243 0.0099787 0.0335297 -0.0270984 0.0052644 0.0381854 0.0437361 0.0495317 -0.0239436 -3.16452e-05 0.00655228 0.00624204 0.0182539 0.00465976 -0.00175505 0.0366232 0.0407663 0.0211497 -0.0106583 0.0198193 0.0246266 0.0183497 0.00811127 0.0032507 0.0610846 0.0198664 0.0121745 0.0277198 -0.0144592 0.0350676 0.0189362 0.02286 0.0196144 -0.0179357 0.0132875 0.0231622 0.0407131 0.000808858 0.045864 0.0259445 0.000832495 0.0607339 0.0123885 0.0286828 0.0495337 0.0367335 0.0332898 0.0729484 0.105608 0.0667108 0.0451619 -0.00379863 0.0641249 -0.0289195 -0.0245806 -0.00146148 0.00520051 -0.00464313 -0.00164171
internal_weight=758459 353266 405193 267870 262776 90489.8 137323 56793.1 74292.5 46895.8 35981.5 116652 40936.5 201097 200066 23285.3 176781 61842.9 16995.7 15587.1 61679.5 211077 7300.6 10914.3 9573.67 114938 4431.37 18985.8 59760.7 16197.3 6765.1 3040.67 5455.34 15856.6 14528.8 13896.7 1783.37 21348.1 11917 5622.97 9431.13 1150.49 4673.23 2177.19 621.245 68011.5 27396.7 10314.8 6170.21 12459.2 1937.23 1038 1030.65 5598.2 4118.34 891.492 1665.1 115252 40045 22474 54542.3 44528.6
internal_count=4029807 2375710 1654097 1230616 1790221 585489 423481 245425 474826 299726 224682 367510 181440 1289559 1283922 142580 1141342 407463 107784 98182 500662 985191 47253 75044 66407 733879 28819 116898 485607 110663 44461 20249 36638 63985 57941 55918 6877 130871 73331 34091 57540 7105 31787 14630 4106 458099 175100 63804 38341 78705 11709 5786 5637 34564 29769 2737 6319 364262 178703 100731 360210 293568
is_linear=0
shrinkage=0.05


Tree=9
num_leaves=63
num_cat=0
split_feature=102 71 51 50 57 103 103 33 94 4 78 79 29 9 101 104 9 12 49 27 59 78 55 83 57 57 83 49 27 55 80 80 51 5 57 57 54 9 58 72 47 6 28 54 18 83 80 18 104 78 29 58 83 27 83 57 55 5 55 83 61 57
split_gain=42191.6 16732.3 7957.77 5639.03 5235.2 4140.11 3870.45 3632.91 2561.1 3131.69 2490.14 2013.78 1974.03 1738.11 1667.94 1636.91 1615.58 1609.57 1530.02 1453.09 1364.19 1354.73 1340.56 1388.76 1452.98 2107.62 1583.55 1339.33 1330.36 1325.13 1240.61 1208.05 1206.3 1374.12 1169.97 1114.26 1458.01 1164.83 1109.55 1206.12 1106.39 1082.69 1080.02 1057.45 1057.3 1038.16 1113.57 1025.88 1009.68 999.069 992.272 987.175 981.01 1444.2 1093.83 1452.97 1595.19 1033.46 1084.14 1605.17 1125.74 1229.84
threshold=12.125787734985353 2.2866287231445317 1.2940179109573366 5.6636421680450448 0.77989596128463756 4.8713660240173349 4.4127798080444345 2.7668337821960454 -2.6820567846298213 -0.34480728209018702 -0.70617759227752674 0.27453085780143743 12.428598880767824 -2.7463449239730831 5.1868169307708749 0.98241034150123607 5.8669779300689706 1.7437515854835512 2.5392415523529057 3.2184652090072636 -1.7946235537528989 0.95135128498077404 0.59243863821029674 0.39752209186553961 -0.6017639935016631 -0.031262991018593304 0.51401537656784069 4.7816278934478769 3.334610223770142 -0.70642682909965504 4.6065669059753427 4.5056982040405282 3.3768905401229863 0.37337121367454534 -1.2234308719635008 1.8846393227577212 8.3329095840454119 2.4468736648559575 2.2898257970809941 2.5973051786422734 0.4762550443410874 4.9674525260925302 3.0906171798706059 8.5144896507263201 1.382634222507477 0.48768930137157446 5.5783367156982431 6.1448488235473642 0.83343034982681286 -2.4322615861892696 16.616056442260746 -0.54628059267997731 0.66663286089897167 5.7021725177764901 0.65945798158645641 1.1851518154144289 0.49837271869182592 0.19779449701309207 0.19449677318334582 0.56448540091514599 0.63993623852729808 0.36401219666004186
decision_type=2 2 2 2 2 2 2 2 2 2 2 2 2 2 2 2 2 2 2 2 2 2 2 2 2 2 2 2 2 2 2 2 2 2 2 2 2 2 2 2 2 2 2 2 2 2 2 2 2 2 2 2 2 2 2 2 2 2 2 2 2 2
left_child=2 5 11 4 8 12 27 13 9 -3 19 -1 21 -5 31 16 22 47 -15 -6 -16 43 23 -9 34 26 -26 28 42 -29 -19 -7 -10 -34 49 -13 37 -37 39 -12 -17 50 -4 -2 -14 46 -11 -8 -41 -25 -22 -36 53 54 57 56 -56 58 59 -30 61 -61
right_child=1 3 6 7 10 14 17 15 32 45 38 35 44 18 20 40 -18 30 -20 -21 41 -23 -24 24 25 -27 -28 29 52 -31 -32 -33 33 -35 51 36 -38 -39 -40 48 -42 -43 -44 -45 -46 -47 -48 -49 -50 -51 -52 -53 -54 -55 55 -57 -58 -59 -60 60 -62 -63
leaf_value=-0.050614226219370728 -0.0040865190031441718 0.0079950276964280888 -0.020459329477554387 0.1057663237009227 -0.0082227710673629436 0.013631605345236093 -0.0028251060311968034 -0.0040911291622712327 -0.0059974080705403176 0.0057003644266218935 0.022051965088730398 -0.029957747490496733 -0.00085559431835621281 -0.0075935616802627771 0.00082268036883088218 0.03987689885983977 0.08347064581371974 0.014139061972823164 0.022775836590869972 0.070725333074818361 0.01577894787063621 -0.01645941992211529 -0.027648265536843609 -0.068520165522370599 0.035132853988826172 0.054625035197956529 -0.012530186865007027 0.11027409319001114 -0.0066792332581206912 0.0053946235254223804 0.082256021937186508 -0.00027114204512806089 0.011340958120617984 -0.027024382389500647 0.0092922445349427202 -0.024603949886373617 0.055206793980557722 0.17056739689814723 -0.024585097234616049 0.092726056345034003 -0.0097296819093038098 0.063697154761672009 0.053961241777651194 0.10686786943085627 0.011100590955796852 0.062827905788803012 0.10264724345482515 -0.041636852921903084 0.00027375502180724555 0.073512979790361144 0.038618781872414062 0.10371533852422576 -0.024063436529685449 0.024159228224293696 0.12287203191322338 -0.047223002745361065 -0.043688935327851855 -0.036835029769241412 -0.02431331829768002 -0.039466495585431687 -0.0054897316543529515 0.13930537612975366
leaf_weight=12107.254633538425 85444.686523906887 12905.556120082736 91135.691483400762 592.45775359869003 651.82922799885273 25412.390354439616 58273.401258513331 1441.1263584271073 26976.578917562962 1847.4664467349648 10502.111096560955 39507.031730398536 53977.728494055569 4626.7046402841806 8311.0321611613035 2103.1210203319788 2578.6449201181531 6136.8081459775567 39989.051521897316 5490.2192685753107 19113.842046432197 28099.410644710064 669.77943048626184 227.74710872024298 9037.1687611415982 14978.968851216137 2158.3509249016643 372.25205855071545 33006.637554325163 1560.2155446782708 749.26279561966658 40567.236061446369 29730.552257791162 2531.7903663441539 315.52636971324682 2638.4667467921972 875.45168429613113 77.739203423261642 1086.9179905802011 1160.1263894513249 2412.3578429296613 1613.0482208877802 489.20881631970406 214.28071799129248 28124.138321332633 4737.7415878325701 351.79158672690392 1752.8442163690925 396.05615685880184 268.90398871153593 6330.7646796628833 2266.9233347326517 11080.081242755055 3334.2254286706448 544.37167263776064 328.66945543140173 194.61450952291489 3578.7563050240278 8990.5138471052051 120.87756529450417 413.21990441530943 463.15067017823458
leaf_count=36373 417025 85683 367818 3409 3366 162887 336149 9222 140862 12551 61888 120672 357903 19177 55558 14682 15956 31948 233640 32736 126298 130831 3691 1503 53735 85369 12937 872 140449 7676 3860 279129 176868 11337 2064 10341 2562 238 6078 5141 14623 10950 2034 989 186981 32443 2488 10754 2338 1684 46117 12893 49277 15127 1340 1610 1132 11330 41257 728 1229 1497
internal_value=-9.80032e-05 0.00888819 -0.0156043 0.0208259 0.0127097 0.00157649 -0.0113886 0.030368 0.007013 0.0225596 0.0360656 -0.0325964 -0.00266854 0.0207576 0.00978015 0.0416643 0.0454266 -0.00133246 0.0196264 0.0623469 0.0185409 -0.00693293 0.0422962 0.0438233 0.0461838 0.0423587 0.0259437 -0.0157127 -0.0162329 0.0256442 0.0215616 0.0050837 0.00180523 0.00832949 0.0786751 -0.0275338 -0.000869796 -0.0189573 0.023782 0.0281434 0.0133787 0.023983 -0.0200614 -0.00380772 0.0032401 0.0496505 0.0212475 -0.00395913 0.0692118 0.00837466 0.0214629 0.0921867 -0.0105798 -0.00764853 -0.00987511 0.0401409 0.0790079 -0.0110225 -0.00887315 -0.00479023 0.0576757 0.1023
internal_weight=756975 479244 277731 182036 98368.7 297209 222525 83666.8 79081.5 19842.6 19287.3 55205.9 195860 45208.2 101348 38458.6 33943.1 66912.3 44615.8 6142.05 35368.7 113758 31364.5 30694.7 29253.6 26174.5 11195.5 155612 153680 1932.47 6886.07 65979.6 59238.9 32262.3 3079.1 43098.7 3591.66 2716.21 13145.2 12058.3 4515.48 27057.7 91624.9 85659 82101.9 6937 2199.26 60026.2 1556.18 496.651 25444.6 2582.45 62055.1 50975 47640.8 1067.66 738.986 46573.2 42994.4 34003.9 997.248 584.028
internal_count=4029305 2833032 1196273 1058364 573779 1774668 1026087 484585 462232 133165 111547 170186 1093729 256226 680939 228359 199054 382711 252817 36102 238923 548845 183098 179407 170185 152041 66672 643376 634828 8548 35808 442016 329067 188205 18144 133813 13141 10579 75445 69367 29305 183365 369852 418014 544884 47482 15039 346903 7479 3187 172415 14957 264976 215699 200572 4082 2472 196490 185160 143903 3454 2225
is_linear=0
shrinkage=0.05


Tree=10
num_leaves=63
num_cat=0
split_feature=0 0 32 81 0 0 104 26 16 55 33 72 72 49 0 97 102 80 56 51 57 55 26 56 47 56 49 61 78 102 54 82 26 61 51 55 28 57 78 98 60 51 51 102 54 55 33 104 50 28 55 83 81 56 56 26 62 51 80 78 51 4
split_gain=56804.4 12476.2 10988.5 3611.18 3444.49 2926.17 2485.82 2103.79 1976.27 1941.77 1910.41 1712.79 1578.58 1662.7 1509.64 1487.13 1338.25 1457.46 1426.96 1399.32 1332.5 1305.73 1412.44 1252.21 1226.88 1171.75 1154.18 1142.86 1119.66 1244.65 1092.17 1077.86 1102.32 1134.17 1072.29 1070.88 1242.04 1043.97 1454.13 1382.48 1041.36 1076.04 1035.77 3287.83 1339.11 1347.21 1217.24 1015.06 996.657 1121.31 987.862 985.125 981.878 1191.73 1633.46 1059.64 967.085 963.595 1375.51 1296.23 928.391 921.958
threshold=241.50000000000003 59.500000000000007 2.9096117019653325 4.9416494369506845 552.50000000000011 7.5000000000000009 0.91575959324836742 3.2662945985794072 -0.83946126699447621 0.11710284650325777 3.1908390522003178 2.0491242408752446 1.1901360154151919 4.6612834930419931 136.50000000000003 16.800359725952152 90.628265380859389 5.0047600269317636 22.847982406616214 3.3768905401229863 0.80583134293556224 -0.21873801201581952 1.4570707678794863 0.26604408025741583 0.75223061442375194 5.9039869308471689 3.4178320169448857 -0.46646757423877711 -0.27628199756145472 29.771891593933109 6.9260861873626718 -0.30415788292884821 1.9796340465545657 -0.053136937320232384 2.2436108589172368 0.1368886008858681 1.9115653634071352 -0.031262991018593304 -1.8094312548637388 -4.7988965511322013 0.25409084558486944 1.749035716056824 3.0327357053756718 25.881943702697757 7.5926182270050058 0.065059013664722457 1.5856890678405764 0.99948611855506908 3.9514435529708867 2.0806096792221074 0.16575066745281222 0.46438379585742956 5.0509750843048105 26.958472251892093 21.50834941864014 2.5944170951843266 0.42180630564689642 2.6770193576812749 2.9622887372970585 -1.9957737326622007 6.4973442554473886 -0.40962406992912287
decision_type=2 2 2 2 2 2 2 2 2 2 2 2 2 2 2 2 2 2 2 2 2 2 2 2 2 2 2 2 2 2 2 2 2 2 2 2 2 2 2 2 2 2 2 2 2 2 2 2 2 2 2 2 2 2 2 2 2 2 2 2 2 2
left_child=1 5 4 14 7 -1 10 8 20 26 24 31 13 40 -3 -7 17 19 -18 42 -2 -12 -23 -15 -4 37 -8 48 -14 -30 -29 32 35 -34 -33 36 -6 61 -39 -40 41 56 43 46 45 -44 -10 50 -19 -50 -11 -35 -5 54 -54 -56 -9 59 -59 -16 -31 -24
right_child=2 3 6 52 11 15 9 12 16 47 21 -13 28 23 57 -17 18 27 -20 -21 -22 22 25 -25 -26 -27 -28 30 29 60 -32 34 33 51 -36 -37 -38 38 39 -41 -42 -43 44 -45 -46 -47 -48 -49 49 -51 -52 -53 53 -55 55 -57 -58 58 -60 -61 -62 -63
leaf_value=-0.042309348809396678 0.10624922083384865 -0.011740648543151844 0.025615817133448012 0.049973840170795508 0.029454919729388452 -0.021862432355014991 -0.004648051477461424 0.13765111550738848 0.014928932845822024 0.09855636077425535 0.00077827353075222419 0.051872320253182475 0.057366687681446107 -0.0089434981302046902 0.043996547955155077 0.082587702448247355 0.059725201964104392 -0.014124888672983707 -0.028762090280164573 0.014246763396374372 -0.066172363410843787 0.10246278783015138 -0.0083955663695319885 0.10712230826664866 0.066525051293200924 0.08738846139877321 0.021807244836824415 0.14009685262053848 -0.0064521950396454839 0.061351381876833415 -0.01293597587897413 0.057833503483730786 -0.03418346840454041 -0.056206823363635305 0.014779267497899817 0.11653282903818314 0.15638071643069285 0.09711005787709695 0.10804461498009024 0.041363301497341409 0.0010749176213905064 0.014918923944974724 -0.0019868037308638335 0.12183529610258859 -0.017615047985513544 0.065057065406085759 -0.0019563930197190374 0.10582319127603373 0.035820554449174861 -0.00030531184875563582 0.022859961789613244 0.06339458372363424 0.011244607749634537 -0.025349050832119763 -0.016578505134830123 0.11576725279652809 0.0034469674722469876 0.10264486428789488 -0.00040036625795277105 -0.010048384549198255 -0.023228170607511492 0.036646630148730118
leaf_weight=19716.196516133845 714.98013234883547 124158.01058600098 32032.774857871234 1699.5259075686336 1763.6606071963906 123982.74328605831 8342.8547964319587 340.20229490101337 15679.202269613743 525.32997564971447 1533.4099915251136 3820.6180042400956 3367.2213715836406 332.94076105952263 1132.5673440396786 340.75860146433115 1926.8940628618002 4156.7008030116558 595.92463953047991 30343.991978414357 132.14077673107386 1148.3636938109994 1302.735424362123 767.31487011164427 1943.4700455069542 1584.1656830832362 8148.8850079849362 116.13106470555067 2302.2269322648644 1802.7536304369569 25560.998355358839 1479.7059687077999 783.82112215459347 206.8910930082202 62254.19160310179 668.9170116186142 215.52159889042377 1584.181954883039 836.07880657166243 10978.154208578169 19314.746754989028 24990.783437788486 2726.1658436283469 592.42451030015945 12435.479953885078 1032.2831162288785 33424.64437802881 645.84639193862677 3841.9735277071595 4869.9386071413755 2385.986497990787 1005.4013940170407 16864.539988532662 2086.7063957229257 199.71190147846937 619.25260066986084 221.38974780589342 324.4283891916275 66860.5982747823 52239.654854103923 395.04447536170483 8862.4339428395033
leaf_count=56019 4189 534579 203408 6686 13503 405541 59764 2041 99174 3474 10313 27994 19473 1920 5412 388 12083 27161 3788 192848 967 7258 8899 4360 10852 8863 54411 627 13712 10736 170303 11360 6353 1779 495471 5077 1672 9923 5401 70131 122496 155718 17636 3298 79057 6687 212645 4064 24633 30929 15401 7984 70541 9699 826 1929 1345 1371 339583 276811 2437 56222
internal_value=2.53962e-05 -0.0125602 0.0149455 -0.00614589 0.00998586 -0.0244138 0.0309524 0.00648465 0.00321727 0.0156527 0.0359151 0.0192958 0.0148692 0.0113266 -0.00787089 -0.0215755 0.00274724 0.00207174 0.0388202 0.00536236 0.0793072 0.0456286 0.0482439 0.0720242 0.0279577 0.045764 0.00842455 -0.00614362 0.035564 0.0192406 -0.0122384 0.0174748 0.0407285 0.0126621 0.0157797 0.061872 0.0433484 0.042962 0.0521301 0.046091 0.00983653 0.016459 0.00127073 0.00484926 -0.00971077 0.0164396 0.0034354 0.049152 0.00601753 0.0156286 0.0365481 0.0429538 0.0135153 0.0103789 0.014596 0.0835127 0.0848456 -0.00388548 9.87471e-05 -0.00890074 0.0461449 0.0308739
internal_weight=756263 410225 346038 266185 264183 144040 81854.7 191984 138150 20048.9 61805.8 72198.7 53834.6 45967.4 244715 124324 137303 134780 2522.82 96234.2 847.121 27829.5 26296.1 1100.26 33976.2 25147.8 16491.7 38545.7 7867.25 4500.03 25677.1 68378.1 4644.21 1996.11 63733.9 2648.1 1979.18 23563.6 13398.4 11814.2 44867.1 25552.4 65890.2 49696.3 16193.9 3758.45 49103.8 3557.16 12868.6 8711.91 2911.32 1212.29 21469.7 19770.2 17683.5 818.965 561.592 120557 67185 53372.2 2197.8 10165.2
internal_count=4029225 1709385 2319840 1247437 1791456 461948 528384 1220263 886025 137114 391270 571193 334238 287880 1157756 405929 880869 864998 15871 611345 5156 177010 166697 6280 214260 159439 114175 253653 46358 26885 170930 543199 36368 16116 506831 20252 15175 150576 85455 75532 281600 159104 418497 315117 103380 24323 311819 22939 82723 55562 18875 9763 89681 82995 73296 2755 3386 623177 340954 282223 13173 65121
is_linear=0
shrinkage=0.05


Tree=11
num_leaves=63
num_cat=0
split_feature=81 81 18 29 9 103 34 6 51 94 82 51 82 56 92 82 71 5 56 29 56 82 55 78 57 56 49 72 101 57 57 57 55 81 37 71 11 9 55 57 57 58 28 55 57 7 28 57 55 6 56 28 94 88 82 6 49 50 80 28 80 63
split_gain=37385.5 13132.4 10121.1 5616.22 4224.57 3791.21 2707.86 2677.98 2541 2533 2286.85 2194.85 1648.75 1594.64 1949.37 1531.03 1530.51 1693.91 1490.17 1488.2 1426.93 1424.99 1484.57 1493.49 1482.06 1424.06 1905.06 1414.67 1386.94 1325.58 1267.97 1275.43 1273.01 1337.65 1261.75 1245.56 1834.12 2701.32 1749.89 1395.12 1740.87 1554.45 1267.44 1262.32 1241.63 1227.32 1344.85 1341.95 1201.21 1407.71 1194.38 1556.75 1183.51 1180.43 1170.08 1158.5 1432.07 1136.36 1283.43 1197.4 1124.24 1112.75
threshold=3.5910847187042241 1.5387105941772463 1.9013898968696596 17.122370719909672 -2.0810340642929073 4.5485858917236337 0.32749316096305853 -5.2120563983917227 4.254338502883912 -2.3406754732131954 0.28143113851547247 3.3768905401229863 -0.045128755271434777 -0.30730344355106348 2.0795153379440312 -0.58330276608467091 7.7522358894348153 0.18873331695795062 0.0043448123615235099 4.2642340660095224 21.50834941864014 0.25148260593414312 0.088964011520147337 -1.2699386477470396 1.4508253931999209 0.11616783961653711 3.6051499843597417 1.1373540163040163 8.8024029731750506 -1.4348616600036619 0.98824661970138561 0.15738670527935031 0.15462383627891543 3.488046526908875 -0.21766622364521024 28.889363288879398 0.59754368662834179 1.6387501358985903 -0.21873801201581952 -0.32789306342601771 0.28223542869091039 -0.53372809290885914 2.646392941474915 0.095722880214452757 -0.087388142943382249 2.9153687953948979 3.7156239748001103 -1.134407579898834 0.56783959269523632 0.42504756152629858 0.44288201630115515 2.3837327957153325 -2.7576322555541988 -2.4823123216629024 0.41997894644737249 -2.2626732587814327 3.3046591281890874 6.0912694931030282 4.1322393417358407 1.6418085694313052 4.7193694114685067 3.9034287929534917
decision_type=2 2 2 2 2 2 2 2 2 2 2 2 2 2 2 2 2 2 2 2 2 2 2 2 2 2 2 2 2 2 2 2 2 2 2 2 2 2 2 2 2 2 2 2 2 2 2 2 2 2 2 2 2 2 2 2 2 2 2 2 2 2
left_child=1 6 4 5 45 9 -1 12 16 -3 15 21 -4 14 53 -10 17 28 54 -8 35 24 34 -24 -6 -11 30 -13 -9 -19 31 57 33 50 -23 36 38 -38 -17 41 43 -40 -39 -41 -22 46 47 -2 -28 -50 51 -33 -5 -7 -12 56 -29 -27 59 -59 -43 -45
right_child=2 3 7 52 11 13 19 8 10 25 18 27 -14 -15 -16 20 -18 29 -20 -21 44 22 23 -25 -26 26 48 55 -30 -31 -32 32 -34 -35 -36 -37 37 42 39 40 -42 60 -44 61 -46 -47 -48 -49 49 -51 -52 -53 -54 -55 -56 -57 -58 58 -60 -61 -62 -63
leaf_value=-0.044190007946257076 0.1419100423455113 0.039260702301944332 -0.033256207278354405 0.067972096993090675 -0.009347008799465829 0.12523748128859202 -0.026199542631607287 0.010207134084713399 -0.036004810623163519 -0.015231425542372138 -0.015308444193077059 0.0052381240362554503 0.062487202691242721 -0.00066422197121201445 0.095857014922120509 -0.0037438525479733032 0.083689834167197288 0.11494971433519935 -0.022443740245817564 -0.0098994223218784386 0.011774047224394908 0.00028164406126855631 0.069978401514999303 -0.0043396677942038574 0.094277251723775865 -0.012300740966103816 0.0065833584092452272 0.018199588894679961 0.027567387439869185 -0.01670664166216956 -0.026502309175206552 0.053426290358771514 -0.01222826036407184 0.095332635148668951 0.086208829996992975 0.06823299704986914 -0.010010111115856448 0.058357088769223769 0.010791776174236246 0.031570090581831786 0.055367795736783243 0.021420553132385802 0.015638881883529934 -0.031140761827921266 0.099771642473896194 0.085442156834725336 0.071008084307701974 0.011570385298508417 -0.045133774674662702 0.1948228217704393 -0.00065382537912867347 -0.014063478508518782 0.011981763198150829 0.0053730276445699728 0.049024078685410075 0.014116561895471468 0.078071491328521883 -0.042228879626042139 -0.021613641086688007 0.14569852612922027 0.08734365051444741 0.088609102175560339
leaf_weight=16652.163548648357 206.94047527015209 2529.8277120739222 482.85868071764708 966.84266774356365 38760.880457907915 218.47564707696438 51691.471074454486 26387.912864156067 762.37410187721252 106256.21029393375 1084.6895312219858 78390.881434798241 6428.1310743391514 119292.15950580686 896.31210576742887 2359.9546072632074 816.08077739179134 197.52141732722521 3085.2314895763993 19207.839742086828 547.4497931972146 684.2289540246129 753.86824079602957 6470.4065895006061 347.15634721517563 64790.135230116546 16650.28074067831 2413.7566225454211 20400.480534143746 5180.6352786719799 10267.907252438366 2679.3090551570058 9485.5816863179207 458.42304951697588 1136.4070773422718 2472.9467483609915 5689.5505692213774 3384.9807240217924 1134.0328086540103 16664.445128127933 8054.9697496443987 779.62516662478447 3566.1312097012997 1401.3506173416972 1499.0194410830736 1411.7648518830538 1693.4984728991985 3932.1045261025429 92.485745929181576 177.39423051476479 9898.0958925038576 1253.7789569571614 38104.671342931688 3204.540991447866 2025.6950441896915 22258.097557514906 1703.7086196094751 110.51428886502981 387.4363390058279 357.41552408784628 3815.3257284238935 224.15781027078629
leaf_count=51585 1249 10077 3360 6574 218568 1021 167723 163868 5052 491373 6225 511549 37357 718083 5282 15566 4232 820 19604 79312 3053 4143 3866 36830 2282 286947 83057 12262 125302 21409 48841 9701 43638 2204 6140 13065 29309 17675 7970 102011 50027 4775 20398 9481 8276 7788 10133 24391 669 650 42049 6470 271159 18385 12889 125038 10253 402 2034 1124 22872 1324
internal_value=-3.43016e-05 -0.00855413 0.0145103 -0.00460789 0.00631499 -0.00662044 -0.0260459 0.0255921 0.0237202 -0.0104796 0.0308992 0.00454739 0.0557939 0.000416516 0.0302578 0.0342984 0.0157861 0.0147222 0.00217378 -0.0217838 0.0353379 -0.00428825 0.013596 0.00342419 -0.00842476 -0.0110444 -0.00722908 0.00860845 0.0177769 -0.0118509 -0.009862 -0.00795097 0.00197146 0.0113976 0.0539337 0.0336466 0.0318283 0.0155374 0.037808 0.0408654 0.0359999 0.0632292 0.0364468 0.0274677 0.0762487 0.0436212 0.0334856 0.0181197 0.00828296 0.112729 0.00860892 0.031914 0.013369 0.0130578 0.0265916 0.0186248 0.0429861 -0.0115446 0.0456767 0.101319 0.0761656 -0.0145829
internal_weight=754239 475629 278609 388078 160164 349006 87551.5 118446 111535 225395 58551.9 152919 6910.99 123611 4319.33 52356.3 52982.6 52166.6 6195.62 70899.3 51593.9 48152.9 9044.91 7224.27 39108 222865 116609 104766 46788.4 5378.16 99688.6 89420.7 23775.2 14289.6 1820.64 49547.5 47074.5 12640.7 34433.9 32073.9 26344.9 5728.98 6951.11 18290 2046.47 7244.31 5832.54 4139.05 16920.2 269.88 13831.2 3933.09 39071.5 3423.02 3110.38 26375.6 4117.47 65645.5 855.366 467.93 4594.95 1625.51
internal_count=4028772 2348360 1680412 2049740 974492 1772007 298620 705920 665203 1029236 349572 930931 40717 742771 24688 310854 315631 311399 38718 247035 305802 271829 50979 40696 220850 1019159 527786 659102 289170 22229 443410 394569 104062 60424 10283 294473 281408 67382 214026 198460 162843 35617 38073 112816 11329 43561 35773 25640 84376 1319 58220 16171 277733 19406 19114 147553 22515 290507 3560 1526 27647 10805
is_linear=0
shrinkage=0.05


Tree=12
num_leaves=63
num_cat=0
split_feature=0 0 71 11 0 81 0 94 0 9 57 56 82 28 18 54 34 57 18 56 56 56 57 51 74 63 59 26 104 82 81 82 37 56 26 85 56 49 54 49 82 78 82 70 28 80 80 56 52 11 55 82 28 35 15 6 51 78 52 94 54 0
split_gain=48330.8 10411.6 10098.4 3048.52 2977.13 2663.95 2480.63 1792.34 1778.86 1628.54 1444.91 1986.61 1680.75 1617.53 1494.83 1364.29 1348.16 1321.34 1319.95 1706.34 1388.76 1277.67 1593.15 1318.08 1777.78 1272.89 1314.76 1569.36 1248.83 1273.89 1215.53 1210.06 1384.03 1315.09 1260.21 1208.13 1199.46 1189.27 1182.97 1171.47 1137.6 1118.89 1102.11 1069.68 1479.2 1050.69 1057.42 1555.43 1050.41 1039.06 1035.91 1431.66 1018.7 1110.79 1006.67 1004.25 1235.83 1001.08 978.935 956.586 953.329 951.969
threshold=220.50000000000003 46.500000000000007 2.7258701324462895 0.12239209935069086 409.50000000000006 3.5910847187042241 4.5000000000000009 -2.9187242984771724 139.50000000000003 -1.8374341130256651 0.77989596128463756 2.7358698844909672 -0.026906474493443962 1.9164448976516726 1.8768863677978518 7.1135489940643319 14.933633804321291 1.1560869812965395 1.3484630584716799 14.802710533142092 0.10815073922276498 0.052053954452276237 -1.5700331926345823 5.7488934993743905 4.8357627391815194 3.1704167127609257 3.1534351110458378 6.8331367969512948 0.84900644421577465 -0.062055116519331925 5.3733887672424325 -0.0046115589793771497 -0.86673703789710987 29.780997276306156 2.6948025226593022 -3.269987821578979 -0.11355033889412879 4.5865499973297128 8.4622087478637713 1.8433653712272646 -0.018366432748734948 -0.28680123388767237 -0.098838306963443742 1.8157826066017153 3.0906171798706059 2.7201124429702763 5.6257445812225351 0.097149912267923369 0.090170532464981093 0.077414117753505721 0.30026370286941534 0.28143113851547247 1.6845337748527529 2.1611049175262456 -4.1338171958923331 1.9924067854881289 2.6526163816452031 0.24812228977680209 0.70463493466377269 -4.2908396720886222 8.0081992149353045 88.500000000000014
decision_type=2 2 2 2 2 2 2 2 2 2 2 2 2 2 2 2 2 2 2 2 2 2 2 2 2 2 2 2 2 2 2 2 2 2 2 2 2 2 2 2 2 2 2 2 2 2 2 2 2 2 2 2 2 2 2 2 2 2 2 2 2 2
left_child=1 6 4 7 39 59 -1 36 45 30 11 14 13 -13 -7 17 -8 -12 19 20 -11 22 -16 24 -23 -25 -27 60 29 -10 54 40 34 -34 -33 -24 -3 -37 52 -2 58 -17 -39 -14 -45 -5 -47 57 -35 -41 -43 -52 53 -36 -6 56 -56 -48 -20 -4 -28 -9
right_child=2 3 5 8 9 10 16 61 28 18 15 12 43 -15 21 41 -18 -19 31 -21 -22 23 35 25 -26 26 27 -29 -30 -31 -32 32 33 48 38 37 -38 42 -40 49 -42 50 -44 44 -46 46 47 -49 -50 -51 51 -53 -54 -55 55 -57 -58 -59 -60 -61 -62 -63
leaf_value=-0.048419730701524263 0.05470582637197733 0.10599444679882924 0.064863825613824339 0.038575237993573985 -0.043224825159915117 0.0098624056520995925 -0.023203097655541665 -0.015845479710884725 -0.012706849639781626 -0.00028721277734730671 0.056013969297349364 0.049194146126184585 0.031094978875314001 -0.044124848860109228 -0.012836662223550833 0.062553009749109587 0.10458664386558172 -0.054733186792371852 0.016121897513630194 -0.027275728529181059 0.018866407328230049 0.017170756448703004 0.094170641098649491 0.01154357721874814 -0.053467081453231549 0.06299646606455965 0.027869691237661743 0.084178722639115133 -0.0064399634018344589 0.025469491124923138 0.08762921702771384 -0.011802781606009401 0.015574098977684414 -0.0014629891168794307 0.1187860890319989 0.030094713533449481 0.014890113529451089 0.0023623465632755065 0.061526943760521348 0.00025453689120346045 0.041084852429589758 0.0019255677259931118 0.090962043546254256 0.075936972349296819 0.01359770141528331 -0.008492866220014262 0.11740104506497158 -0.0084329328839169212 0.08880846763564533 0.011739962265535361 0.069782989612634752 0.021556683510526385 0.0031465544691608137 0.0041899553320007233 0.048159747268389508 0.073905338806979068 0.012224214767254099 0.029106887810182704 0.089826420520101813 0.0072860474926485968 -0.031588082544033051 -0.0083665967333801487
leaf_weight=10536.786949634552 1070.2339820936322 484.7677650898695 749.48655515909195 1382.2606896832585 507.02166203409433 15831.824284359813 102594.69586681575 60675.834085702896 2552.7792448922992 23616.777010321617 453.04660137742758 907.24321960657835 3559.304210588336 949.12844727933407 1120.624218814075 6820.0014787763357 205.83906684070826 661.09253610670567 20940.579619698226 3900.7090164273977 15791.074872121215 14409.045820623636 1339.7569838091731 4039.9447378441691 948.4495440274477 4776.5032959058881 1834.5512424334884 824.46704380959272 5993.8544428795576 15150.630621083081 845.98976549506187 10014.912191368639 22691.521421574056 452.26959978044033 411.7596623301506 5435.7364471852779 1411.4805368632078 437.02840976417065 1094.7863301485777 115213.62809316814 6877.6089209914207 1828.8248012959957 1783.0741381049156 5471.5771068781614 1152.4563422203064 33089.464839495718 507.36389212310314 1858.6049816384912 1119.7174953967333 23750.260015435517 2967.5812281221151 3198.111021913588 10980.408979184926 433.75315587967634 3559.1987304091454 1111.0552227124572 7297.5009228289127 873.76068491488695 459.47616628557444 18606.169617749751 1064.5288172215223 142440.02900572121
leaf_count=31945 5448 1281 4759 5163 3865 100214 329770 244799 12378 178455 2659 5246 21805 5834 7528 40740 148 4021 153013 29293 118381 91018 8795 24598 5990 28843 11111 5100 27457 66521 5710 75069 166867 3238 3108 32829 5776 2895 8076 701845 49492 11044 11284 29909 7648 130301 1493 6641 8188 131742 18546 19761 82006 3329 25186 7725 53802 3044 3127 124471 7230 711448
internal_value=-6.29228e-05 -0.0126216 0.0127127 -0.00722179 0.0076986 0.0262002 -0.0253148 -0.010149 0.00255067 0.0130829 0.0301466 0.0268786 0.0452398 0.0014838 0.0227723 0.0436614 -0.0229462 -0.00968981 0.0112236 0.00426544 0.0073881 0.0281486 0.0433713 0.0226272 0.0128051 0.0346542 0.0456356 0.0233545 0.0132857 0.0199642 0.0296601 0.0152161 0.0103155 0.0186396 0.00150894 0.050374 0.0382241 0.0426984 0.011827 0.00261911 0.0233953 0.0476741 0.0735301 0.0532153 0.0650948 -0.0041952 -0.00582355 0.0214341 0.0628524 0.00221758 0.0349749 0.0447758 0.00722126 0.060072 0.0257222 0.0286465 0.0240085 0.0616037 0.0177085 0.0095188 0.00603371 -0.0106008
internal_weight=753068 379758 373310 266421 272140 101170 113337 205012 61408.7 132106 81813.9 65885.2 12039.7 1856.37 53845.5 15928.7 102801 1114.14 118785 43308.6 39407.9 38013.7 10116.2 27897.5 15357.5 12540 8500.05 3723.55 23697.3 17703.4 13320.8 75476.8 47199.1 24263.5 22935.6 8995.6 1896.25 7655.84 12920.7 140034 28277.7 14814.5 2220.1 10183.3 6624.03 37711.5 36329.2 3239.73 1571.99 138964 7994.52 6165.69 11825.9 845.513 12474.8 11967.8 10856.7 1381.12 21400.1 19355.7 2899.08 203116
internal_count=4029008 1578165 2450843 1216302 1816965 633878 361863 963304 252998 977930 504648 407877 70442 11080 337435 96771 329918 6680 881642 326129 296836 237221 63331 173890 97008 76882 52284 23441 106356 78899 96288 555513 349881 178293 171588 55803 7057 47008 96519 839035 205632 90091 14179 59362 37557 146642 141479 11178 11426 833587 49351 38307 88443 6437 90578 86713 78988 4537 156140 129230 18341 956247
is_linear=0
shrinkage=0.05


Tree=13
num_leaves=63
num_cat=0
split_feature=0 71 0 0 104 73 34 32 11 95 95 72 6 82 55 47 11 94 94 95 50 82 55 57 94 27 29 82 82 82 51 55 28 70 7 14 24 74 49 57 94 51 57 11 27 6 82 6 14 7 55 55 7 57 27 87 81 80 7 51 62 49
split_gain=44161.2 10989.9 7107.04 4235.32 2749.32 2946.07 2150.12 1659.11 1652.76 1797.95 1451.49 1580.01 1447.55 1373.41 1339.89 1312.55 1294.77 1284.81 1193.86 1189.69 1159.39 1154.76 1120.6 1216.42 1283.95 1081.41 1568.73 1645 1387.18 1146.38 1207.98 1161.42 1342.86 1081.92 1120.24 1074.12 1064.27 1060.79 1052.83 1539.76 1050.75 1048.97 1011 1148.78 1021.4 993.243 992.723 961.989 923.751 1159.4 1183.38 1591.36 987.937 913.516 1074.67 904.012 854.825 1531.72 1018.2 919.397 914.071 842.534
