tree
version=v4
num_class=1
num_tree_per_iteration=1
label_index=0
max_feature_idx=104
objective=binary sigmoid:1
feature_names=Column_0 Column_1 Column_2 Column_3 Column_4 Column_5 Column_6 Column_7 Column_8 Column_9 Column_10 Column_11 Column_12 Column_13 Column_14 Column_15 Column_16 Column_17 Column_18 Column_19 Column_20 Column_21 Column_22 Column_23 Column_24 Column_25 Column_26 Column_27 Column_28 Column_29 Column_30 Column_31 Column_32 Column_33 Column_34 Column_35 Column_36 Column_37 Column_38 Column_39 Column_40 Column_41 Column_42 Column_43 Column_44 Column_45 Column_46 Column_47 Column_48 Column_49 Column_50 Column_51 Column_52 Column_53 Column_54 Column_55 Column_56 Column_57 Column_58 Column_59 Column_60 Column_61 Column_62 Column_63 Column_64 Column_65 Column_66 Column_67 Column_68 Column_69 Column_70 Column_71 Column_72 Column_73 Column_74 Column_75 Column_76 Column_77 Column_78 Column_79 Column_80 Column_81 Column_82 Column_83 Column_84 Column_85 Column_86 Column_87 Column_88 Column_89 Column_90 Column_91 Column_92 Column_93 Column_94 Column_95 Column_96 Column_97 Column_98 Column_99 Column_100 Column_101 Column_102 Column_103 Column_104
feature_infos=[1:997] [-16.917854309082031:15781.1923828125] [0:1] [-36.447250366210938:6494.6064453125] [-6.4771885871887207:15.551722526550293] [-1.8788065910339355:6.203315258026123] [-683.3240966796875:397.857421875] [-22582.7890625:6210.10693359375] [-12.210872650146484:255.65248107910156] [-13.429902076721191:32.020061492919922] [-17.982637405395508:6883.9931640625] [-6.477696418762207:15.555858612060547] [-28.08808708190918:31.205659866333008] [-26.411275863647461:48.192184448242188] [-32.330623626708984:38.760848999023438] [-9.8907070159912109:62.105503082275391] [-12.072484970092773:13.93563175201416] [0.0026124445721507072:31.205659866333008] [0.0035420262720435858:38.760848999023438] [0.00028724063304252923:6495.03857421875] [-15.880616188049316:24742.984375] [-7.1968283653259277:17.851318359375] [-7.745966911315918:7.745966911315918] [-27.702226638793945:11780.173828125] [-7.1968283653259277:16.60124397277832] [-17.311807632446289:17.316438674926758] [0.00028724063304252923:6674.48681640625] [0.86720794439315796:56.318572998046875] [0.0026124445721507072:31.205659866333008] [0:31.480169296264648] [0:16.785175323486328] [0:27186.166015625] [0:96275944] [0:22.916213989257812] [0:19835.521484375] [0:33.592906951904297] [0:22.886251449584961] [-17.178508758544922:22.401668548583984] [-7.3338117599487305:11.434231758117676] [-10.11490535736084:6184.25927734375] [1:978] [-36.447250366210938:23583.080078125] [-7.1968283653259277:17.855108261108398] [-21.398380279541016:16659.5234375] [-7.1968283653259277:17.215919494628906] [-12.247448921203613:12.244623184204102] [-32.471992492675781:8330.24609375] [-7.1968283653259277:15.947351455688477] [-23.106288909912109:24.221429824829102] [0:16.785175323486328] [0:96275944] [0:24073946] [0:0.99304592609405518] [0.69314718246459961:6.8865318298339844] [6.9077553749084473:8.5171928405761719] [-0.98765641450881958:0.99827086925506592] [-1.5590457916259766:4783.77392578125] [-2.9957332611083984:3.3705275058746338] [-8.5091867446899414:23.501224517822266] [-10.977151870727539:12.87504768371582] [-8.1408567428588867:6.5634164810180664] [-12.162324905395508:11.077077865600586] [-19.778968811035156:8.1743650436401367] [0:23.530029296875] [0:12.922084808349609] [0:11.845719337463379] [0:12.737495422363281] [0:19.834053039550781] [0.075255759060382843:23.501224517822266] [0:23.530029296875] [-10.714426040649414:18873642] [0:81724616] [-12.59848690032959:5117.0595703125] [0:21771.525390625] [-5.7509641647338867:47.440998077392578] [0:51.945003509521484] [-8.9950180053710938:6.8287572860717773] [0:12.004451751708984] [-67.03509521484375:58399640] [0:334349184] [0:23.618246078491211] [0:20436600] [-0.98373931646347046:0.99558210372924805] [0.047465156763792038:0.97665053606033325] [-11.031700134277344:16.785175323486328] [-22.916213989257812:22.453170776367188] [-22.886251449584961:22.435461044311523] [-7.7267184257507324:33.588417053222656] [-8.7844734191894531:23.506441116333008] [-11.623905181884766:12.922084808349609] [-11.678762435913086:7.1702847480773926] [-12.523077964782715:12.721098899841309] [-19.7025146484375:10.463096618652344] [-14.042080879211426:25046.16015625] [-12.442913055419922:88697240] [-6214.06201171875:1598.005859375] [-104.46878814697266:334349184] [-10.837873458862305:74886120] [-16.275341033935547:19950.296875] [-5.8134031295776367:51.911411285400391] [-9.0719451904296875:12.004451751708984] [-2.9154758453369141:21362499462889472] [-2.9154758453369141:21362499462889472] [0.69314718246459961:6.9007306098937988] [0.0030181086622178555:1]
tree_sizes=6895 7006 7070 7014 7055 7023 7059 7045 7079 7087 7029 7060 7051 7035 7061 7102 7095 7077 7064 7101 7061 7082 7097 7047 7068 7088 7065 7066 7056 7062 7098 7110 7072 7083 7092 7070 7085 7008 7068 7051 7055 7059 7042 7091 7078 7091 7016 7055 7058 7011 7108 7064 7034 7040 7033 7043 7014 7036 7027 7060 7053 7040 7094 7066 7049 7081 7040 7069 7093 7044 7046 7050 7090 7008 7075 7044 7020 7041 6993 7081 7035 6996 7037 7055 7059 7045 7040 7041 7024 7040 7058 6995 7044 7032 7003 7065 7024 7049 7047 7073 7082 7036 7098 6995 7022 7020 7036 7041 7057 7048 7052 6985 7055 7047 7029 7019 7021 6988 7036 7085 7023 6967 7049 7031 7054 6994 7039 6971 6967 7009 7042 7028 6983 7012 7053 6990 7041 7037 7058 7022 7044 7045 7058 7083 7058 6988 7057 7026 7041 7041 6995 7083 7063 7031 7029 6978 7108 7058 7018 6977 7060 7044 6971 7007 7048 7034 7014 7068 7028 7048 6998 7073 7028 7031 6983 6990 7034 7016 7054 7006 6994 7039 7043 7091 7020 7061 6963 7031 7058 6980 7005 7028 7028 7031 7011 6990 7097 7018 6970 6951 7032 7045 7021 7065 6948 7053 6988 7013 7068 7043 7075 6961 7054 6993 6959 7068 6968 7027 7029 7029 7044 7071 6992 6968 7033 7069 7067 7013 7017 6981 6995 7050 7085 7027 7061 7030 7003 7048 7051 7046 6994 6997 7032 7000 7057 6978 7039 6995 6992 6961 7056 7079 6998 7034 7038 6986 7044 7029 7047 6999 7016 6993 7052 6996 6978 6999 7003 7026 7053 7055 7045 6964 7017 7005 7006 6999 6990 7027 7027 7039 7011 7029 6998 6986 7044 7035 6977 7087 7040 7030 6999 6987 6998 7016 6993 7047 7014 6990 7049 7048 7079 6959 7048 7084 7082 6977 7035 7041 7070 6989 6988 7014 6970 7055 7015 6997 7014 6986 7012 7039 7090 7057 7031 7022 7007 7075 7014 7026 7018 6971 7119 7035 6985 6987 7020 6984 7029 6966 7062 7084 7059 7074 7016 7044 7064 7006 7028 7002 7085 7031 7028 7020 7019 7004 6916 7028 7009 7038 7003 7043 7030 7044 7085 7061 7040 6996 7037 7043 7063 7082 6973 6969 7015 7045 7016 7042 7043 7032 7021 7016 7011 7071 6979 7009 7006 7030 6983 7018 7009 7005 7005 7055 7001 6972 7041 6964 7074 7089 7050 7012 7020 7064 6996 7033 7016 6991 6977 7010 7036 7017 6984 7024 6971 7041 7041 7024 7009 7010 7048 7030 7057 6961 7039 7006 6997 7083 7027 6989 6935 6985 6961 6994 7028 7023 6973 7012 7042 6955 7038 7038 6998 7002 7048 7041 7066 7068 6998 6967 7025 6972 7037 7054 6978 7048 7032 7032 7098 7062 7100 6972 7012 7019 7068 7059 7018 6999 7004 6993 7081 7021 7061 6991 7009 6977 7056 6992 7041 7015 7061 7029 6998 7017 6998 7047 6984 7059 7058 7017 7076 7034 7012 6994 7006 7016 7049 7005 7039 7065 6992 7013

Tree=0
num_leaves=63
num_cat=0
split_feature=0 71 0 0 104 71 73 11 0 11 57 80 76 71 94 81 57 28 51 56 49 18 0 11 104 0 49 55 80 81 101 72 17 9 70 4 103 103 86 35 93 15 54 8 57 57 49 49 28 81 70 102 15 56 81 57 55 57 26 78 55 9
split_gain=151154 44858 22927.5 11942.8 8192.97 7980.56 6809.71 4586.43 4104.48 4061.05 3290.58 4672.96 3255.47 3235.22 2491.16 2789.54 2426.74 2959.02 2219.78 2710.73 2140.38 2069.53 2057.11 2069.12 1957.32 1812.55 1595.23 1551.28 1442.58 2155.66 1494.9 1428.47 1402.19 1379.73 1403.76 1372.31 1377.38 1364.88 1346.85 1333.69 1324.1 1277.92 1256.71 1238.5 1235.09 1220.61 1206.7 1475.05 1201.88 1200.72 1540.26 1555.23 1473.43 1764.69 1616.47 1255.42 1177.46 2039.7 1291.69 1311.34 1156.38 1143.65
threshold=214.50000000000003 3.0914539098739628 53.500000000000007 463.50000000000006 0.97136983275413524 2.4666640758514409 3.696499347686768 0.077264603227376952 6.5000000000000009 0.061470624059438712 0.71702688932418834 6.0683352947235116 -1.9673319458961485 16.988912582397464 -3.6216804981231685 4.9418456554412851 -1.2279824614524839 2.6253994703292851 5.5002009868621835 0.056921934708952911 1.8501304388046267 1.3612191677093508 131.50000000000003 0.14133927971124652 0.21127896755933764 289.50000000000006 2.8741717338562016 -0.76246282458305348 4.1994371414184579 3.8459310531616215 6.6946313381195077 3.4500086307525639 2.4976998567581181 2.499595165252686 4.7779927253723153 0.44161085784435278 4.1190040111541757 4.9522936344146737 -3.5926378965377803 9.2171835899353045 -0.74724164605140675 -1.1681721210479734 7.1440124511718759 -0.71502324938774098 0.12832836061716082 0.84447354078292858 4.6795899868011483 4.0983920097351083 3.7934411764144902 3.8618180751800542 0.21783251315355304 15.46670436859131 1.4848036766052248 -0.12600881606340406 3.9018126726150517 0.4818336963653565 -0.038341354578733437 0.02769110165536404 3.1050928831100468 1.2044395208358767 -0.066152729094028459 -0.16415291279554364
decision_type=2 2 2 2 2 2 2 2 2 2 2 2 2 2 2 2 2 2 2 2 2 2 2 2 2 2 2 2 2 2 2 2 2 2 2 2 2 2 2 2 2 2 2 2 2 2 2 2 2 2 2 2 2 2 2 2 2 2 2 2 2 2
left_child=2 3 8 7 6 22 24 20 -1 12 11 18 61 38 -7 44 -13 -18 19 37 -2 41 -4 -24 -3 -22 -6 -11 29 -29 -30 60 -27 34 -19 36 -12 -8 -10 -17 -20 -14 48 46 -16 -37 47 -23 -38 50 51 -9 54 -54 -51 -55 -45 58 59 -58 -21 -5
right_child=1 4 5 9 26 14 10 49 13 27 35 16 21 -15 15 39 17 33 40 31 25 43 23 -25 -26 32 -28 28 30 -31 -32 -33 -34 -35 -36 45 42 -39 -40 -41 -42 -43 -44 56 -46 -47 -48 -49 -50 52 -52 -53 53 55 -56 -57 57 -59 -60 -61 -62 -63
leaf_value=-1.1311241443450535 -0.99770213628775306 -1.0414945316075732 -1.09470520962731 -0.97963919200449956 -1.088023142898161 -0.94353087191193641 -1.0305407846836916 -0.95897468842868316 -0.97279135807519834 -0.91917040812145023 -0.99889753680916149 -1.0833115220492147 -1.0432967112371621 -0.91977318605811709 -1.0853182376975599 -1.0502766739029483 -0.9401769362042327 -0.97117378141105437 -0.95369173520928652 -1.0861511390402336 -1.0790201696432582 -1.0320726575378072 -1.0874176035712257 -1.0627233287626427 -1.0131366037852467 -1.0698860589503456 -1.0433839797604347 -1.0409517785410343 -1.0461151308236896 -0.93879693921282437 -1.0155890229901106 -1.0880036492071457 -1.0508521474887156 -0.96448309552626366 -1.0617243806414947 -0.91547108104908204 -0.93710626355847648 -0.96172053070909036 -1.108367898129385 -0.93759292364064484 -1.005533135898921 -1.0685151579346788 -0.92609793071421842 -1.0652666953511878 -1.0633290735759735 -1.0647191429180882 -0.9713209366282054 -1.1000533522658928 -1.1056218007164103 -0.95538691286339417 -1.0692419157634507 -1.0505592542104338 -1.0946119550707389 -1.0028560219837097 -1.0576451262145716 -1.0535334173113047 -1.0477218079310642 -1.0573195570118252 -1.0001332016010309 -0.9946509697578747 -1.0246738566907272 -1.0325696209200337
leaf_weight=22120.605917207897 976.51980761438608 11523.921251781285 126576.76835216582 1929.2986243963242 2680.4281791225076 409.0293612331152 1177.4428993538022 653.34434325993061 182.49878076463938 336.76741795986891 1087.754103243351 447.96081749349833 6290.1619406566024 227.2743666395545 16002.123687542975 12135.231250368059 5154.4045964404941 665.80116668343544 1753.6392802745104 893.40427296608686 55992.565310359001 10589.619844198227 82718.006915651262 9451.1400828436017 12903.353132434189 80594.701048545539 7893.9420147314668 998.05173645913601 8910.8838756680489 1071.1208560243249 7297.929776892066 1493.3486980944872 10995.188698358834 1470.6803367063403 1196.1632796004415 187.50734841823578 221.14656080305576 1863.3485692441463 131955.28877480328 267.45539800822735 4162.3844353184104 24935.157805353403 3677.0865996703506 11048.919359736145 10625.159545227885 501.8947890624404 739.6288533359766 862.33603397011757 201.47394831478596 400.78292372077703 11187.24946822226 1592.4329201206565 797.30337823182344 4795.0327236801386 10167.087155811489 1641.4479265809059 7340.2153627425432 16361.92289146781 2775.9010616466403 1382.9532373845577 5304.3404011577368 2171.6664426997304
leaf_count=48021 5767 81902 500406 15942 20085 1233 8156 3461 302 2665 7615 3586 52350 303 69615 51194 40277 4660 12344 6971 319758 87700 411806 44449 91132 538262 59678 8247 73813 8605 61140 10794 71992 11331 8912 1163 1726 14030 367188 1091 30212 208097 28833 93140 45054 3632 6177 7134 1472 2415 68018 9615 4614 28379 64344 9789 60980 136367 23014 11611 39033 17835
internal_value=-1.07543 -1.05133 -1.09595 -1.05996 -1.01434 -1.08684 -1.0067 -1.06778 -1.11119 -1.04656 -0.991322 -0.999079 -1.05113 -1.10786 -1.06613 -1.06742 -0.969908 -0.963922 -1.01474 -1.0283 -1.07144 -1.05329 -1.09057 -1.08489 -1.02651 -1.07193 -1.0547 -1.02538 -1.02734 -0.98803 -1.03237 -1.04411 -1.0676 -1.00068 -1.02931 -0.957575 -0.948765 -0.988345 -1.10818 -1.04784 -0.990148 -1.06343 -0.935486 -1.0471 -1.07654 -1.02395 -1.03319 -1.03719 -1.01732 -1.05037 -1.06165 -1.02388 -1.04185 -1.02447 -1.05376 -1.01577 -1.05145 -1.04598 -1.02984 -1.0393 -1.03354 -1.00765
internal_weight=763968 351298 412671 284836 66461.4 258185 55887.1 179794 154486 105043 31459.8 25582.9 86427.8 132365 39439 39030 8935.01 8487.05 16647.9 10731.9 148559 82326.8 218746 92169.1 24427.3 147582 10574.4 18614.8 18278 2069.17 16208.8 7691.09 91589.9 3332.64 1861.96 5876.86 5187.46 3040.79 132138 12402.7 5916.02 31225.3 4099.71 51101.5 26627.3 689.402 12191.6 11452 422.621 31234.7 13433 2245.78 17801.7 7233.78 10567.9 6436.48 38909.9 27861 11499.1 8723.17 6197.74 4100.97
internal_count=4029437 2488775 1540662 2001231 487544 1124848 407781 1126414 415814 874817 234747 190306 720347 367793 168187 166954 68766 65180 121540 78984 935779 686570 956661 456255 173034 930012 79763 154470 151805 16852 134953 56798 610254 24903 13572 44441 39646 22186 367490 52285 42556 260447 32031 426123 114669 4795 101011 94834 3198 190635 81094 13076 109541 42782 66759 38168 325112 231972 95605 72591 46004 33777
is_linear=0
shrinkage=1


Tree=1
num_leaves=63
num_cat=0
split_feature=0 71 0 0 81 81 11 0 73 7 11 76 18 51 101 0 6 11 80 8 28 11 0 18 57 86 85 8 57 70 24 80 81 72 6 57 83 7 27 55 51 101 81 83 28 57 57 49 87 56 56 101 102 6 9 80 58 56 24 55 78 28
split_gain=135107 39107.7 20453.9 10884.2 7043.45 6058.66 4305.47 3583.96 3522.08 3785.02 3087.32 2860.54 2814.82 3618.59 2632.32 2518.3 2229.35 2089.52 1977.21 1911.34 1885.15 1762.41 1692.27 1661.53 1657.18 1604.51 1461.56 1417.88 1869.17 1348.62 1340.53 1338.12 1769.52 1320.03 1319.15 1489.8 1233.31 1201.32 1198.8 1162.71 1576.2 1142.77 1133.21 1105.79 1119.68 1607.01 1582.38 1167.74 1155.99 1091.74 2684.65 1079.64 1270.02 1074.66 1072.49 1158.32 1055.06 1046.73 1283.87 1027.45 1023.55 1015.32
threshold=208.50000000000003 3.0221514701843266 48.500000000000007 478.50000000000006 4.9418456554412851 3.6960386037826543 0.077264603227376952 6.5000000000000009 3.5306706428527836 -0.36101351678371424 0.059257855638861663 -1.9181301593780515 5.0407357215881357 8.5649938583374041 222.41177368164065 131.50000000000003 -0.5881923735141753 0.14961325377225879 6.1127309799194345 -2.1473731994628902 4.0574991703033456 -0.51423215866088856 307.50000000000006 1.3529487848281863 -1.5745842456817625 -3.7223559617996211 -4.2508361339569083 0.65698954463005077 1.9492493867874148 19.32896709442139 1.8536036610603335 4.1994371414184579 3.8459310531616215 1.1858458518981936 -1.6627773642539976 0.7509991228580476 0.49795994162559515 -0.016703252680599686 4.3621172904968271 0.34944431483745581 4.6203536987304696 6.6137371063232431 5.0536897182464608 0.41554881632328039 2.2920458316802983 0.7509991228580476 1.4002354741096499 4.0612649917602548 7.5732679367065439 26.545452117919925 22.602602958679203 11.337796688079836 26.201258659362797 -7.5587041378021231 0.19581236690282824 2.8136342763900761 -0.85294482111930836 -0.25064259767532343 -0.039751728996634476 -0.58965227007865895 -0.88106060028076161 2.3904640674591069
decision_type=2 2 2 2 2 2 2 2 2 2 2 2 2 2 2 2 2 2 2 2 2 2 2 2 2 2 2 2 2 2 2 2 2 2 2 2 2 2 2 2 2 2 2 2 2 2 2 2 2 2 2 2 2 2 2 2 2 2 2 2 2 2
left_child=2 3 7 6 15 21 19 -1 33 12 11 51 18 20 -9 25 38 -17 39 54 53 -3 57 -13 -18 37 -23 28 30 42 43 32 -12 -7 -35 60 -8 -4 -11 40 -10 59 -6 -26 47 48 -47 -45 -46 50 56 52 -5 -14 -2 -56 -44 58 -21 -33 -36 -28
right_child=1 5 4 10 29 8 36 14 9 16 31 23 13 -15 -16 17 24 -19 -20 22 -22 26 -24 -25 27 -27 61 -29 -30 -31 -32 41 -34 34 35 -37 -38 -39 -40 -41 -42 -43 49 44 45 46 -48 -49 -50 -51 -52 -53 -54 -55 55 -57 -58 -59 -60 -61 -62 -63
leaf_value=-0.054210905523513181 0.051282728669464039 -0.0072279058230181898 -0.022216078165884896 0.076184125867087615 0.062183977548844006 0.031990667591501064 0.034743171402487907 -0.03230277917336629 0.028496927805723257 0.081420158154728403 0.034953447313582575 0.011468558046200466 0.12877788727414211 0.085950301876910551 0.15452075521784661 -0.010378249559081558 -0.046331823213907303 0.01169457691183878 0.13980957563996746 0.049345869487394174 0.094201950188712774 0.082291297476169867 0.0073034300828819735 0.026745613145454712 -0.022995408598172559 -0.018312177897138539 0.0095311272790062993 0.10788048834798783 0.16708394046376498 0.11898427205826756 0.13680599669081892 0.1328830263123478 0.12909080001247289 0.09319867093207794 0.066126966070489276 0.089116477383715156 0.01516284481469321 0.10712099552390363 0.12340609512933759 0.097202813628369675 0.088507049048093811 0.056320163523650595 -0.023670167174340426 0.0685160026724045 0.022961617425632196 0.11510237850951305 0.0064162780889693866 0.13105988483174666 0.096826597409134171 -0.024346599565061324 0.14011681422178629 0.12137247366820191 0.014629576780880444 0.0017324540087408479 0.1656480854261595 0.0024572304789625479 0.020018344130526999 -0.004592700498271849 -0.015029882767259962 0.026397083138116964 0.026130687667143868 0.045555676310056872
leaf_weight=21447.455810949206 3153.326967716217 3421.4355559721589 299.61531640589237 2158.5709650963545 1326.2342867478728 10048.86163521558 13830.235755711794 118944.496924676 2893.4442656338215 2803.7220444232225 944.95346818864346 28467.925125449896 170.40701220929623 2408.8545657247305 187.87373177707195 83761.368780434132 284.59774322062731 12294.922550737858 1014.1012956127524 1997.9672214388847 663.69089079648256 1376.571718506515 82342.029145903885 47495.040439359844 387.17901023477316 147721.30203896016 4166.5035335496068 2729.4329239875078 456.29221030324697 336.17404188960791 598.09676870703697 231.82687337696552 1059.6234972327948 2050.1946423053741 2342.5633933097124 1838.7325308546424 19221.286084122956 445.87665486335754 4357.8655303642154 1952.6574735119939 1760.1892846599221 7065.5127533301711 1578.8888360634446 3266.5403767973185 3811.9659715890884 1389.9254558831453 441.25365229696035 969.16409488767385 614.41084010899067 1651.8478827029467 439.55155288428068 673.75009430199862 1370.2250464707613 5760.6856658831239 112.24214150011539 2734.3498385623097 11034.62111852318 67236.316510997713 1263.7493872493505 8472.7923283651471 5047.1398042738438 3686.5449361130595
leaf_count=47919 19933 24874 1050 17092 5210 71323 83148 329542 19841 19737 7703 238143 1315 17025 173 416025 2074 56534 7210 11220 4516 10435 556274 393759 2894 581517 29190 19483 3406 1141 4357 1900 8025 14157 15559 12579 116404 1135 31744 13686 12545 57949 7281 23221 27462 9893 3286 7128 4909 7530 1547 5530 11224 42718 634 16887 46398 387331 7624 69695 33567 25666
internal_value=-3.96524e-05 0.0220863 -0.0200204 0.0138609 -0.0117358 0.054872 0.0069386 -0.0353948 0.061496 0.0704813 0.0274234 0.0232427 0.0524499 0.0335159 -0.0320069 -0.0138614 0.0840354 -0.0075529 0.0748134 0.00352214 0.0143532 0.0234219 0.00243532 0.0210206 0.0730357 -0.0179428 0.0347833 0.0753553 0.0679085 0.0200178 0.0639519 0.0462761 0.0847542 0.0451745 0.056917 0.0488475 0.0233569 0.0551799 0.106982 0.0648165 0.0512093 0.04138 0.0179351 0.0599349 0.0629968 0.0495444 0.0889304 0.0828541 0.0332341 0.0139404 0.0187871 0.0633945 0.0522935 0.00540371 0.0312023 0.00894782 0.0145482 -0.00325067 0.0244066 0.029248 0.0388169 0.0264462
internal_weight=764015 362545 401470 289832 260890 72713 191892 140580 60062 38734.5 97940.2 80165.5 16624 9003.64 119132 244523 22110.4 96056.3 7620.39 158840 6594.78 12651.1 152840 75963 14948.9 148467 9229.62 14664.3 11934.8 16367.3 11478.5 17774.7 2004.58 21327.5 11278.6 9228.44 33051.5 745.492 7161.59 6606.29 4653.63 15770.1 16031.1 10880.4 10493.3 6257.56 1831.18 4235.7 4426.38 14704.9 13053.1 4202.55 3528.8 5931.09 5999.92 2846.59 12613.5 70498 3261.72 8704.62 7389.7 7853.05
internal_count=4029277 2526275 1503002 2010475 1125368 515800 1199455 377634 425635 278450 811020 665748 118856 65574 329715 1056261 159594 472559 53282 999903 48549 90165 962449 631902 108113 583702 65291 106039 86556 69107 83150 145272 15728 147185 75862 61705 199552 2185 51481 46072 32386 129544 67966 78793 75899 45550 13179 30349 32371 62756 55226 33846 28316 44033 37454 17521 53679 406175 18844 71595 49126 54856
is_linear=0
shrinkage=0.05


Tree=2
num_leaves=63
num_cat=0
split_feature=51 103 71 51 80 71 104 103 29 79 29 51 5 103 94 5 27 101 104 103 9 28 9 18 104 72 28 6 55 57 49 21 94 101 83 56 70 104 51 49 55 5 55 104 28 26 55 16 54 49 9 76 29 57 57 9 27 98 54 54 26 7
split_gain=78432.5 27262.1 23270.1 13155.6 5955.12 5626.83 6414.09 4371.07 4348.02 3802.93 3422.04 3352.97 4193.65 3364.94 3327.68 2935.11 2550.1 2213.94 2180.89 2168.06 2082.75 2068.67 1984.53 2427.61 2310.31 2166.31 2188.88 2228.28 1945.59 1910.06 1890.81 1827.29 1816.03 1744.47 2127.77 1891.63 1685.61 1673.39 1667.4 2079.3 1912.86 1708.29 1556.02 1522.44 1502.99 1477.65 1450.4 1449.06 1444.96 1435.81 1415.78 1484.45 1415.56 1578.68 1371.71 1351.99 1349.3 1324.94 1347.42 1753.55 1759.68 1319.75
threshold=3.381339550018311 4.49422311782837 2.5473442077636723 1.9030407667160036 4.8139879703521737 3.1738315820693974 0.83342283964157116 5.2548844814300546 15.690647125244142 0.28129161894321447 16.930082321166996 6.023667812347413 0.30670776963233953 4.6395599842071542 -2.6504596471786495 0.23149444907903674 3.5430107116699223 5.3943517208099374 0.97833636403083812 5.3542222976684579 -0.85664430260658253 2.9876208305358891 5.9029815196990976 4.2644338607788095 0.87534248828887951 1.3673754930496218 2.0700211524963383 6.2367196083068857 -0.03983348794281482 0.80151328444480907 2.1740982532501225 0.36366944015026098 -3.4216727018356319 16.869168281555179 0.44899778068065649 0.037790182977914817 10.234667778015138 0.63500741124153148 2.7491005659103398 5.2241041660308847 -0.35649938881397242 0.17869459837675097 0.23182851821184161 0.61542972922325145 1.6134065389633181 2.4389759302139287 0.11455739289522172 -0.98675307631492604 8.2091722488403338 4.4174745082855233 1.2371994853019717 -0.88842907547950734 14.095654964447023 0.49568396806716924 -2.5089831352233882 -3.0884258747100826 3.8478780984878544 4.8948566913604745 8.3329095840454119 8.3465237617492694 4.7453243732452401 3.6707597970962529
decision_type=2 2 2 2 2 2 2 2 2 2 2 2 2 2 2 2 2 2 2 2 2 2 2 2 2 2 2 2 2 2 2 2 2 2 2 2 2 2 2 2 2 2 2 2 2 2 2 2 2 2 2 2 2 2 2 2 2 2 2 2 2 2
left_child=1 3 7 9 15 10 28 20 14 -1 19 12 13 -6 -5 29 49 -9 33 32 55 47 24 -24 25 -13 54 -28 -7 -4 -31 -26 -3 48 -35 -36 -17 57 39 -16 -41 -40 -19 -34 -25 -42 -8 -21 -15 -11 51 -49 53 -22 -27 -2 -10 58 -18 -60 -61 -20
right_child=2 5 4 8 11 6 46 17 56 16 -12 22 -14 18 38 36 37 42 61 21 52 -23 23 44 31 26 27 -29 -30 30 -32 -33 43 34 35 -37 -38 -39 41 40 45 -43 -44 -45 -46 -47 -48 50 -50 -51 -52 -53 -54 -55 -56 -57 -58 -59 59 60 -62 -63
leaf_value=-0.053945956194335988 0.13810574942176831 0.12790263681685274 0.0270181532567376 0.08314405948821528 0.027759786129428889 -0.010715671611287877 -0.0078590328291613994 0.01418013465075032 0.00078532292192677339 -0.032449328701617534 0.023248991081331286 0.03609430994033512 -0.016599738183539738 0.039226697207695761 -0.018570945552183107 -0.0072047316619697488 -0.01260286763779616 0.044859812223534995 0.012225537860549153 0.14139438085705783 0.0024358030552804992 0.027522177730205467 -0.0017385591654475966 -0.03895119621366383 0.064408273053533402 -0.066598657644987819 0.083266913261975786 0.022942260735974683 0.10673828870662083 -0.017061024828276521 0.074527744006804605 0.0068682178183864353 0.0061216313512630384 -0.0013768346670800726 0.12325877745407215 0.071721527014876107 0.11605711771299609 -0.026602868298072326 -0.0055347896604820103 0.10319908474172997 -0.051899899075004842 -0.032455131394839166 0.011268198828873267 -0.010251785692846203 0.14768686220493568 0.11815263183412361 0.050917705726145068 0.02737035369485526 0.079771912313964799 0.042470574223646487 -0.014644748013128501 0.0015311622115308844 0.0093958629839326624 -0.015874423972803527 0.11998295589252078 0.020553044913195859 0.026273822275330518 0.17148118330048348 0.12630989343619853 -0.0035668476648191925 0.11547462060891847 0.11900291513800616
leaf_weight=15920.285118870437 247.96472522616386 255.13861731439829 27119.427113674581 879.77636988461018 15170.670816868544 393.49434269219637 3716.0048796236515 27912.37593665719 16926.249612241983 95258.755591586232 19749.648273646832 3371.2012224569917 2867.3783402070403 7640.5519258528948 117803.11883372068 7294.3027238473296 10736.830269999802 13858.75761642307 3214.2530896067619 187.90163440257311 40522.460099935532 11265.613409757614 391.44556434452534 114.88687978684902 2558.6290084049106 100.84050166606903 5668.8902036547661 2098.2752373889089 3375.5246434286237 655.27225130796432 4008.609734095633 2993.8963860571384 20034.272223867476 724.48686535656452 2604.1049539968371 5652.8438808992505 287.31981905549765 15208.338896661997 62377.518257558346 675.06281287223101 565.1082666143775 6506.9707233309746 4589.9251046553254 48722.338572315872 1676.2323122024536 163.9825326949358 1461.6134057343006 7334.0160265266895 3086.5046229362488 643.01110965758562 9158.359492726624 22948.526674740016 39843.884925030172 16590.850769862533 3404.4304363876581 14055.912405475974 7488.9482709690928 107.3433835208416 370.61534380167723 2546.9761690497398 352.52144592255354 317.05495380610228
leaf_count=40565 1878 1074 162606 2865 95045 2941 25854 209215 118707 295697 146551 23617 14909 54574 488294 31731 41748 104273 23578 1281 210278 75857 2437 748 17401 776 34964 14973 22055 3300 25643 19022 122223 5096 18248 40450 1031 48538 304171 2699 2832 19425 34356 240682 11832 530 9730 51254 21761 1785 62482 156031 287336 89294 21535 94391 53095 383 1035 9142 1300 2392
internal_value=-1.78e-05 -0.0115501 0.0222436 -0.0190853 0.0407229 0.00642707 0.0448653 0.0101653 -0.0112519 -0.0309279 0.00396434 0.0501763 0.041725 0.0460793 -0.0138173 0.0254351 -0.0280011 0.023064 0.0580364 0.000787813 0.00479044 0.00861681 0.0657624 0.111061 0.0608618 0.0712756 0.0817929 0.0669754 0.0944762 0.0321031 0.0616587 0.0333898 -0.00498592 0.0645199 0.0807805 0.0879885 -0.0025188 -0.0150966 -0.0142713 -0.0178499 0.0426154 -0.00807817 0.0365035 -0.00548089 0.1357 -0.0135433 0.00873995 0.00324187 0.0508992 -0.0319466 0.00258012 0.00778976 0.00216277 -0.00288332 0.114598 0.0226004 0.00860424 -0.00269746 -0.00404444 0.0240509 0.0109411 0.0218434
internal_weight=763778 503134 260644 354531 103022 148602 8946.64 157622 213387 141145 139656 63656.6 41277.8 38410.5 188972 39364.9 125224 46361.1 23239.8 119906 111261 50894.4 22378.7 2182.56 20196.2 14643.6 11272.4 7767.17 3769.02 31783.3 4663.88 5552.53 69011.7 19708.5 8981.44 8256.95 7581.62 29322.6 188092 119207 1404.15 68884.5 18448.7 68756.6 1791.12 729.091 5177.62 39628.8 10727.1 95901.8 39440.9 30282.5 96957.2 57113.3 3505.27 14303.9 24415.2 14114.3 14006.9 3270.11 2899.5 3531.31
internal_count=4029516 2350826 1678690 1432811 647669 918015 60580 1031021 992618 440193 857435 423358 276053 261144 820816 224311 399628 347844 166099 710884 683177 346905 147305 15017 132288 95865 72248 49937 24996 191549 28943 36423 363979 140129 63794 58698 32762 102146 817951 494355 6061 323596 138629 362905 12580 3362 35584 271048 76335 297482 269767 207285 586908 299572 22311 96269 171802 53608 53225 11477 10442 25970
is_linear=0
shrinkage=0.05


Tree=3
num_leaves=63
num_cat=0
split_feature=0 71 0 0 104 73 71 0 11 11 76 103 94 71 55 81 47 6 49 0 12 82 55 82 56 55 50 95 54 18 102 11 50 51 0 42 56 86 49 61 7 82 80 11 51 51 94 18 94 72 6 76 55 56 56 6 70 54 50 55 91 72
split_gain=112482 30198.3 17866.4 9117.2 5870.99 5652.59 5435.75 3495.66 3177.91 2778.58 2440.63 2145.47 2076.58 2069.93 2002.05 1973.73 1877.2 1757.14 1692.5 1688.67 1548.07 1510.93 1550.14 1465.59 1885.51 1422.33 1381.86 1346.46 1335.46 1305.39 1286.26 1673.55 1600.85 1237.37 1215.51 1204.61 1249.68 1177.31 1158.69 1326.66 1114.94 1231.83 1606.46 1098.57 1086.47 1078.4 1045.68 1031.82 1157.23 1444.45 1364.87 1013.46 994.269 980.483 1742.02 1112.31 1186.01 1049.37 967.801 1290.57 969.326 955.868
threshold=205.50000000000003 2.9893323183059697 48.500000000000007 445.50000000000006 0.91351681947708141 3.8984391689300542 2.3616658449172978 6.5000000000000009 0.077264603227376952 0.072491429746150984 -1.7132299542427061 3.8393944501876835 -3.4216727018356319 16.988912582397464 -0.22574807703495023 4.9788725376129159 -0.83230608701705922 -0.45150730013847346 1.8931142091751101 91.500000000000014 2.2327550649642949 -0.28705120086669916 0.29953831434249883 -0.087053421884775148 0.04004285857081414 -0.042931957170367234 5.5812654495239267 -2.3106203079223628 8.3268795013427752 1.3193219900131228 216.56532287597659 0.5971452295780183 4.0324490070343026 6.1763012409210214 307.50000000000006 1.9542830586433413 6.214078664779664 -3.7223559617996211 4.6795899868011483 -3.6657285690307613 -0.59053984284400929 0.17399258166551593 5.9307312965393075 0.072491429746150984 3.5541648864746098 2.0156162977218632 -3.0365041494369502 4.2644338607788095 -3.6216804981231685 1.2129384875297549 -1.6627773642539976 1.7431456446647646 0.17160733044147494 26.545452117919925 22.602602958679203 7.0686433315277108 19.32896709442139 7.2258453369140634 4.6406314373016366 0.26715153455734258 1.1745634675025942 -0.3463557213544845
decision_type=2 2 2 2 2 2 2 2 2 2 2 2 2 2 2 2 2 2 2 2 2 2 2 2 2 2 2 2 2 2 2 2 2 2 2 2 2 2 2 2 2 2 2 2 2 2 2 2 2 2 2 2 2 2 2 2 2 2 2 2 2 2
left_child=2 3 7 8 5 11 19 -1 18 10 58 -3 -8 37 -7 -14 33 40 -2 -4 34 22 26 -19 -25 51 28 -13 44 -23 31 32 -18 -6 46 36 -26 -9 45 -40 41 42 -16 -21 -12 -22 -20 48 -29 -50 -51 -11 -45 54 55 56 -17 -57 -5 60 -60 -30
right_child=1 4 6 9 16 14 12 13 -10 25 21 27 15 -15 17 53 30 23 20 43 38 29 -24 24 35 -27 -28 47 61 -31 -32 -33 -34 -35 -36 -37 -38 -39 39 -41 -42 -43 -44 52 -46 -47 -48 -49 49 50 -52 -53 -54 -55 -56 57 -58 -59 59 -61 -62 -63
leaf_value=-0.052530797360242736 0.060602509905739343 0.023902900939000004 -0.020243299146461325 0.062740414761827568 -0.028034279125147457 0.0068279791390841484 0.09597849140441865 0.11729109055734091 0.01963727979464891 0.054729261543151546 0.034338953643545313 0.02605548714081022 -0.0030184995214934834 0.11814837056147723 0.024001007468049798 0.024407967219360841 0.0083380691913351093 0.01459620883263321 0.065595346697161244 -0.013147662246244668 0.096075915440075016 0.0078077859030343802 0.11294746151751589 0.10468411813970313 0.049625322285027501 0.032624384328682331 0.10322488088511333 0.14247204938829403 0.11405576384450711 0.020719647662675807 0.071078068229177671 -0.0069443615797787281 0.047484362529736354 0.14016801052693589 0.0051770248994390151 0.12273975402256879 0.1027467801834952 -0.03053555755695175 -0.06089758329193478 0.15801636944613651 0.10388607075375403 0.12934353539014531 0.09701151629273902 0.004084259100817565 -0.021566855832825787 0.014202403746536162 -0.0047087327401233552 0.02403981466851185 0.041204947791355251 0.11520057782947131 0.063101630862847841 0.11828794275036975 -0.017640335952646139 -0.02506841161070757 0.12408807147131778 0.14983691310580585 0.13011440731385157 -0.030263827801276785 0.01797870720722301 -0.035961935052372135 0.085856224959651298 0.008362247518855264
leaf_weight=20354.49288443476 1226.9081137403846 11910.865152187645 75836.470366977155 4353.4491427391768 2185.2154713496566 1138.980992294848 620.92979122698307 133.88665147870779 31489.310727328062 4218.9736649617553 1918.8893664479256 4407.6249585524201 29797.149520911276 234.14382740110159 1734.6044805720448 9113.7691833749413 4111.0889300629497 1360.6946223452687 531.94331554323435 109393.19789157808 425.90969949215651 30853.222009502351 686.78292585909367 2935.6771820932627 9681.4761950224638 12722.828038305044 613.02821210771799 432.97579730302095 598.93081343919039 53557.849389590323 1607.4641698151827 3370.3157787024975 7161.5855290740728 114.11025331914425 68592.866467863321 713.96487395465374 1250.4744860976934 115454.94188951701 89.427107900381088 298.34574829041958 6269.0603039339185 698.02201070636511 1332.1922172009945 19378.436125218868 1586.8285828530788 6961.2411848381162 69834.188995949924 2046.9417387992144 6047.2311099469662 1587.0964040309191 6077.3483493179083 737.08422914147377 7231.2263298630714 1064.9699581041932 426.6837275326252 84.993096724152565 272.38223093748093 1362.3386861085892 1397.5624606311321 660.04729031026363 843.05497594922781 332.71959317475557
leaf_count=48092 6985 78374 284221 32569 16084 7861 1794 173 183754 32554 15280 30023 127241 236 12441 36917 29756 9367 2981 523263 2526 250144 5595 19622 67585 99380 5214 2886 4991 427811 11237 22923 50380 584 453748 4556 7525 329479 510 1200 41531 4625 8650 86267 13046 41697 403206 14049 41755 10068 38774 5657 33602 4898 1266 402 766 5211 11291 5405 6737 2557
internal_value=-5.94487e-05 0.0195917 -0.0188026 0.0122592 0.047217 0.0548597 -0.0109832 -0.0334208 0.00521437 0.0232442 0.0199339 0.0407977 0.00528173 -0.0300621 0.0717173 0.00394251 0.0226491 0.0745621 0.00214475 -0.014265 0.00165555 0.0176883 0.0425161 0.0642361 0.068867 0.0414804 0.032918 0.050565 0.0231839 0.0160004 0.0286321 0.0239679 0.0332099 -0.0196295 0.00044067 0.0598301 0.0557106 -0.0303633 0.0233658 0.107504 0.0909605 0.0694152 0.0557375 -0.0109314 0.00903481 0.0189352 -0.00417633 0.0572349 0.0620367 0.0594866 0.0739035 0.0642039 -0.00181988 0.0207703 0.0251075 0.021198 0.0274891 -0.0195914 0.0478337 0.0254472 0.0435452 0.076359
internal_weight=763466 372706 390760 294531 78175 59625.2 254583 136177 179450 115081 97402.4 32510.1 42743.2 115823 27115.1 42122.3 18549.8 25976.2 147961 211839 146734 90148.3 5737.18 15942.3 14581.6 17678.9 5050.4 20599.2 4437.37 84411.1 16250.5 14643 11272.7 2299.33 138959 11645.9 10932 115589 7774.92 387.773 10033.9 3764.82 3066.8 136003 3505.72 7387.15 70366.1 16191.6 14144.7 13711.7 7664.44 4956.06 26609.7 12325.1 11260.2 10833.5 9386.15 1447.33 7254.11 2900.66 2240.62 931.65
internal_count=4029322 2545494 1483828 2014838 530656 399692 1105848 377980 1096607 918231 780640 215929 178495 329888 183763 176701 130964 175902 912853 927353 905868 724638 46683 108655 99288 137591 41088 137555 35874 677955 114296 103059 80136 16668 859935 79666 75110 329652 45933 1710 67247 25716 21091 643132 28326 44223 406187 107532 93483 90597 48842 38211 119869 49460 44562 43296 37683 5613 56002 23433 18028 7548
is_linear=0
shrinkage=0.05


Tree=4
num_leaves=63
num_cat=0
split_feature=0 71 0 0 71 104 73 0 11 7 102 36 57 11 8 94 81 76 0 11 82 8 26 16 60 49 81 11 82 26 83 70 56 49 56 94 19 57 85 32 83 56 70 26 57 58 54 82 28 83 82 28 50 11 7 57 94 7 81 54 56 7
split_gain=101389 24747.6 18601.5 7056.1 5845.68 4972.57 4188.93 3584.89 3288.48 2154.18 2025.37 1954.9 2497.93 2236.43 1879.28 1794.37 1847.4 1752.26 1725.8 1701.85 1506.67 1644.44 1486.7 2265.29 1511.94 1383.97 1343.74 1328.49 1288.1 1800.68 1257.81 1180.67 1211.21 1323.52 1212.69 1169.88 1164.86 1159.04 1096.84 1086.28 1071.66 1057.6 1263.29 1176.97 1056.27 1042.31 1039.04 1017.82 1333.72 1518.51 1469.13 1225.39 1009.12 1112.84 1008.56 1006.63 976.952 974.729 973.948 1227.97 1079.63 1378.27
threshold=223.50000000000003 2.9559348821640019 53.500000000000007 553.50000000000011 2.4292865991592412 0.97136983275413524 3.6372635364532475 8.5000000000000018 0.070258155465126051 0.88059189915657055 56.189094543457038 7.5438253879547128 0.71702688932418834 -0.51423215866088856 -2.1473731994628902 -3.6216804981231685 4.9418456554412851 -1.6132686734199522 139.50000000000003 0.12981604784727099 0.035448564216494567 -0.56970390677452076 3.258554339408875 -0.83387085795402516 0.21064461022615436 3.112492680549622 1.8030089139938357 0.050552792847156532 -0.30942197144031519 1.8480814695358279 0.49769569933414465 1.1537300348281863 -0.31104637682437891 2.7280093431472783 4.1360278129577646 -3.8699502944946285 0.33726057410240179 0.12832836061716082 -3.4692374467849727 2.9250113964080815 0.27784503996372228 5.8254487514495858 2.3444324731826787 1.5948770046234133 0.77383443713188182 0.056364368647336967 7.1557865142822275 -0.21583228558301923 1.7744259834289553 0.56562319397926342 -0.63886892795562733 1.2054330110549929 3.4697780609130864 -0.079671293497085557 2.5237994194030766 -0.41157561540603632 -1.6996243596076963 -113.82575607299803 4.6898834705352792 8.4983158111572283 0.294416293501854 -5.2169463634490958
decision_type=2 2 2 2 2 2 2 2 2 2 2 2 2 2 2 2 2 2 2 2 2 2 2 2 2 2 2 2 2 2 2 2 2 2 2 2 2 2 2 2 2 2 2 2 2 2 2 2 2 2 2 2 2 2 2 2 2 2 2 2 2 2
left_child=2 3 7 8 18 6 31 -1 14 -7 38 12 13 -8 55 -6 37 -5 -4 -20 41 -22 23 44 26 -11 -24 28 29 -19 -10 35 -33 -34 -35 -3 -30 -17 -9 47 -29 43 -43 -15 -16 -12 -14 48 49 -25 -50 -51 53 -53 -31 -2 -39 -32 60 -60 -49 -62
right_child=1 5 4 17 15 9 11 10 30 25 45 -13 46 20 22 16 -18 27 19 -21 21 -23 24 39 -26 -27 -28 40 36 54 57 32 33 34 -36 -37 -38 56 -40 -41 -42 42 -44 -45 -46 -47 -48 58 50 51 -52 52 -54 -55 -56 -57 -58 -59 59 -61 61 -63
leaf_value=-0.04796876137540964 -0.016613614821847714 0.12021571255775564 -0.016110937006554995 0.052326679818130772 0.09861314251191132 0.0042199260786940137 -0.012561174890055824 0.077771266833903396 0.032017453855674408 0.0087551391806651741 -0.036420508783603769 0.097417196826671604 0.019657970792453697 0.10118887822349509 0.11473793998403384 -0.0088600912380583201 0.021349712950254989 0.092468058343040171 -0.0095583716162924662 0.012351626877268145 0.0073912525104748647 0.058130622533441971 0.079730256502817537 -0.0078858051829243259 0.0011635581945925119 0.086159475626347959 0.017792176396892363 0.10317818539658599 -0.025047621135393952 0.006661760060283759 0.14992888910327629 -0.030074572182633454 0.084776852103782885 0.035412390172828337 0.077605715793812258 0.023055464407398189 0.019558569039606261 0.054057455743531518 -0.028638882388838879 0.023688477183202574 0.035083177413670723 0.054538938745541998 0.12260311695811398 0.051898078438811918 -0.048222652096317105 0.061707201857063701 0.090490529387093302 -0.0088207457053214276 0.15765970111229882 0.14468385704274189 0.029572234128691883 0.01463252299106977 -0.03187554072439671 0.16465756891834132 0.15611304188942551 0.038488157461838021 0.0065380940612920413 0.012624396949549962 0.0095230750563576362 0.11019182949477638 -0.0082029434661374228 0.0096392706419062349
leaf_weight=26833.593881882727 965.70792428404093 316.01178481429815 131849.37530828267 5931.4173965081573 532.72269584983587 9679.6779740899801 1338.8390957564116 241.7450699955225 15739.421514324844 932.58703780174255 377.87959997355938 3350.4237453714013 565.93253391236067 1321.1121362522244 615.70461817085743 17615.145105943084 13958.854688353837 1435.2837302833796 78149.294762328267 9995.7278039082885 3190.7723039388657 3196.3438576236367 909.33774898201227 6609.9412914663553 18654.239092469215 1516.6360684931278 23065.228917278349 606.20606026053429 1511.8188828006387 1636.2830862626433 129.0465260669589 516.85156492143869 2079.5471381172538 11170.754749298096 2009.5900783464313 13783.154035322368 45148.958097614348 1203.7257815152407 116257.29043148458 4820.4648985862732 12060.903240516782 1324.4014945477247 1410.11091388762 14605.888166315854 117.97151432931423 947.50493741780519 6159.5014697685838 49061.067571870983 237.71216055750847 278.56824143230915 3620.6858854144812 324.37657357007265 423.12166482210159 198.92965018004179 120.26146054267883 5826.8839196041226 10588.739912748337 21557.648381888866 9763.117114149034 311.64308770000935 19007.417864836752 25136.571402639151
leaf_count=64093 5967 2150 545140 47890 1501 70230 10221 419 95577 6540 955 22791 3788 8925 3790 77884 56783 11956 403230 47372 22629 21215 5306 43498 120981 10661 146513 4857 13056 13945 709 3258 12411 73330 12357 94970 380376 5302 347992 31617 98344 8208 7800 97501 912 2082 40190 321371 1587 2220 23725 2450 2956 1137 950 37009 45102 133352 65080 1936 123774 160057
internal_value=-9.01364e-05 0.0194842 -0.0170649 0.0124358 -0.00916576 0.0442597 0.0496416 -0.0314748 0.00784115 0.0148216 -0.0277181 0.0610149 0.0573288 0.0503921 0.00488636 0.00749317 0.00637158 0.0263552 -0.01249 -0.00707365 0.0537573 0.0327882 0.00381345 0.000974911 0.0118388 0.0567019 0.0201447 0.0238904 0.0202157 0.0509417 0.0212581 0.035759 0.045156 0.0477059 0.041851 0.0252415 0.0181128 -0.000738543 -0.0284174 0.000438101 0.0383499 0.060932 0.0896697 0.0559927 0.0885047 0.0337237 0.0845339 -0.000536913 0.0134437 0.00159245 0.0375024 0.0527007 0.0255026 0.0718683 0.0169769 0.030653 0.0113928 0.0134483 -0.00211991 0.0126477 -0.00371629 0.0019568
internal_weight=762846 354294 408552 275826 263894 78468.1 66339.2 144658 207375 12128.9 117824 36463.3 33112.9 26387.5 169949 43899.2 43366.5 68451.1 219994 88145 25048.6 6387.12 163156 120527 42628.8 2449.22 23974.6 62519.7 49852.6 3191.83 37426.1 29875.9 15776.7 15259.9 13180.3 14099.2 46660.8 29407.6 116499 119794 12667.1 18661.5 2734.51 15927 733.676 1325.38 6725.43 114973 11693.3 7834.94 3858.4 1225 946.428 523.306 1756.54 6792.59 11792.5 21686.7 103280 10074.8 93205.1 44144
internal_count=4029928 2432073 1597855 1902898 1182314 529175 441744 415541 1331524 87431 351448 243268 220477 176499 1101886 186572 185071 571374 995742 450602 166278 43844 1058910 786110 272800 17201 151819 523484 420283 26851 229638 198476 101356 98098 85687 97120 393432 128288 348411 781408 103201 122434 16008 106426 4702 3037 43978 749791 77573 52261 25312 8763 6543 3587 14895 42976 50404 134061 672218 67016 605202 283831
is_linear=0
shrinkage=0.05


Tree=5
num_leaves=63
num_cat=0
split_feature=0 71 0 0 104 73 71 0 11 9 32 95 101 36 57 49 5 70 8 82 7 9 56 78 82 27 81 82 51 7 13 80 56 0 56 82 0 96 81 7 80 55 8 95 87 7 81 56 29 56 70 93 44 81 57 10 26 49 56 89 69 80
split_gain=92356.6 24443.5 14385.9 8354.07 4603.8 4396.65 3863.12 3133.51 2832.34 2453.56 2438.87 2046 1702.85 1692.92 1691.91 1685.18 1675.03 1620.73 1524.73 1644.26 1521.14 1440.47 1759.5 1356.07 1422.25 1419.71 1567.52 1389.93 1935.05 1331.81 1329.26 1371.97 1481.49 1312.79 1302.96 1215.74 1181.11 1177.52 1152.77 1119.14 1116.2 1386.74 1109 1091.15 1053.32 1046.2 1039.47 1132.21 1662.39 1035.84 1379.75 1046.83 1025.27 1341.59 1134.43 1047.41 1118.76 1119.9 1069.12 1098.05 1089.06 1020.61
threshold=190.50000000000003 3.0221514701843266 46.500000000000007 412.50000000000006 0.90913891792297374 3.9790191650390629 2.1478341817855839 6.5000000000000009 0.098136048763990416 -2.2662019729614253 2.759261012077332 -2.2557365894317623 222.41177368164065 5.6087722778320321 -1.2279824614524839 1.8931142091751101 -0.3279611468315124 1.7132905721664431 -0.8778250217437743 -0.28705120086669916 2.8747979402542119 3.8706216812133794 0.056921934708952911 1.8752334117889407 0.24489450454711917 5.3551368713378915 7.1993069648742685 0.024507434107363227 3.6201585531234746 6.494784116744996 2.4612622261047368 4.9862785339355478 17.882225990295414 274.50000000000006 2.3346875905990605 0.48990881443023687 94.500000000000014 7.1927294731140146 4.9418456554412851 5.6657581329345712 5.9988164901733407 -0.03983348794281482 -3.9972431659698482 -1.5756334066390989 -3.6816009283065791 5.6657581329345712 4.7708165645599374 0.12329774722456933 17.059136390686039 5.8254487514495858 2.1151032447814946 0.42072036862373358 0.38652281463146215 3.7646254301071171 -0.66259926557540882 -0.26140297949314112 8.5153536796569842 3.7915083169937138 0.88137224316596996 2.6482455730438237 3.1659133434295659 5.5922803878784189
decision_type=2 2 2 2 2 2 2 2 2 2 2 2 2 2 2 2 2 2 2 2 2 2 2 2 2 2 2 2 2 2 2 2 2 2 2 2 2 2 2 2 2 2 2 2 2 2 2 2 2 2 2 2 2 2 2 2 2 2 2 2 2 2
left_child=2 3 7 8 5 11 36 -1 15 20 18 -3 -9 38 -7 -2 45 44 19 -11 -5 22 29 25 -25 30 27 28 -27 -16 31 39 34 -17 -33 -29 -4 52 -8 -20 41 -23 -21 -12 -13 -6 47 48 -37 51 -51 -24 53 -18 -54 56 57 -55 -57 60 -60 -49
right_child=1 4 6 9 16 14 13 12 -10 10 43 17 -14 -15 21 33 37 -19 23 42 -22 40 49 24 -26 26 -28 35 -30 -31 -32 32 -34 -35 -36 46 -38 -39 -40 -41 -42 -43 -44 -45 -46 -47 -48 61 -50 50 -52 -53 54 55 -56 58 -58 -59 59 -61 -62 -63
leaf_value=-0.050502711956058599 0.052637397838372985 0.016370214014300621 -0.018864197978961897 0.03987120373863387 -0.025442790223833708 -0.0079429037574246433 -0.0039319486195630426 -0.028831766981752951 0.018243935307115884 0.10072472370177349 0.07484775285776489 0.11545078611621609 0.11140190948820237 0.078492494523648038 0.091230371632784246 -0.0051012703441623806 0.0079606079438460011 0.057697110700405965 0.011652606584024226 0.10316491621155938 0.12190590441185255 -0.056765808239419582 0.0598684942737501 0.054105254613595083 -0.028851011520647726 0.018067308642190378 0.15150828794676777 0.00021453196862230274 0.080825223552710365 -0.0037090981276462296 0.052946517121038143 -0.00044509691117026367 -0.032863817929183671 0.0042530485082430585 0.036243834508491383 0.0287582850866787 -0.010861374279483922 0.1076382460258733 0.014224788919398683 0.053477661454837726 0.10324168765123204 0.076544585650581698 0.0228480072249173 0.031736303193126647 0.029820914456241472 0.086569220094858901 -0.034345684029486866 -0.020679668681134526 0.12005456040983904 0.038011498602709283 0.10651980246727731 0.032081200436327936 0.11062354100422747 0.052268596884575039 -0.0040853966877009316 0.0098019756803837052 -0.04185369732147054 0.11775627601961276 0.01824682599163199 -0.035101236777307684 0.11470009464265213 0.1155469634684119
leaf_weight=19143.424219042063 1538.5916805714369 9774.3287649229169 79894.013503529131 7768.873432405293 2553.7534209862351 826.13400764763355 36427.834567986429 107575.14983247221 26675.713954694569 730.39636568725109 1633.7350756824017 367.96497673541307 215.95562285929918 703.65568949282169 4979.3253121972084 67951.130664005876 4123.3468783050776 11019.377697274089 34274.819185726345 437.8316478356719 608.76862493902445 253.87981028854847 6504.1906169503927 3302.5204812213778 611.81168433278799 2956.7949507683516 238.65767347812653 6984.4231097102165 2101.0129452571273 398.90237657725811 1603.8220124021173 26055.87001542002 3206.8790495097637 83712.486101724207 2666.6789405718446 1151.9608885720372 109026.44767084718 425.68644918501377 11501.05891636014 1676.7837515473366 3606.7250147387385 832.53414789587259 21086.268495343626 14431.510211288929 13670.52363781631 226.00755873322487 449.59801325947046 803.18430162966251 879.3070258423686 1268.5385624319315 1751.613996334374 7087.0597171336412 226.97297924757004 2087.2216877043247 3950.5037504062057 2924.7328577339649 228.12964237481356 951.35519151389599 456.38647518306971 245.97183722257614 816.93039421737194 164.84724187850952
leaf_count=47991 8447 63479 305517 59889 18618 5861 154234 314186 147761 5594 12470 2454 174 2048 30997 379151 29583 65974 263601 3426 4265 1864 42779 25500 4765 22807 1807 54987 15786 2694 12031 204408 25236 530750 20888 8435 517537 2708 44863 12254 23389 5422 160893 110892 89511 1397 3380 6052 6705 7738 9468 46430 1534 14481 25632 20105 1768 6172 2459 1931 5702 1182
internal_value=-9.61811e-05 0.0165801 -0.018272 0.0102762 0.0409816 0.0475772 -0.0110108 -0.0318609 0.0032084 0.0196361 0.0179129 0.0357752 -0.0285498 0.0015563 0.0625193 0.000590297 0.0195839 0.0433435 0.0152858 0.0269931 0.0458462 0.0647011 0.0593284 0.0123624 0.0411351 0.0110403 0.0246041 0.0226394 0.0441478 0.0841893 0.00796942 0.00690599 -0.000636824 6.19481e-05 0.00296235 0.0122095 -0.0142458 0.0256543 0.000425164 0.0136048 0.0898571 0.0453682 0.0244865 0.0361249 0.0320734 -0.0163078 0.0364935 0.0471203 0.0683188 0.0512746 0.0777667 0.0453824 0.0234681 0.0309849 0.00217202 0.0432945 0.0647868 0.0728043 0.027485 0.0614972 0.0801704 0.00261383
internal_weight=761750 397262 364488 315704 81558.1 62341.1 237553 126935 179878 135826 127449 34832.2 107791 48632.5 27508.9 153202 19217 25057.9 111383 22254.5 8377.64 26682.8 21989.6 89129 3914.33 85214.6 15729.8 15491.1 5057.81 5378.23 69484.9 67881 31929.4 151664 28722.5 10433.3 188920 16437.2 47928.9 35951.6 4693.14 1086.41 21524.1 16065.2 14038.5 2779.76 3448.9 2999.3 2031.27 16611.4 3020.15 13591.3 16011.6 11834.1 4177.48 7710.73 3266.71 3038.58 4444.02 1519.29 1273.32 968.032
internal_count=4030062 2643512 1386550 2113362 530150 398060 1024199 362351 1066109 1047253 983099 221418 314360 201145 176642 918348 132090 157939 859737 169913 64154 170781 140106 689824 30265 659559 121141 119334 38593 33691 538418 526387 250532 909901 225296 80741 823054 112075 199097 275855 30675 7286 164319 123362 91965 20015 25754 22374 15140 106415 17206 89209 109367 82201 27166 52618 22421 20653 30197 10092 8161 7234
is_linear=0
shrinkage=0.05


Tree=6
num_leaves=63
num_cat=0
split_feature=0 71 0 0 81 71 0 0 9 83 0 94 102 101 56 56 50 21 81 28 88 57 56 57 56 18 0 8 33 15 80 56 80 26 56 82 54 81 57 94 5 47 56 24 54 82 26 26 15 15 51 80 81 83 82 80 80 51 9 82 50 29
split_gain=83052.9 21347.6 13619.9 6651.99 4920.04 3646.3 2949.64 2594.17 2166.25 1929.44 1876.51 1652.62 1613.29 1552.81 1570.7 1484.57 1458.74 1458.42 1413.57 1276.95 1236.61 1203.75 1157.76 1215.71 1747.49 1177.32 1146.01 1142.53 1129.35 1096.28 1572.59 1435.77 1076.46 1073.41 1099.96 1067.09 1147.84 1059.01 1016.16 991.077 973.709 913.382 1102.58 1145.25 1023.07 887.026 1311.43 1072.22 907.208 877.073 1192.45 962.31 1246.66 910.341 864.051 1096.07 1016.76 1010.01 851.084 851.063 856.039 875.054
threshold=193.50000000000003 2.8109085559844975 46.500000000000007 498.50000000000006 3.6960386037826543 2.1747378110885625 8.5000000000000018 533.50000000000011 -1.8387310504913328 0.38515712320804601 316.50000000000006 -3.4216727018356319 56.189094543457038 6.0182321071624765 14.633857250213625 0.25453475117683416 4.0324490070343026 2.0783613920211796 4.9418456554412851 2.0044946670532231 -0.79456230998039235 0.7509991228580476 5.8254487514495858 0.7509991228580476 0.53865954279899608 1.8889114856719973 94.500000000000014 1.2217321395874026 2.8479727506637578 1.4482396841049197 4.8520653247833261 22.602602958679203 4.9988110065460214 2.0470429658889775 -0.18090262264013288 -0.0046952415723353616 8.4613633155822772 5.3670268058776864 0.14742547273635867 -2.3193856477737422 0.032195907086133964 0.091378446668386473 -0.31104637682437891 -0.059500811621546738 7.5634601116180429 -0.32846452295780176 1.9342866539955141 1.6431001424789431 -0.74510061740875233 -4.1573269367218009 2.6536620855331425 4.0712625980377206 3.6960386037826543 0.68541869521141063 -0.015569325536489485 6.2529785633087167 4.3104300498962411 4.2978994846344003 -0.3021037876605987 0.48990881443023687 3.284273743629456 17.961000442504886
decision_type=2 2 2 2 2 2 2 2 2 2 2 2 2 2 2 2 2 2 2 2 2 2 2 2 2 2 2 2 2 2 2 2 2 2 2 2 2 2 2 2 2 2 2 2 2 2 2 2 2 2 2 2 2 2 2 2 2 2 2 2 2 2
left_child=2 3 6 10 16 26 -1 9 37 -6 41 -7 -8 14 15 45 -3 22 38 -18 -21 27 23 25 -25 -11 -4 -9 -24 30 -12 -31 40 34 -27 54 -37 49 -13 -40 -16 42 43 44 -2 46 47 48 -10 -5 51 -51 -53 -52 56 -56 57 -15 -26 -47 -61 -62
right_child=1 4 5 8 7 11 12 21 13 17 29 18 -14 35 32 -17 19 -19 -20 20 -22 -23 28 24 58 33 -28 -29 -30 31 -32 -33 -34 -35 -36 36 -38 -39 39 -41 -42 -43 -44 -45 -46 59 -48 -49 -50 50 53 52 -54 -55 55 -57 -58 -59 -60 60 61 -63
leaf_value=-0.045976392948709713 0.11010982693074572 0.0039883703807401041 -0.018026468363585787 -0.034879323078297504 -0.01273209118888537 0.087015832591980424 -0.027483250028609348 0.04412952114644058 0.096990009217092485 0.012667907630689298 0.012564023686693213 -0.010895205860420065 0.035965777187009162 -0.011255098182422032 0.0013004521953752591 0.028378000897992469 0.002107285182832663 0.086506170047263575 0.015600323568892904 0.073660182641713465 0.022812922203287525 0.073566727117910971 0.042072944358514802 0.058697886918371057 0.043950475584145832 -0.04419749903638534 -0.010178039906492844 0.07585932222497789 0.0915779714329234 0.018459418651854086 -0.00099944980347105631 0.081586057156628339 -0.035513982616994087 0.029029010419614483 0.068931794485864492 0.016302380849720854 0.064490738267910103 0.10826530689383795 0.059355699030969822 0.0030698784914281432 0.11740958927658551 0.0098989273841235872 -0.0032996444672510044 -0.007972921870533561 0.028860962631970539 0.003557751794846316 0.00037455304864140592 0.12420020090651727 -0.0069770576837032278 0.040040133168037617 0.035932931973260918 0.12873285435276979 -0.016365361700843028 -0.049879538953714331 0.077977441958147972 -0.035349356871508454 0.041241001596367045 0.11433618063066187 -0.039070493526662246 -0.024795291066530806 0.0085498605668739864 0.07257106306375237
leaf_weight=25251.752667374909 516.64628873765469 12661.189900450408 79442.267533138394 378.17439737170935 2043.1515669599175 563.21731027215719 98268.43694678694 20168.366035021842 350.90215943753719 9366.1184949651361 56930.92413584888 21602.629759848118 1011.3533984795213 1755.9252731800079 1510.8191271573305 15006.240645423532 2358.1281939446926 1436.5763156786561 12225.376149088144 2284.2881939262152 2510.7838518023491 6083.3320379033685 3950.8529163375497 7034.7936591207981 523.09507518261671 230.98563674092293 112221.15317049623 3303.6487791985273 1627.6910778582096 10389.817492723465 34212.624479584396 985.40629094094038 2687.159880168736 16194.853883393109 2964.2179120853543 17006.370801955462 1331.7870803028345 598.63892509043217 830.9745129942894 13042.601360827684 204.07948133349419 18884.266145259142 87346.800868473947 1516.0494621545076 1545.2439714446664 24901.889725968242 1318.459225140512 550.01132662594318 519.39233200252056 1058.4869716987014 5472.353553570807 959.22242916375399 174.76833868026733 326.70386853069067 2097.7817799597979 236.93044369667768 6887.8845192193985 175.13258661329746 750.14522393792868 518.96441075205803 900.32562412321568 1310.8966433182359
leaf_count=63951 2609 86531 307009 3097 12439 1398 295955 155117 2646 54195 379056 93113 2239 13732 11888 118598 16005 7221 47214 14750 15609 45047 21029 38564 3214 1215 536829 24710 8336 66412 229414 6125 22295 92272 16312 134756 10530 4563 3384 54734 1543 101941 500062 8997 8505 201615 10778 4327 3935 8381 43413 7251 1421 2611 16497 2021 54754 1280 4385 3981 7245 10386
internal_value=-7.71726e-05 0.0157731 -0.0173017 0.00923002 0.0363675 -0.0103381 -0.0307179 0.0421748 0.0207684 0.0347628 0.00443482 0.00194506 -0.0268365 0.0181329 0.0127461 0.0155124 0.0141864 0.0369645 0.00093882 0.0322338 0.047046 0.05374 0.0352935 0.0320956 0.0489435 0.0272265 -0.0134312 0.0485985 0.0565312 0.00929952 0.00747274 0.0239346 -0.015767 0.0342578 0.0607423 0.0272245 0.0198053 0.044059 -0.00411395 0.00644522 0.0151783 -0.000106949 -0.00218517 0.0250154 0.0492629 0.00915479 0.0362915 0.0696092 0.0350056 0.0394543 0.0429758 0.0743831 0.106376 0.0310907 0.0394199 0.0664666 0.0322529 0.00018838 -0.00495463 0.0064639 0.0329598 0.0465197
internal_weight=760519 396059 364460 300567 95492.2 239928 124532 75677.8 88239.3 46122.5 212328 48264.8 99279.8 79271 49779.1 45377.1 19814.4 44079.3 47701.6 7153.2 4795.07 29555.3 42642.8 37064.2 8308.03 28756.2 191663 23472 5578.54 102519 91143.5 11375.2 4402.06 19390.1 3195.2 29491.8 18338.2 8968.35 35476.2 13873.6 1714.9 109809 90924.7 3577.94 2061.89 30370.8 2738.77 1420.31 870.294 8369.71 7991.54 2192.48 1133.99 5799.06 11153.7 2334.71 8818.94 1931.06 1273.24 27632.1 2730.19 2211.22
internal_count=4029442 2623616 1405826 2006665 616951 1043681 362145 484056 703544 259182 1303121 199843 298194 632807 399237 363511 132895 246743 198445 46364 30359 224874 239522 210157 46163 163994 843838 179827 29365 681007 608470 72537 35726 109799 17527 233570 145286 70737 151231 58118 13431 622114 520173 20111 11114 244913 21686 10908 6581 66174 63077 17053 8672 46024 88284 18518 69766 15012 7599 223227 21612 17631
is_linear=0
shrinkage=0.05


Tree=7
num_leaves=63
num_cat=0
split_feature=0 71 0 0 0 71 11 7 73 11 81 76 55 28 94 49 102 0 49 18 56 80 55 102 28 79 55 81 78 82 80 7 50 94 56 37 56 26 7 55 49 27 26 82 52 82 28 82 51 26 80 76 11 60 9 82 54 8 80 52 63 55
split_gain=75299.1 19282.6 11664 7310.79 3164.99 3108.31 2647.42 2637.79 2762.81 2363.42 2123.17 1875.35 1565.75 2517.93 1563.22 1560.95 1546.04 1305.87 1218.96 1232.17 1672.24 1281.56 1174.9 1162.45 1148.11 1147.25 1146.93 1120.1 1078.79 2015.7 1307.76 1239.94 1327.46 1190.54 1065.72 1032.13 1397.82 1235.08 1208.77 1302.41 1207.13 1105.2 1462.74 1687.04 1216.86 1096.32 1281.09 1069.13 1025.63 1022.89 1007.53 997.743 991.255 985.194 1019.2 968.511 966.9 964.876 1769.36 1031.1 977.268 963.009
threshold=184.50000000000003 3.1307204961776738 48.500000000000007 418.50000000000006 8.5000000000000018 2.2328922748565678 0.12244821339845659 -0.32882428169250483 4.0608537197113046 0.059257855638861663 3.9989241361618046 -1.7906804680824278 -0.026025447063148018 1.2054330110549929 -3.4216727018356319 1.8931142091751101 56.189094543457038 277.50000000000006 5.4361743927001962 6.1332967281341562 7.6090276241302499 6.1127309799194345 -0.01977922115474939 84.956996917724624 1.1550157070159914 17.564020156860355 -0.76246282458305348 4.9418456554412851 1.9328463673591616 -0.010471513029187916 4.9988110065460214 2.3766970634460454 1.7257711887359621 -2.7853031158447261 -0.2818706333637237 0.43940663337707525 4.44144630432129 1.6431001424789431 8.5571966171264666 0.024514817632734779 2.8741717338562016 3.877374649047852 3.4967508316040044 0.026201135478913787 0.76723113656044017 -0.0070472918450832358 3.9972169399261479 -0.35461214184761042 1.9608876109123232 3.258554339408875 3.0165600776672368 -0.10829008743166922 -0.30051043629646296 0.077634207904338851 -1.5467162728309629 -0.44191588461399073 8.2971696853637713 -2.4724317789077754 4.2567460536956796 0.0030627943342551593 2.586718082427979 -0.042931957170367234
decision_type=2 2 2 2 2 2 2 2 2 2 2 2 2 2 2 2 2 2 2 2 2 2 2 2 2 2 2 2 2 2 2 2 2 2 2 2 2 2 2 2 2 2 2 2 2 2 2 2 2 2 2 2 2 2 2 2 2 2 2 2 2 2
left_child=2 3 4 6 -1 35 15 10 -9 11 -3 -5 23 -14 -7 51 -6 -17 19 21 25 -12 -15 50 -20 -21 -11 -16 30 -30 31 32 52 -32 -28 -4 41 40 39 -39 -38 42 -37 -44 -43 -41 -47 -46 -35 -19 -13 -2 -24 54 -51 -50 57 58 -10 -59 -60 -36
right_child=1 7 5 9 16 14 -8 8 56 26 18 12 13 22 27 17 -18 49 24 20 -22 -23 28 -25 -26 -27 34 -29 29 -31 33 -33 -34 48 61 36 37 38 -40 45 -42 44 43 -45 47 46 -48 -49 55 53 -52 -53 -54 -55 -56 -57 -58 59 60 -61 -62 -63
leaf_value=-0.045321316634992816 0.064213304765151177 0.0062947797144397993 -0.015358989389208775 0.039080879735770575 -0.025988642815241061 0.084957888344110402 0.018769523228362096 0.033087354996949057 0.11112075414208439 0.10547878437080588 0.034688066630125643 0.14256733184212803 0.1048787451399843 0.047893877276835625 -0.0041039873243821643 -0.0044108380326909821 0.03358537069023295 0.0012154658800846499 -0.063645530300127248 0.0042956709849862476 0.10848343489531082 0.081985403460119163 0.036511715587750591 0.074394867158872183 0.097522141680013594 0.093047377854824143 -0.0305751069944959 0.014381145218896774 0.0940655651768776 0.012177113942033486 0.066961395119640763 0.049608425177291818 0.014781723224091801 0.16042704066427999 0.048186599309895856 -0.005516315504308417 0.0066022223459860935 -0.01364215360465508 0.12323116752013413 -0.040033290338157411 0.13248544375527613 -0.02182579198785559 -0.041527224069003076 0.12490559930039183 -0.065234694829743298 0.066923155922864103 -0.048175499749446918 0.13332001320408512 0.07958185223729955 0.065765395472658181 0.0021855283906361952 -0.036015857889141419 0.12635019241833514 0.0025643031065083377 0.018249203847411296 0.0022581339192802364 0.078858402506877354 -0.0005936696934581041 -0.021321400964847609 0.061090764800285469 0.039700774622508893 0.025881366813281605
leaf_weight=24613.210184335709 1477.2847229614854 9754.8756920546293 132626.51746099442 7424.0987020432949 101006.57008203864 559.07950197160244 23187.300763741136 24892.993537135422 523.49833660572767 512.08980838954449 12124.859646335244 127.32684063911438 809.03007582575083 2809.8014516755939 30477.959070973098 79072.425559043884 1100.1012566015124 65817.556468129158 121.66200872510672 6678.0426126867533 449.61251955479383 1623.9566622376442 1022.9083797857165 575.27068576216698 1140.4783877283335 384.12884421646595 706.15328019857407 11207.831773146987 1210.8793400526047 1979.0362260788679 769.41346010565758 3203.7665928527713 30756.36646810919 103.35386114567518 6537.0882610455155 22337.165172338486 360.63362687081099 4370.729659922421 212.44300632923841 419.51370397210121 402.7946467474103 17121.272239305079 229.00573957711458 450.95427593588829 95.014963239431381 1581.1260562315583 284.61802063882351 231.36586002260447 409.95996281504631 1255.3210074454546 31987.494438715279 297.74261461943388 438.57604553550482 11112.999200843275 11116.770330458879 27776.470332056284 4281.800505541265 714.08380833268166 1256.1380992606282 13204.000861279666 1371.4920093938708 18649.561695709825
leaf_count=64101 7929 65625 589493 53680 311181 1235 124972 153917 3049 3328 73577 889 5995 20682 128440 440440 2441 419489 956 45069 2614 9639 7666 4350 7226 2152 4704 42371 8931 15510 5876 23619 233555 802 47553 99678 994 18547 592 1882 1302 74407 762 1415 328 6083 1267 791 3150 7018 247720 1584 3398 69689 68250 218744 28196 4649 8411 80885 8886 137875
internal_value=-7.17139e-05 0.014475 -0.0171136 0.0091927 -0.0292266 -0.0102293 0.00292043 0.0367517 0.0444082 0.0179922 0.0257811 0.0148042 0.0130705 0.0172252 0.00198111 0.000760493 -0.0253465 0.000268641 0.0342203 0.0313831 0.0150956 0.0402802 0.0162176 0.00400961 0.0819486 0.00913558 0.0314418 0.000866235 0.0149017 0.0432814 0.0134971 0.0199465 0.0169954 0.00563518 0.0299735 -0.0130835 -0.00680869 0.0128175 0.0061067 0.00235042 0.0731063 -0.0105105 -0.00331583 0.0688735 -0.0200011 0.03293 0.0493485 0.0754947 0.00396494 0.00441206 0.00274653 0.0473901 0.0635393 0.0133702 0.0230753 0.00338556 0.0576049 0.0522692 0.0272729 0.0579262 0.0105321 0.0316723
internal_weight=759356 409668 349688 331146 126720 222968 193337 78521.6 46244 137809 32277.6 111404 103980 71289.6 42244.9 170150 102107 168375 22522.7 21260.6 7511.78 13748.8 70480.5 32690.1 1262.14 7062.17 26404.9 41685.8 67670.7 3189.92 64480.8 35421.6 32217.9 29059.2 25892.8 180723 48096.6 7631.86 6868.43 6655.99 763.428 40464.8 23017.1 679.96 17447.7 2285.26 1865.74 326.381 28289.8 89302.6 32114.8 1775.03 1461.48 23485.1 12372.1 28186.4 21351 17069.2 3151.13 13918.1 2627.63 25186.6
internal_count=4029559 2682249 1347310 2187398 377723 969587 1139371 494851 287993 1048027 206858 854567 800887 547928 172046 1014399 313622 1004886 141233 133051 49835 83216 541933 252959 8182 47221 193460 170811 521251 24441 496810 268238 244619 228572 190132 797541 208048 30667 28371 27779 2296 177381 101855 2177 75526 9232 7350 1119 222696 564446 248609 9513 11064 144957 75268 221894 134076 105880 20346 85534 17297 185428
is_linear=0
shrinkage=0.05


Tree=8
num_leaves=63
num_cat=0
split_feature=0 71 0 0 81 0 71 11 0 11 104 0 94 102 94 50 94 80 57 14 57 11 82 26 51 82 55 57 95 81 82 83 49 55 80 82 49 7 95 54 83 82 83 82 81 78 81 68 80 55 54 104 87 7 27 17 55 7 78 50 54 5
split_gain=67943.3 16936.1 12073.1 5336.04 4015.7 3123.97 3090.15 2505.84 2138.23 1698.21 2048.47 1556.9 1554.54 1458.52 1352.79 1267.05 1243.49 1237.94 1163.99 1424.44 1147.11 1114.38 1198.27 1330.21 1101.01 1097.15 1574.63 1090.77 1065.66 1063.59 1115.08 1058.91 1046.45 1043.89 1039.27 1099.45 1063.43 1035.76 1014.72 1011.33 987.439 1056.99 1027.27 1196.55 1322.6 1009.93 1425.04 1164.12 1586.01 1033.94 978.657 944.644 940.905 906.889 903.879 904.973 902.701 902.622 900.281 967.385 1495.54 1046.58
threshold=196.50000000000003 2.7843723297119145 48.500000000000007 560.50000000000011 3.6960386037826543 6.5000000000000009 2.2328922748565678 0.072491429746150984 505.50000000000006 0.14133927971124652 0.84969210624694835 325.50000000000006 0.55698186159133922 56.189094543457038 -3.4216727018356319 4.0324490070343026 -2.8606135845184322 4.9862785339355478 1.0218882560729983 0.53765624761581432 0.7509991228580476 0.050552792847156532 -0.30942197144031519 1.8480814695358279 2.2631710767745976 -0.094412021338939653 -0.05012990161776542 -0.39758901298046107 -2.7284773588180538 4.9418456554412851 -0.074621096253395067 0.49795994162559515 5.3066191673278817 -0.023436853662133213 6.042626380920411 -0.49853762984275812 2.6077524423599248 17.071607589721683 -2.7284773588180538 8.3759751319885272 0.55988505482673656 0.48990881443023687 0.52257111668586742 0.24489450454711917 3.9823641777038579 -0.20599133521318433 2.9899290800094609 1.5118297934532168 4.6640701293945321 0.0044735397677868613 8.4393396377563494 0.97833636403083812 -2.4382236003875728 -2.1274513006210323 3.1737033128738408 2.8778712749481206 -0.35649938881397242 2.3766970634460454 -1.5277088880538938 2.306174755096436 7.8840117454528817 -0.20130436122417447
decision_type=2 2 2 2 2 2 2 2 2 2 2 2 2 2 2 2 2 2 2 2 2 2 2 2 2 2 2 2 2 2 2 2 2 2 2 2 2 2 2 2 2 2 2 2 2 2 2 2 2 2 2 2 2 2 2 2 2 2 2 2 2 2
left_child=2 3 5 7 15 -1 18 11 9 12 -11 -2 51 -7 -8 -3 -5 38 19 52 34 22 23 -18 -24 33 32 -26 -29 -28 -31 -9 -27 -16 -10 -36 -37 -21 -13 -33 42 -42 45 44 -44 46 -30 48 -48 -47 -49 -6 -4 -38 -55 -56 -14 -25 59 60 61 -54
right_child=1 4 6 16 8 13 14 31 20 10 -12 17 56 -15 25 -17 21 -19 -20 37 -22 -23 24 57 27 26 29 28 40 30 -32 39 -34 -35 35 36 53 -39 -40 -41 41 -43 43 -45 -46 49 47 50 -50 -51 -52 -53 58 54 55 -57 -58 -59 -60 -61 -62 -63
leaf_value=-0.047804373687731105 -0.002379109883153872 0.0033623691365145553 0.035844308798172984 0.062393189725393206 0.059696299162899508 -0.0257046134449644 0.074467160734054003 0.025306717788026036 0.035112351541608022 0.045624098458739104 0.015958632616905371 0.052760309642135642 -0.037146346645077565 0.029814402115756262 0.010962568214349065 0.029114480528127915 0.077197507667069579 -0.001284452571135186 -0.022892240753658914 -0.0031909256519990687 0.064681654970025731 0.032961439352868452 0.058104318247869602 0.0048505640843610892 -0.0026937948031389002 -0.019487236364774688 0.0029938134801851452 0.077095276739644031 -0.036617871621716272 0.14466706757441272 0.020227776614615476 0.0042280105386916875 0.09744495225341282 -0.038137887236532227 -0.070868992708247189 -0.060418685833870701 0.033621993767639732 0.12812234970747699 0.0096251104444042834 0.031288787831004382 -0.002027389553465151 0.03965966904012351 0.085929064793722268 -0.039275069096198684 0.022019351379624744 0.037077245459993718 0.093676710309328601 -0.010145773658582283 0.011329708732586687 0.0056095793697681154 0.081571322038292288 -0.0061912764874214078 -0.052859606733150925 0.015859278231790931 0.084131598152885206 0.02366694066622161 0.012352093383455359 0.13045405991860784 -0.014460205740281029 -0.0092238513450712458 -0.014391975678476138 0.097449642626595487
leaf_weight=17619.047224424779 90944.888552069664 13308.219864986837 969.16856206953526 1762.7402905076742 2717.7157509922981 105970.2394567281 643.55143233388662 17472.207209587097 18079.316845811903 20605.975206807256 8111.2848809957504 1391.0279839634895 1004.3430695682764 1195.5199007615447 1655.2811727151275 7449.8131549134851 1655.5448573678732 33104.613985769451 21328.215199284256 43701.672718331218 7058.2114689722657 12852.536123499274 1393.6380271092057 1691.4274881929159 8899.0592939853668 7343.51119492203 23171.860548183322 718.18749076873064 1730.4574903100729 182.42794125527143 9798.458209618926 19339.544746786356 195.47197749465704 3125.1743313446641 167.22673217952251 184.20076687633991 2282.4226213991642 149.68840363621712 66416.240270465612 4202.0997325256467 10403.826705954969 1779.8470051139593 1716.0662643536925 367.84816405922174 1533.3859851807356 7802.5974133014679 909.14217261224985 3582.217563636601 1636.2860540896654 3923.1413486003876 315.54550911486149 679.86390741914511 133.06250983476639 682.21002355962992 5067.5857613012195 705.98326969891787 10993.331801019609 155.257703371346 119587.16181375086 3228.9392975866795 799.75536450743675 864.04470498114824
leaf_count=48124 526817 90294 4423 13924 15058 327269 1540 100598 134429 106000 45204 8975 5885 2470 7006 47618 12840 228724 99422 190128 50092 100383 10904 14024 73906 30435 98094 5625 14007 442 38061 114098 818 14121 1308 1519 16889 426 448004 24729 86020 13981 13973 3159 12451 63557 7390 29378 13604 31858 2527 4606 637 4950 35971 5136 62483 1098 539637 14871 4056 3121
internal_value=-3.1617e-05 0.0142555 -0.0157067 0.00829557 0.0321594 -0.0282932 -0.00907611 0.00476355 0.0373405 0.0300628 0.0372458 0.00236542 0.0166625 -0.025085 0.00253883 0.0126055 0.0209826 0.00664132 -0.011884 -0.0104981 0.0467189 0.0198242 0.016461 0.0446659 0.0143454 0.00151924 0.00418142 0.0129985 0.0168329 0.00887177 0.0225165 0.0159813 -0.0164429 -0.0211376 0.0420501 0.055844 0.0582266 -0.00273977 0.0105108 0.00905939 0.0156185 0.0040652 0.0216036 0.0461116 0.0557867 0.0171465 0.00365439 0.0144744 0.0407666 0.0265503 -0.00270175 0.0465141 -0.0132072 0.0607342 0.070313 0.0767435 0.00820576 0.0154754 -0.013589 0.0071407 0.0365364 0.0773582
internal_weight=758459 396797 361662 297699 99097.7 124785 236877 232871 78339.7 44112.5 28717.3 191857 15395.3 107166 46115.7 20758 64828.8 100912 190762 169433 34227.2 63066 50213.5 3502.23 46711.2 45472.2 40691.7 45317.6 36418.5 33152.7 9980.89 41013.9 7538.98 4780.46 27168.9 9089.63 8922.4 43851.4 67807.3 23541.6 35700.4 12183.7 23516.7 3617.3 3249.45 19899.4 8173.65 6443.19 2545.43 11725.7 3897.76 3397.58 125582 8738.2 6455.78 5773.57 11997.7 1846.69 124613 5025.8 1796.86 997.107
internal_count=4029097 2603996 1425101 1976554 627442 377863 1047238 1451945 489530 239236 151204 1212520 88032 329739 190517 137912 524609 685703 856721 757299 250294 510685 410302 27962 382340 188977 167850 371436 297530 136597 38503 239425 31253 21127 200202 65773 64465 190554 456979 138827 291905 100001 191904 29583 26424 162321 66906 52899 20994 95415 31905 19664 566745 62946 46057 41107 68368 15122 562322 22685 7814 3758
is_linear=0
shrinkage=0.05


Tree=9
num_leaves=63
num_cat=0
split_feature=81 81 101 29 103 103 79 104 9 27 73 51 83 54 103 55 11 55 56 92 27 82 26 104 97 56 56 28 27 86 88 6 15 54 56 52 26 54 56 5 26 103 50 83 28 82 82 26 57 51 6 56 11 32 26 74 80 56 97 55 56 27
split_gain=45867.4 15018.2 11559.3 6106.53 4131.82 3602.66 3596.87 3554.35 3223.81 2297.75 2137.45 2113.3 2033.77 2002.7 1889.35 1828.94 1697.21 1643.09 1625.9 2245.15 1588.28 1802.09 1578.28 1484.27 1433.85 1453.12 1420.68 1689.42 1415.46 1414.72 1411.18 1367.33 1265.14 1498.2 1478.67 1311.98 1247.97 1479.39 1442.81 1231.54 1228.22 1204.64 1179.56 1219.83 1174.63 1164.33 1137.78 1434.32 1126.12 1117.57 1108.73 1144.15 1096.82 1083.64 1205.99 1070.89 1069.44 1058.97 1031.65 1028.17 1404.37 1253.78
threshold=3.5781728029251103 1.8260185718536379 8.7251296043396014 17.177232742309574 4.6959142684936532 4.1190040111541757 0.28129161894321447 0.87059563398361217 -2.1990239620208736 5.3551368713378915 6.6077184677124032 3.381339550018311 0.44047789275646215 8.1462745666503924 4.8789997100830087 0.002465899684466422 0.8663524091243745 -0.066152729094028459 -0.31104637682437891 2.1518360376358037 2.9861444234848027 0.47860752046108251 1.6209331154823305 0.47787034511566168 -3.1388339996337886 5.8254487514495858 -0.030001768842339512 1.2224857807159426 4.1427617073059091 -3.5926378965377803 -2.4791717529296871 0.97373297810554515 1.413607716560364 8.5086569786071795 1.7619692683219912 0.23750761151313785 1.6800821423530581 8.2924232482910174 7.6090276241302499 0.19662761688232425 4.5683376789093026 6.5388629436492929 5.7843739986419687 0.41099750995635992 1.6937142014503481 0.16946160048246386 -0.21583228558301923 2.5286657810211186 1.4435293674468996 2.8330725431442265 0.12155047431588174 -0.10229786112904547 -1.0000000180025095e-35 2.1598224639892583 4.4019541740417489 0.74016737937927257 6.6854293346405038 -0.72582951188087452 27.902834892272953 0.19642398506402972 0.086852122098207488 5.0335714817047128
decision_type=2 2 2 2 2 2 2 2 2 2 2 2 2 2 2 2 2 2 2 2 2 2 2 2 2 2 2 2 2 2 2 2 2 2 2 2 2 2 2 2 2 2 2 2 2 2 2 2 2 2 2 2 2 2 2 2 2 2 2 2 2 2
left_child=1 6 8 5 10 20 -1 12 13 11 42 28 -6 -2 16 17 23 31 19 30 21 49 -14 -8 44 58 27 -9 36 -22 -7 -11 33 40 -34 -35 37 38 55 59 53 -20 -4 -44 -24 46 47 50 -48 -3 51 -38 -23 54 -13 -10 -17 -30 -26 60 -31 -62
right_child=2 3 4 -5 7 18 14 26 9 15 -12 32 22 -15 -16 56 -18 -19 41 -21 29 52 24 -25 25 -27 -28 -29 57 39 -32 -33 34 35 -36 -37 45 -39 -40 -41 -42 -43 43 -45 -46 -47 48 -49 -50 -51 -52 -53 -54 -55 -56 -57 -58 -59 -60 -61 61 -63
leaf_value=-0.048096324942686293 0.019701029307235638 -0.022940500886153334 0.0062554492110374589 0.01504359314787595 0.011449045226110557 0.12580295644644168 -0.016052592617771918 -0.048381420391965538 0.030165495696769198 0.055712648511719587 0.051482778438482625 0.0027371646081411991 0.094606250876858131 0.076826313691593429 0.0088071332843698072 0.018851344488675745 0.14328967470764992 0.096644485350759091 -0.0022721244057099014 0.098450908064015644 0.084094896407975933 -0.012570394188722259 -0.011529049486726412 -0.027541073689171774 0.038648876587293643 0.075601710419002863 0.016984117292105513 0.066791813897926877 -0.060724001595919376 -0.011997368254696071 0.0054850701603101557 -0.044045327935372441 0.013097087247459428 0.12243613597479304 0.05051777959637959 -0.022284426895140246 0.10787450728393388 -0.031566202224959816 0.1626198907130017 -0.025128704974889327 -0.024164130214691437 0.033085439462903592 -0.022176412011541691 0.025286177248148529 0.09691584664844459 0.0054925232713799038 -0.021178627672337431 -0.052610631376211872 0.17858471506349835 -0.0082331910282791385 0.12149776377247674 -0.034859613760671752 0.082129648152417883 0.017370700644692681 0.075772039442825595 -0.012712754871983027 -0.045911614865223702 0.016275656839691306 0.083811369239066943 -0.013229745953553846 0.0013084948276142279 0.034915288053247069
leaf_weight=13605.278572745621 3822.033181630075 44906.096035607159 21538.119720704854 37623.339602440596 3663.8546812683344 256.73320394009352 49986.274071909487 359.6031811311841 4341.3391173705459 1038.567315608263 4334.0627034455538 55731.622568808496 1927.352945715189 2563.2943463847041 5101.2615144178271 14813.701894745231 153.56742726266384 1462.3829939290881 137917.33157183975 892.43721298873425 419.56601863354445 531.254020601511 281.54040671139956 64270.407759740949 24849.979344002903 3421.8651192560792 19878.614544376731 2735.4027760997415 467.25710991770029 21551.160254135728 4479.2666174545884 512.11228208988905 10335.158797554672 503.45124100148678 3545.0677218660712 226.71492992341518 214.62412602454424 1793.2995205000043 170.72084545344114 9282.6856377646327 3312.7414181679487 2450.8042908608913 1440.3492753133178 22333.306178338826 2193.3498801440001 6789.1023788005114 23121.733489178121 418.55502673238516 69.775899574160576 18134.10509672761 403.80815916508436 401.5350806415081 718.59254512935877 18696.734594285488 570.02257090061903 2190.1407105848193 665.17395346611738 9633.8962940201163 1332.1956545561552 31448.733818501234 32009.479721538723 3037.768432289362
leaf_count=42801 24899 192186 113062 269187 24603 1208 186163 2501 23397 6219 19383 376815 11967 15336 28761 92637 508 8929 798526 4971 1081 2468 1997 218716 158239 19688 126258 16797 2989 100775 24835 3657 62990 2888 19611 1037 1435 10391 614 30062 19719 21124 8262 116621 14331 37825 134210 2880 594 91197 2379 2540 2575 121571 3638 10477 4677 57662 7737 155551 147932 14999
internal_value=-8.65494e-05 -0.00946747 0.0160634 -0.00397197 0.0286374 -0.00629456 -0.0237373 0.0373938 0.0077994 0.00642097 0.0179408 0.00427528 0.0468469 0.0426416 -0.0209639 0.0230054 -0.0222913 0.05864 -0.000597891 0.02575 -0.0114272 -0.0175311 0.0506603 -0.0225152 0.0480171 0.0449577 0.021892 0.0533987 -0.00401137 -0.00741251 0.0120325 0.0227604 0.00873564 0.00629061 0.0226574 0.0775317 -0.00824278 0.00875883 0.0195516 -0.00780784 0.00562539 -0.00165456 0.0147314 0.0224098 0.0845796 -0.01284 -0.0178933 0.0252433 -0.0205699 -0.01871 0.0572118 0.0149526 0.041899 0.00694152 0.00347793 0.0157878 0.0160655 0.0127082 0.0409499 -0.00598146 -0.0019538 0.00422232
internal_weight=756880 478776 278104 345659 110290 308036 133117 60643.8 167815 161429 49645.8 142937 37670.1 6385.33 119512 18491.9 114410 3013.06 145997 5628.44 162039 64290 34006.3 114257 32078.9 29604 22973.6 3095.01 50015.8 97749.4 4736 1550.68 92921.5 79041.3 13880.2 730.166 39914.6 8495.5 6702.2 97329.8 78311.1 140368 45311.8 23773.7 2474.89 31419.1 24630 1438.52 23191.5 63040.2 1019.97 616.159 1249.85 74998.4 56301.6 6531.48 15478.9 10101.2 26182.2 88047.1 56598.4 35047.2
internal_count=4029088 2335626 1693462 1858677 641446 1589490 476949 384118 1052016 1011781 257328 895662 238562 40235 434148 116119 405387 18805 850664 31014 738826 288426 213959 404879 201992 185664 145556 19298 287393 450400 26043 9876 608269 525668 82601 3925 226742 44879 34488 449319 521743 819650 237945 124883 16328 181863 144038 9234 134804 283383 6354 3975 5043 502024 380453 33874 97314 60651 165976 419257 263706 162931
is_linear=0
shrinkage=0.05


Tree=10
num_leaves=63
num_cat=0
split_feature=0 71 0 0 81 0 0 11 8 0 11 79 94 94 11 6 7 11 78 28 7 8 54 57 73 7 11 103 55 52 12 28 78 102 35 9 70 94 12 6 54 70 102 6 28 27 26 8 57 26 52 86 28 57 88 100 26 81 4 26 28 54
split_gain=58300 15744.6 7055.19 6481.14 3216.03 2602.3 2413.43 1992.12 1847.29 1736.86 1595.11 1500.45 1497.35 1472.8 1367.9 1356.81 1299.75 1275.99 1231.55 1196.99 1430.8 1105.8 1101.01 1045.39 984.892 1061.04 1207.44 968.932 952.17 930.18 970.496 912.39 1444.14 1064.06 889.36 938.671 886.627 872.655 849.162 836.941 860.75 825.778 1078.91 819.992 1419.03 1351.39 1326.67 913.342 907.618 872.04 852.292 805.197 799.121 919.205 912.082 798.356 792.176 777.532 776.88 776.295 1262.97 1219.01
threshold=148.50000000000003 2.7339286804199223 44.500000000000007 352.50000000000006 3.6960386037826543 6.5000000000000009 498.50000000000006 0.12244821339845659 -3.2463918924331661 604.50000000000011 0.13349066674709323 11.173987388610842 0.3301017582416535 -3.0365041494369502 0.052721839398145683 -0.49509473145008082 -1.7854939103126524 0.20224478840827945 -1.4323492646217344 2.0172371864318852 -0.53975018858909596 0.53443995118141185 8.1672101020813006 -1.4468410611152647 2.8555517196655278 0.91800579428672802 -0.65105023980140675 3.7256208658218388 -0.18132384121417996 0.85860165953636181 -0.06639558449387549 2.3220508098602299 0.60958981513977062 159.78884124755862 3.0574406385421757 -2.5271164178848262 19.32896709442139 -2.8606135845184322 1.2879519462585451 5.5563416481018075 7.2115564346313485 0.17228048294782641 16.07794284820557 -1.910699665546417 2.9669865369796757 2.4427602291107182 1.6318611502647402 -2.0852494239807124 -0.091070279479026781 4.0022425651550302 0.011177646461874248 -3.5926378965377803 4.3520507812500009 -0.1606807857751846 -2.6091825962066646 -0.22709834575653073 2.9187773466110234 6.1968350410461435 0.32038126885890966 2.5286657810211186 1.863726079463959 7.4790172576904306
decision_type=2 2 2 2 2 2 2 2 2 2 2 2 2 2 2 2 2 2 2 2 2 2 2 2 2 2 2 2 2 2 2 2 2 2 2 2 2 2 2 2 2 2 2 2 2 2 2 2 2 2 2 2 2 2 2 2 2 2 2 2 2 2
left_child=2 3 5 7 19 -1 10 18 28 17 12 51 -6 -4 23 22 -17 58 38 -3 -21 31 -12 -15 -8 26 -26 -22 -5 37 -31 -18 33 -33 35 -11 -16 -20 -2 -27 -41 42 -9 44 45 46 50 49 -46 -45 -39 -7 53 -25 -55 -40 -48 -49 -10 -47 61 -61
right_child=1 4 13 8 6 11 24 41 9 34 15 -13 -14 14 36 16 21 -19 29 20 27 -23 -24 52 25 39 -28 -29 -30 30 -32 32 -34 -35 -36 -37 -38 43 55 40 -42 -43 -44 47 48 59 56 57 -50 -51 -52 -53 -54 54 -56 -57 -58 -59 -60 60 -62 -63
leaf_value=-0.045660250079658619 0.0085836873980331303 -0.0018869764998558193 0.06263265471718972 -0.016995877656602626 0.041215493051775604 0.094114244714575065 0.02352010521676336 0.10361286870503679 0.00767644677175661 0.047439075050085898 0.033091503898451759 0.085800046861887191 0.0043215804885278772 0.007813507164649236 -0.0058093957381507863 2.8218012860240782e-06 0.037124615520818964 0.037337838870709322 0.040167203675496893 0.0065902456650710388 0.0044484189653546616 0.056113834288501835 0.06423309455279716 -0.021743967550257242 -0.024007509311886971 0.062220429308984727 0.039751659994794117 0.048637009617512772 0.075198637480335687 0.1865591565160927 0.012655911228322742 0.043537541557831662 -0.009469576481580878 -0.023625043665037281 0.039598644728069593 0.015966418898331527 0.083305937168206487 -0.047521781202886748 0.086210222273413323 0.10589285298081895 0.020973929583395862 0.010601348190759582 0.018289258084264865 0.0089332358503456336 0.1178140889002538 -0.018525851866581691 -0.0081535622536363355 -0.0070620906935868338 0.024273392434166683 0.081748728929276662 0.12902731167858758 -0.024775087648576461 -0.037101024746198384 0.06535076499565419 -0.01228081632020829 0.0033195592410799162 0.148083795635505 0.04292432641685294 0.11369156045148271 0.11931045613507126 -0.0077644406192354763 0.019551164115810465
leaf_weight=16645.462200477719 9630.890484675765 10257.48175162077 667.46308062970638 334.6068134829402 3461.6711702123284 141.67104802280664 6414.2845463901758 561.64396445453167 109750.48660171777 2510.6227621212602 8269.6109549552202 307.82191941142082 13366.240511007607 4932.8206638097763 57299.698375254869 4726.8168608248234 6926.0591078922153 3792.6243302226067 1104.7255574390292 8432.7725838273764 1652.2827576547861 3199.2445332109928 4324.7122228443623 34049.330116771162 777.45764143019915 10439.996817141771 16249.615704596043 4979.8678540810943 1706.5451561957598 128.2357724905014 211.97605004906654 3588.967470176518 3917.2168472409248 704.98256152868271 5203.2756032347679 41853.506625570357 279.48033301532269 79.023831591010094 724.5939502120018 339.04278052598238 2445.1824371442199 20055.348536871374 1086.56261420995 3775.3351994156837 276.44373630732298 6963.8556965142488 836.33520410954952 122385.05645730346 3994.4130535200238 460.48470893502235 484.85579752177 95442.744323171675 4198.3457584381104 379.22102169692516 77997.675400562584 484.55819123983383 88.838915459811687 781.95029880851507 172.08374536037445 354.13804780691862 6835.8002680838108 2228.2769003733993
leaf_count=47867 52732 66758 1573 2128 19416 207 46771 2528 755719 19766 42980 265 74260 21811 228976 24923 33376 24025 6370 54731 9575 15454 20993 148824 6158 73270 116097 30920 12126 523 1114 18010 19575 3760 41765 343433 644 538 3744 2374 17527 101525 5390 21174 1277 42333 5132 693758 22332 2444 2554 298037 18726 1390 336717 2706 460 4405 1068 1843 39018 12609
internal_value=-0.000108908 0.0109227 -0.0175927 0.00564281 0.0270128 -0.0274109 0.0314792 -0.000825376 0.0128234 0.0122322 0.0246024 -0.0242426 0.011913 -0.0114476 -0.0117239 0.0305904 0.0233812 0.00882746 -0.00273308 0.0112873 0.0202569 0.0294074 0.0437893 -0.014731 0.0413223 0.045096 0.0368392 0.0376305 0.0600842 -0.00390183 0.0785598 0.0237597 0.0124834 0.0325078 0.020043 0.0177485 -0.0053754 -0.00408857 0.0135451 0.0557236 0.031349 0.0133987 0.0474094 -0.00441576 0.00446525 -0.00172307 0.0438657 -0.00595926 0.0303543 0.0168666 0.104245 -0.0245979 -0.0156846 -0.0148846 -0.0119044 0.0530226 0.00699266 -0.0067444 0.00784345 -0.0058693 0.00348996 0.0332725
internal_weight=755672 463331 292342 348857 114474 112538 89151.1 183533 165324 163283 52485.5 95892.2 16827.9 179804 179137 35657.6 23063.3 113715 161830 25322.4 15064.9 18336.5 12594.3 121557 36665.6 30251.3 17027.1 6632.15 2041.15 150990 340.212 15137.2 8211.17 4293.95 49567.4 44364.1 57579.2 150650 10840 13224.2 2784.23 21703.6 1648.21 149545 22142 17871.1 1489.05 127403 4270.86 4235.82 563.88 95584.4 116625 112426 78376.9 1209.15 925.174 123167 109923 16382.1 9418.22 2582.41
internal_count=4028504 2923467 1105037 2226539 696928 346376 534944 1026509 1200030 1185776 272747 298509 93676 758661 757088 179071 115098 780812 917066 161984 95226 90175 63973 527468 262197 215426 122255 40495 14254 857884 1637 74721 41345 21770 404964 363199 229620 856247 59182 93171 19901 109443 7918 849877 128096 104487 8684 721781 23609 23618 3092 298244 505657 486931 338107 6450 5592 698163 756787 95803 53470 14452
is_linear=0
shrinkage=0.05


Tree=11
num_leaves=63
num_cat=0
split_feature=0 32 0 0 104 94 0 11 82 11 47 57 4 32 82 103 57 78 82 97 80 57 7 96 76 80 7 57 11 8 80 82 4 83 51 83 78 50 27 7 82 80 0 80 57 82 76 54 54 27 27 89 3 102 50 83 6 81 81 57 77 74
split_gain=52191.5 12919.3 8221.73 5233.62 2945.43 2704.48 2630.61 2453.15 2296.98 2264.28 2142.63 1939.57 1925.38 1818.4 1671.36 1584.36 1488.58 1340.88 1505.96 1316.55 1288.35 1278.62 1377.83 1269.59 1245.17 1202.01 2058.57 1199.3 1796.79 1189.75 1306.36 1163.49 1131.8 1130.19 1128.89 1109.95 1106.09 1234.44 1327.22 1094.49 1054.29 1053.95 1029.61 1018.16 1012.24 1011.71 987.193 1036.23 1466.13 1159.07 1470.22 1119.56 975.63 965.352 963.142 962.617 960.271 953.701 953.513 947.204 946.254 945.661
threshold=172.50000000000003 2.9250113964080815 44.500000000000007 403.50000000000006 0.91717481613159191 -3.6216804981231685 6.5000000000000009 0.059257855638861663 0.2837365865707398 0.11288851499557497 0.17034973204135898 0.29194262623786932 0.022158968262374405 2.2723630666732793 -0.1503215208649635 4.0163424015045175 1.7598388195037844 1.9328463673591616 0.14782314002513888 16.769234657287601 5.0343382358551034 0.12379152327775957 1.251804053783417 2.8379824161529545 -2.1357979774475093 4.1994371414184579 0.14321921020746234 -0.06152746453881263 -0.37430505454540247 -2.4724317789077754 6.3091921806335458 0.34579677879810339 0.064016051590442671 0.59107676148414623 4.4689602851867685 0.46312721073627477 0.40347938239574438 4.667673110961915 4.3212502002716073 2.3766970634460454 0.60308957099914562 4.1157066822052011 91.500000000000014 5.0978531837463388 1.9492493867874148 0.54845911264419567 -1.7906804680824278 7.2831046581268319 7.8491287231445321 3.8618863821029668 3.0189372301101689 -3.2204570770263667 2.0746024847030644 216.56532287597659 0.99392494559288036 0.51730862259864818 -0.33440682291984553 6.1968350410461435 4.7456240653991708 -0.7669180929660796 2.617266178131104 -1.7277867197990415
decision_type=2 2 2 2 2 2 2 2 2 2 2 2 2 2 2 2 2 2 2 2 2 2 2 2 2 2 2 2 2 2 2 2 2 2 2 2 2 2 2 2 2 2 2 2 2 2 2 2 2 2 2 2 2 2 2 2 2 2 2 2 2 2
left_child=2 3 6 9 5 27 -1 17 10 16 15 21 -9 42 35 -7 52 20 55 -8 39 22 24 -10 -6 26 40 28 -3 -16 -31 61 -11 44 -35 -12 45 38 -38 46 41 -14 -4 -40 -18 -22 -5 49 54 50 58 -50 60 56 -49 -19 59 -54 -48 -26 -2 -15
right_child=1 4 13 7 11 8 19 12 23 32 14 -13 25 31 29 -17 33 18 -20 -21 36 -23 -24 -25 53 -27 -28 -29 -30 30 -32 -33 -34 34 -36 -37 37 -39 43 -41 -42 -43 -44 -45 -46 -47 47 48 51 -51 -52 -53 57 -55 -56 -57 -58 -59 -60 -61 -62 -63
leaf_value=-0.044880111022852762 -0.0041044396998047876 -0.014536230405082302 -0.016012705219298425 0.035279181539448132 0.058693845504773315 0.0071597951409152613 -0.023420401515686504 0.063522394213233607 0.028305971500397917 0.044777269003303963 0.056615352996536007 0.041645007384715674 -0.021239028910126523 0.041594000690836457 0.016355267965762019 0.034624438001355458 0.0080063618978498171 0.031228013112995581 -0.016018102677269035 0.093983511916825871 -0.0059828461467678938 -0.02463345268104937 0.042067174767868469 -0.011862674375193435 0.11391350304077941 0.018170106036174898 0.09607444104438749 0.093418880202519844 0.089731315442939996 0.041586895895569985 0.066547380112415871 -0.027265862278791582 0.011410463689936458 0.012277090940006119 0.14306640210740579 -0.011712725581211605 0.012762931361547741 0.0010080769432686319 -0.066307692299681337 0.034739724716099117 0.10474507163711942 0.070336784014190107 -0.008250780256355613 0.067115900731295225 0.1403438584602372 0.040989756778683523 0.032274435107934089 0.10789917110742911 -0.041248930971825505 0.058886575700675473 -0.017450887595602774 0.014607118314349599 0.012504517131780796 0.054560627209281676 -0.0065801191073046345 0.081972563086046168 -0.020333512844521666 0.11063832852479223 0.14516081042849147 0.005657336112433564 0.0072852908641014534 0.0013360186522373171
leaf_weight=16286.936118409038 132922.83001543581 811.00420777499676 76715.876739352942 4201.2322969287634 932.63848932087421 10605.854871489108 94336.526673331857 3214.5931171253324 3411.5792061686516 2851.4394544363022 795.5379397124052 4378.8199128359556 1253.1785103306174 1524.5276704058051 3572.1850784048438 10400.652071364224 238.35627912729979 2542.6212781071663 1103.6255405470729 238.43279124051332 24558.568745084107 3106.3939479142427 2822.5500200241804 4643.2411845326424 209.79245795309544 21945.70499188453 1418.106940574944 2517.913017526269 840.79968845099211 25141.697472602129 6627.4231549873948 3467.8487148433924 23325.908330500126 5332.3296355977654 169.26864062994719 2340.6994937136769 4466.5583297684789 9306.092475168407 151.81371532380581 5703.7090360224247 290.5489132925868 418.21857732534409 96434.045255385339 2269.9158210977912 366.44574756920338 1201.4581489562988 999.37974784523249 185.04051575809717 918.10175387561321 2214.5321800112724 1802.2526407986879 37598.973092794418 7335.6411201655865 718.59548421949148 14796.588548235595 1478.8213396817446 5250.3746590390801 255.25402747839689 229.4236957654357 4881.076222576201 21134.206242755055 33310.616584300995
leaf_count=47997 785496 5589 306375 29038 6373 64902 299065 21606 20578 14401 4847 27246 8842 6253 21949 69257 1569 18451 8176 199 189734 20174 16986 28473 1434 154692 9262 16010 5003 143213 38678 15525 121172 30235 866 14317 32734 71839 1208 40271 2110 2524 460650 16468 2058 9047 7376 1339 6639 15871 14043 278075 40277 4781 110322 10726 34943 1046 1874 34138 123438 131981
internal_value=-6.35053e-05 0.0112925 -0.0152914 0.00673484 0.0276887 0.0326241 -0.0263201 0.0139462 0.0302106 0.00137011 0.0336036 0.0118174 0.0270752 -0.00950908 0.0406154 0.020759 -0.000764127 0.0107082 0.0357083 -0.0231234 0.00954949 0.00452763 0.0106433 0.00515196 0.00324453 0.0224467 0.0501995 0.0717014 0.0385601 0.0437196 0.0467959 0.000349222 0.0150466 0.023467 0.0163264 0.0056319 0.00264651 0.0128854 0.0289291 0.0137681 0.0170088 0.00170351 -0.0116899 0.0587279 0.0882881 -0.00379052 0.0118673 0.0101923 0.00811255 0.0313979 0.0113015 0.0132747 -0.00167962 -0.00143621 -0.00515906 0.0499043 -0.00533223 0.0158185 0.0534518 0.01014 -0.00254191 0.00309902
internal_weight=754524 432210 322315 338201 94008.8 71708.6 110862 144269 67538.9 193932 59484.1 22300.2 28540.4 211453 38477.5 21006.5 167754 115729 5125.07 94575 110604 17921.4 14815 8054.82 11992.5 25325.8 3380.05 4169.72 1651.8 35341.3 31769.1 38303 26177.3 6106.4 5501.6 3136.24 41954.4 16194.4 6888.29 68649.2 1961.95 1671.4 173150 2421.73 604.802 25760 62945.5 58744.3 53498.7 5245.59 3031.06 38517.1 161648 11059.8 14981.6 4021.44 10341.2 7590.9 1228.8 5090.87 154057 34835.1
internal_count=4029761 2761716 1268045 2182825 578891 432816 347261 1062267 406214 1120558 357163 146075 199036 920784 223004 134159 984985 863231 37353 299264 825878 118829 98655 49051 81669 177430 22738 26602 10592 203840 181891 153759 135573 34728 31101 19164 321030 122249 50410 504848 13476 11366 767025 17676 3627 198781 464577 435539 396375 39164 23293 284714 950257 75296 111661 29177 70515 41323 9250 35572 908934 138234
is_linear=0
shrinkage=0.05


Tree=12
num_leaves=63
num_cat=0
split_feature=81 81 101 29 79 94 56 103 104 9 27 7 27 54 51 83 54 83 6 5 49 56 51 103 49 26 49 83 94 83 7 9 12 56 56 4 27 83 83 54 27 19 7 27 97 56 27 83 49 27 6 49 7 28 51 56 83 97 56 54 26 50
split_gain=34408.1 11678.8 8919.32 4691.21 3302.2 3006.8 3289.26 2939.57 2788.4 2553.08 2229.34 1902.54 1879.51 1830.89 1830.7 1750.94 1624.91 1572.06 1572.04 1543.82 1675.25 1645.69 1525.43 1447.71 1361.95 1349.02 1389.43 1347.03 1317.65 1317.15 2196.77 1292.95 1553.16 1273.16 1255.26 1244.6 1540.98 1273.44 1587.29 1683.66 1420.73 1849.49 1264.82 1237.21 1185.01 1174.8 1633.8 1175.53 1129.66 1265.53 1126.63 1126.39 1243.76 1245 1647.16 1290.94 1112.64 1192.69 1208.71 1110.87 1182.52 1106.6
threshold=3.5781728029251103 1.8260185718536379 8.7251296043396014 16.413722038269047 0.28129161894321447 -2.5394767522811885 -0.25064259767532343 4.4005842208862314 0.84446632862091076 -2.1990239620208736 2.938837051391602 -0.78971955180168141 5.3551368713378915 8.5142889022827166 3.381339550018311 0.27784503996372228 8.1462745666503924 0.44047789275646215 -3.7732503414154048 0.23149444907903674 4.8006162643432626 0.294416293501854 5.0807621479034433 5.633000612258912 5.3066191673278817 1.6209331154823305 3.1193184852600102 0.54522979259490978 -2.7853031158447261 0.84110385179519664 -2.3501472473144527 1.9487290978431704 0.69839772582054149 -0.080598831176757799 29.492165565490726 -0.29355481266975397 3.5723736286163335 0.55988505482673656 0.50530347228050243 7.9548988342285165 5.8593826293945321 2.0663787126541142 -19.257895469665524 4.1427617073059091 27.902834892272953 0.44679652154445654 4.5464146137237558 0.50826624035835277 3.7803413867950444 6.0362470149993905 2.1889646053314213 3.2953275442123418 -3.1840404272079463 4.9249768257141122 3.9793395996093754 0.11189572513103486 0.51404905319213878 -3.4690984487533565 0.18599931150674823 7.1192309856414804 4.0365161895751962 9.0547971725463885
decision_type=2 2 2 2 2 2 2 2 2 2 2 2 2 2 2 2 2 2 2 2 2 2 2 2 2 2 2 2 2 2 2 2 2 2 2 2 2 2 2 2 2 2 2 2 2 2 2 2 2 2 2 2 2 2 2 2 2 2 2 2 2 2
left_child=1 4 9 5 -1 6 -3 22 17 16 -7 29 13 14 43 24 -2 -9 -14 20 21 -12 -4 -10 -13 -19 -27 -8 -5 48 -31 32 -29 -25 44 36 -23 38 -37 42 -41 -42 -40 -11 56 59 47 -47 -6 -50 -38 -20 -53 54 -54 -56 -28 -58 -59 -44 -61 -39
right_child=2 3 7 28 11 10 27 8 23 12 19 15 18 -15 -16 -17 -18 25 51 -21 -22 35 -24 33 -26 26 34 31 -30 30 -32 -33 -34 -35 -36 37 50 61 39 40 41 -43 45 -45 -46 46 -48 -49 49 -51 -52 52 53 -55 55 -57 57 58 -60 60 -62 -63
leaf_value=-0.045537962716060768 0.016607572752678074 0.086021000756874799 0.0080091534482468647 0.068384513577517736 -0.014027044728880785 -0.014425317253348844 0.0017608759721428587 0.0097497755409532792 -0.00085000146372171442 -0.0087305934200779204 -0.008777616808023839 0.0085797006178843279 0.084628139831690374 0.10139857534867953 0.0071376972326191532 -0.025404457574589756 0.067396495897219563 0.080385008391135937 0.007643645414905878 -0.022095405291189002 0.019531821522061458 -0.027783094009994028 0.02768981216560042 0.063743547957009358 0.16260095909444985 0.05737447956512718 0.037669327583329026 0.08857354232603197 0.010330089652243499 0.18083098545072823 -0.039572741216208039 -0.0095059086764135402 -0.015851985722047924 0.021171717348316747 0.088929973743973004 0.0024875503035018346 -0.0048153936261081656 -0.01165210006093147 0.10908164689744307 0.00086940919189316859 0.11166324475005698 -0.046686500471099499 -0.049145884819913277 0.010796566285634237 0.075599652739223783 0.066216623616104475 0.078823606703160687 -0.0063115806257758285 0.006097167667105401 0.11660376563972417 0.02798124839422585 -0.030042272754646101 0.094814361810951306 0.0026117853585466777 -0.005228432810140923 0.066296771244699765 0.1035321649347565 0.02914726362707273 -0.0084792460580997136 0.13489661441030051 -0.066522715154380907 0.1761121088302445
leaf_weight=12573.584735862911 3894.7245032265782 1417.5370882600546 29320.948702789843 998.88530247658491 42789.429942660034 76202.953047931194 16696.910910725594 4114.5598183721304 7141.0367929339409 39576.24500182271 95963.350681468844 2167.5357432588935 898.84259815514088 473.49889340996742 93661.813887454569 65811.783220931888 2643.9038325324655 2189.6784426867962 11609.241878531873 11598.42227499187 7703.5017750561237 6882.320258513093 14823.515356376767 1956.6227525770664 152.71903581172228 8687.0040310323238 15789.949796929955 1430.5404030457139 43525.703143760562 232.3342052474618 218.74094222486019 922.27583072334528 473.60440354049206 17102.694282896817 1015.5928340554237 27410.881675355136 24776.136701099575 10118.98127117008 647.23515287786722 7251.2129937708378 654.02422987669706 255.99633390456438 123.99919297546148 10201.78291464597 1489.351603128016 698.79025822877884 1075.7083870694041 2769.8415741994977 3691.2685331702232 277.65102838724852 2927.0052552521229 679.36467788368464 1629.9005298241973 1508.3087093308568 1269.2383866906166 1252.9902280494571 368.78350216150284 4633.6146766990423 3955.8104594275355 648.98586481809616 81.464818343520164 78.086222529411316
leaf_count=42584 24983 6365 153377 6878 188776 366563 108304 26507 32161 226022 494407 7108 5664 2252 607559 218120 15210 12950 69693 44843 44050 35938 72157 12716 488 49190 96392 8549 303384 692 1087 6069 2774 114863 6278 143540 143407 54209 3346 38126 3792 1295 602 60589 8368 3639 5674 13496 16832 957 15801 4674 9795 10398 8086 8025 2482 29694 24213 2845 320 240
internal_value=-4.55627e-05 -0.0083112 0.0137725 -0.0035067 -0.0212067 -0.0057628 0.0125072 0.0246788 0.0311671 0.00651948 -0.00713971 -0.018554 0.00528869 0.00334416 0.00301977 -0.0238994 0.0371513 0.0391149 0.0201352 -0.00438666 -0.00330591 -0.00427073 0.0146183 0.0183513 0.0187831 0.0422834 0.0399598 0.0071654 0.011634 -0.0108391 0.074099 0.0390804 0.0626058 0.0255452 0.0344069 0.000735009 -0.00661017 0.00563778 0.00951772 0.0230803 0.00826355 0.0671158 0.043076 -0.00472845 0.0322932 0.0351442 0.0250189 0.00831482 -0.0116601 0.0138552 -0.00134934 0.016901 0.0338489 0.0415211 0.0556513 0.030316 0.029684 0.0156063 0.0118196 0.0889028 0.112373 -0.0101971
internal_weight=753138 471249 281889 343334 127915 298810 20940.9 112589 68444.7 169300 277869 115341 162761 143913 143440 68132 6538.63 42244.3 18847.9 201666 190068 182364 44144.5 26200.4 2320.25 38129.8 35940.1 19523.3 44524.6 47209.4 451.075 2826.42 1904.14 19059.3 27253.1 86400.7 34585.5 51815.2 41618.1 14207.3 8161.23 910.021 6046.03 49778 26237.5 5398.79 4544.34 3468.63 46758.3 3968.92 27703.1 17949 6339.8 5660.44 4152.13 2522.23 24748.2 8958.21 8589.43 854.45 730.451 10197.1
internal_count=4029398 2335100 1694298 1858456 476644 1548194 132061 641348 415814 1052950 1416133 434060 1012757 896422 894170 225716 40193 256074 116335 1049570 1004727 960677 225534 159740 7596 229567 216617 125696 310262 208344 1779 17392 11323 127579 167427 466270 195146 271124 216675 73135 43213 5087 29922 286611 161149 26576 22809 17135 206565 17789 159208 110671 40978 36304 25906 16111 152781 56389 53907 3767 3165 54449
is_linear=0
shrinkage=0.05


Tree=13
num_leaves=63
num_cat=0
split_feature=0 0 11 0 0 11 81 4 76 104 104 49 94 104 70 7 27 26 94 56 28 78 11 54 27 0 85 78 56 49 56 9 9 7 51 102 26 83 34 13 72 97 27 9 81 15 56 55 7 56 8 26 51 51 83 51 51 83 58 78 15 49
split_gain=44155.9 9815.05 8692.34 4441.99 3221.09 2945.55 1888.06 2216.98 1869.66 1743.19 1724.12 1616.08 1433.1 3211.66 1323.16 1305.51 1345.73 1303.26 1298.03 1335.36 1257.78 1559.95 1303.35 1249.72 1176.17 1110.27 1029.23 1025.54 1335.16 988.756 1950.07 970.929 964.106 954.179 936.623 960.554 934.844 961.176 1212.67 1238.77 930.013 962.127 908.361 1176.24 1126.07 1098.96 907.447 883.527 882.964 879.413 872.094 1036 972.716 1084.08 1660.3 1000.68 862.7 967.806 850.929 1026.52 1138.6 1046.46
